
//<![CDATA[

// a few things don't have var in front of them - they update already existing variables the game needs
lanesSide = 2;
patchesAhead = 15;
patchesBehind = 0;
trainIterations = 50000;

// the number of other autonomous vehicles controlled by your network
otherAgents = 0; // max of 10

var num_inputs = (lanesSide * 2 + 1) * (patchesAhead + patchesBehind);
var num_actions = 5;
var temporal_window = 0;
var network_size = num_inputs * temporal_window + num_actions * temporal_window + num_inputs;

var layer_defs = [];
    layer_defs.push({
    type: 'input',
    out_sx: 1,
    out_sy: 1,
    out_depth: network_size
});
layer_defs.push({
    type: 'fc',
    num_neurons: 120,
    activation: 'relu'
});
layer_defs.push({
    type: 'regression',
    num_neurons: num_actions
});

var tdtrainer_options = {
    learning_rate: 0.001,
    momentum: 0.0,
    batch_size: 64,
    l2_decay: 0.01
};

var opt = {};
opt.temporal_window = temporal_window;
opt.experience_size = 3000;
opt.start_learn_threshold = 500;
opt.gamma = 0.9;
opt.learning_steps_total = 10000;
opt.learning_steps_burnin = 1000;
opt.epsilon_min = 0.0;
opt.epsilon_test_time = 0.0;
opt.layer_defs = layer_defs;
opt.tdtrainer_options = tdtrainer_options;

brain = new deepqlearn.Brain(num_inputs, num_actions, opt);

learn = function (state, lastReward) {
brain.backward(lastReward);
var action = brain.forward(state);

draw_net();
draw_stats();

return action;
}

//]]>

/*###########*/
if (brain) {
brain.value_net.fromJSON({"layers":[{"out_depth":75,"out_sx":1,"out_sy":1,"layer_type":"input"},{"out_depth":120,"out_sx":1,"out_sy":1,"layer_type":"fc","num_inputs":75,"l1_decay_mul":0,"l2_decay_mul":1,"filters":[{"sx":1,"sy":1,"depth":75,"w":{"0":-0.08481188780143345,"1":0.09188704028152674,"2":-0.11277312799940317,"3":0.006151629075099995,"4":-0.030780532192292636,"5":0.050088895157492756,"6":-0.059382600944464375,"7":-0.10489292577895883,"8":-0.058060439531626526,"9":-0.013007434907297555,"10":-0.193605200169593,"11":0.10907188844321943,"12":-0.08167612507943085,"13":-0.026509334904225558,"14":0.17985111408449594,"15":-0.12170582887848456,"16":-0.17765410356780864,"17":0.11822365053099755,"18":-0.09674982912008549,"19":-0.026584845870759013,"20":-0.26570160264016024,"21":-0.13424424954017455,"22":0.03439730520451362,"23":0.0017280162744532646,"24":-0.12976714397285083,"25":-0.13485990406897308,"26":0.07832009832866137,"27":-0.11329215763592296,"28":-0.14475593170496523,"29":-0.04076777243991208,"30":0.02224075443474846,"31":0.13422684260572257,"32":0.13707536496109232,"33":-0.06565788526883648,"34":-0.0382822115339442,"35":0.12179267429581435,"36":-0.08058883084056251,"37":-0.24496594906293473,"38":-0.16101593218533336,"39":0.018502623960513283,"40":0.298352007996174,"41":-0.10417641379245915,"42":0.27704228161395034,"43":-0.05036149388350735,"44":0.23626777975177532,"45":0.0011564635923791695,"46":-0.05007890493042316,"47":-0.011692976791272371,"48":-0.039838861150813865,"49":0.28684593830844585,"50":-0.06567732424527783,"51":-0.009307507898714098,"52":-0.07624191629153981,"53":-0.17730051647533157,"54":0.11057600534060082,"55":-0.01028031266833036,"56":-0.04871498902055132,"57":-0.06990308593935655,"58":-0.07441523375841298,"59":-0.09212474571752234,"60":0.12894565552363493,"61":-0.06867896764104946,"62":0.0996520576856503,"63":0.0728134190212199,"64":0.17870892975464506,"65":-0.078533858263342,"66":-0.09394611096382935,"67":-0.08234033334634523,"68":0.12191197913190578,"69":-0.29161969106067676,"70":0.14044886708208024,"71":-0.026117325826868727,"72":-0.12896221508366865,"73":-0.10312220114479033,"74":-0.043350069754366935}},{"sx":1,"sy":1,"depth":75,"w":{"0":0.07314602234729747,"1":-0.22458722996092834,"2":0.12695200319375,"3":0.2558533429864659,"4":0.06646392756049972,"5":-0.0621750716096019,"6":0.04054925216922361,"7":0.12210432539720083,"8":-0.04878481802680802,"9":0.045386370437159915,"10":-0.14007471273954433,"11":-0.13141304265837084,"12":-0.07771893689252533,"13":-0.0035188772283692342,"14":-0.06905874360037767,"15":-0.0057687112328861975,"16":0.007569330478013131,"17":0.03840322221440448,"18":-0.06726340254678452,"19":-0.10050685406596585,"20":-0.10449960589934128,"21":-0.1559499814800506,"22":0.17541587700701416,"23":0.25449573318468643,"24":0.035612465516673006,"25":0.07098727142996973,"26":0.16697002379934278,"27":0.3079619317024054,"28":-0.12185548860065444,"29":0.025017891033043995,"30":-0.02980438367937988,"31":-0.07697811767742806,"32":-0.07423593967106255,"33":-0.1209423888751771,"34":0.00046435269889307076,"35":-0.030796738927391393,"36":-0.02053190906903829,"37":-0.0018708177106897803,"38":0.03526318187903857,"39":-0.07870170568402873,"40":-0.04512614905222643,"41":-0.030099705769029497,"42":0.11595524272629652,"43":0.135339683442771,"44":0.02855491988132867,"45":0.06930352629849537,"46":0.12952316140121006,"47":0.15156258903113862,"48":-0.10292528612936702,"49":0.06725547365762612,"50":-0.09547500052961445,"51":0.030857602489754315,"52":0.13271939185523385,"53":-0.032186704818798775,"54":0.010380264115241898,"55":0.004509790773067387,"56":0.15085863373430672,"57":0.09163643817384257,"58":-0.014247157946927727,"59":0.14014823217012623,"60":0.004163089533467897,"61":-0.17333819635017614,"62":-0.08390916277179422,"63":-0.03960256092068088,"64":-0.1081187953349745,"65":0.036200840902400125,"66":0.2096484318148661,"67":-0.0018494741526915524,"68":0.11388425870134071,"69":-0.024538458738206065,"70":0.30084720824761735,"71":0.10998243544477825,"72":0.07459619646106522,"73":-0.12467811352166554,"74":0.024750214308704874}},{"sx":1,"sy":1,"depth":75,"w":{"0":0.024733380237301556,"1":0.014114417528485303,"2":-0.0515422072886526,"3":-0.09129093558615846,"4":0.14391018036966494,"5":0.06836912896838182,"6":0.13191913028330626,"7":0.026471081232689663,"8":-0.0062786260233544935,"9":0.237961162334403,"10":0.23679414825648318,"11":0.01158569762131621,"12":-0.09267633075682914,"13":0.2050748652125872,"14":0.15557592703635598,"15":0.07515104077982805,"16":0.09224714165745385,"17":-0.07828617009072111,"18":0.012199231789286228,"19":-0.062468992497826704,"20":-0.09492330783288472,"21":0.22450117534913983,"22":-0.1075425791797423,"23":0.06893274816260528,"24":-0.007565823618749789,"25":-0.12207037365375385,"26":-0.004139199303909767,"27":-0.14830317790153616,"28":0.028992979287125614,"29":0.06502442448983455,"30":-0.0489354470569196,"31":-0.15652229823331038,"32":0.004492159443017447,"33":-0.07064452559619282,"34":0.03275701296909225,"35":0.15751104011623834,"36":-0.07880453025705342,"37":0.0976898807822063,"38":0.040067804831062606,"39":0.043885805385601606,"40":-0.05858984199976258,"41":-0.11361280344378208,"42":0.004048071743157373,"43":-0.20819764651590106,"44":-0.004828179880693428,"45":0.04515061081561173,"46":0.15229348958483518,"47":-0.1255286909295693,"48":0.31885723114062414,"49":-0.09494153850620515,"50":-0.055204372876405436,"51":-0.06542552640579352,"52":-0.07817371915023817,"53":0.10705851096766876,"54":0.09812302307540563,"55":0.04487985489873388,"56":0.24440711821482802,"57":-0.015767485875789453,"58":0.0793359803794985,"59":0.061079274134754356,"60":0.017565676344585255,"61":-0.02833987074855128,"62":-0.011719218963225237,"63":0.0592395505871159,"64":0.1736669164427848,"65":-0.010383456392985243,"66":0.06113929854339955,"67":-0.15809357455791168,"68":0.07842825947721882,"69":0.13738459058302113,"70":-0.08685555605985916,"71":0.04671060965833816,"72":-0.12802113417182825,"73":0.08096659593802338,"74":0.10280268353378086}},{"sx":1,"sy":1,"depth":75,"w":{"0":0.056870928947299,"1":0.034890657507394306,"2":-0.05126424805827437,"3":-0.032780919608505765,"4":0.25196609711865153,"5":0.19069775127834146,"6":-0.10877825030089126,"7":-0.1436324049594364,"8":-0.010042623082557066,"9":0.10688885904503555,"10":0.033434656178845674,"11":0.11899267594128428,"12":0.010833043395923213,"13":-0.11029529106971521,"14":-0.0882350808028182,"15":0.13449279544193588,"16":0.02561194622714932,"17":-0.006170953627694494,"18":0.006139392525025122,"19":0.10180554013389899,"20":0.1631692773495735,"21":0.005290771325317347,"22":-0.08171914567803981,"23":-0.13605706201404233,"24":-0.06795583481419741,"25":-0.18107943701869067,"26":0.021632095650054323,"27":-0.05570339896659295,"28":0.12593450912106283,"29":-0.1858692297919269,"30":-0.1398207367111024,"31":0.0646072598191924,"32":-0.04234563766549775,"33":0.09006618949648722,"34":-0.11544789731895559,"35":0.19555454790628327,"36":0.08843812868863576,"37":-0.1789809888185173,"38":0.03189765075629089,"39":0.32251016960312745,"40":-0.11042158700861897,"41":-0.06247092076978861,"42":0.18207001757132962,"43":-0.1250880347631223,"44":-0.06615025921893797,"45":-0.05611971795409697,"46":0.041116611795216924,"47":-0.05989120382196117,"48":0.1295942110980935,"49":0.049892174548118534,"50":0.021006769551948336,"51":0.01724527882128905,"52":-0.1973736283801243,"53":-0.23932970850800142,"54":0.05134524045746457,"55":0.24986543398018862,"56":0.22415257368902644,"57":-0.23756048928047746,"58":-0.049690067724035496,"59":0.1352388010566871,"60":0.1573153613258982,"61":0.10772425655336149,"62":-0.07776954237023724,"63":-0.138256983213732,"64":0.03214677114634832,"65":0.1374022772442654,"66":0.10861412106918142,"67":0.05816546962424192,"68":-0.06219920838584666,"69":-0.0508489719910877,"70":-0.10531517907210305,"71":0.19741396745009282,"72":-0.13449671156192558,"73":-0.0020818112945350294,"74":0.027228951740413298}},{"sx":1,"sy":1,"depth":75,"w":{"0":-0.09047481028618454,"1":0.08417370734924451,"2":0.006321086396612272,"3":0.005488051042833562,"4":-0.008233170507366893,"5":0.051160660176409835,"6":0.16631986675179272,"7":-0.03357686488395048,"8":-0.041842225972110236,"9":0.06390459117975764,"10":0.05191765370199065,"11":0.18014462184851393,"12":-0.12459799623798976,"13":-0.05656162051127767,"14":0.039601759001062414,"15":-0.1627405681581818,"16":0.3250647831312696,"17":0.11890909570853528,"18":0.2234285656681717,"19":0.009578100740384737,"20":-0.007513250485403753,"21":0.23030692890592255,"22":0.08724140156996456,"23":0.02571100735772739,"24":0.1329089660370773,"25":0.0564161218104504,"26":-0.12088773745239145,"27":0.286029165021784,"28":-0.07508869342702763,"29":-0.012348846499576812,"30":0.08404309309592035,"31":-0.13788009315690875,"32":0.3889191428287226,"33":-0.1875983430560271,"34":-0.06077830366951611,"35":0.04495728168147893,"36":0.10465908069925459,"37":0.1612042275535859,"38":-0.07202783054479496,"39":0.1380224956309086,"40":-0.040999240532354105,"41":0.14818190645998763,"42":0.5397698113639149,"43":-0.19005516870143527,"44":0.006818918738552878,"45":-0.013984532596333343,"46":0.06544517605133006,"47":-0.006926908118622142,"48":-0.03670438296561458,"49":-0.0025987860632510386,"50":-0.049154955700698826,"51":0.16712771158490658,"52":0.2301263029538884,"53":0.12024474071288553,"54":-0.11093756704090836,"55":-0.0662684878876095,"56":-0.06956669639140323,"57":0.29853613767090276,"58":-0.0014716733301962668,"59":-0.0014661593544866265,"60":0.005263048050334863,"61":-0.030098988907690225,"62":0.000983408943483449,"63":-0.0335551157553707,"64":-0.04370708490310082,"65":-0.26311761815605283,"66":0.23524840165673794,"67":-0.18637489354975342,"68":-0.04846801433024294,"69":0.034435673521305714,"70":0.030639167227644235,"71":0.06155556585861075,"72":-0.2815409862442675,"73":-0.07979578665056788,"74":0.11202346350981666}},{"sx":1,"sy":1,"depth":75,"w":{"0":-0.16413484325161293,"1":-0.023309983772756334,"2":-0.15212014730240758,"3":-0.07344823382896268,"4":-0.056571752979995636,"5":0.06610652780750605,"6":-0.008211201466002589,"7":-0.03313326692304922,"8":0.05224998480629299,"9":-0.010886198494964871,"10":-0.06401526342932176,"11":0.0615454173131765,"12":0.08327632823934149,"13":0.11535640279735773,"14":0.07689563215264678,"15":-0.13278027202017956,"16":-0.04976796396335157,"17":0.12328517473778217,"18":0.1516060674675754,"19":0.08200516689693077,"20":0.02494554670819041,"21":-0.013995957671115455,"22":-0.2087270655591702,"23":-0.18916332075070194,"24":-0.0012349073343700474,"25":-0.14749140579809195,"26":-0.09167264050926224,"27":0.17688420504544622,"28":-0.04382328560109066,"29":-0.02285814215765943,"30":0.008391214840301024,"31":-0.22509788608383235,"32":0.05659665708601299,"33":0.04835604062348074,"34":0.005719112592678032,"35":0.011128607506704592,"36":0.005184269762990572,"37":0.005867486844655815,"38":-0.1940797264788043,"39":0.06114692079599902,"40":0.057146143155051406,"41":0.08314079428809587,"42":0.06722762174115206,"43":0.05172380550904718,"44":-0.11955941271585104,"45":0.10796589404637069,"46":0.1620109821152501,"47":0.1405709897457124,"48":-0.007029549240620183,"49":-0.12412138599521982,"50":0.06530739410830523,"51":0.02446620898855567,"52":-0.20853471964017561,"53":-0.16257333384687125,"54":-0.3735994186945838,"55":0.18661024909629098,"56":-0.07109804004188784,"57":0.22067611122891947,"58":-0.1913487006526876,"59":0.04063986411137843,"60":-0.021718017120388892,"61":0.06542454109910519,"62":0.04396279847343937,"63":-0.05398594041405973,"64":-0.27009678380489494,"65":-0.23360969057826825,"66":0.023247558645864096,"67":0.06742629201986655,"68":-0.04386072032672613,"69":0.004484542895946331,"70":-0.06610613845143083,"71":0.12377051805589162,"72":-0.15611023786185746,"73":-0.0953543503517485,"74":-0.014914228145103741}},{"sx":1,"sy":1,"depth":75,"w":{"0":0.10140459221957512,"1":0.08578074958603128,"2":-0.06465248414280277,"3":0.10093149136166359,"4":-0.27334570107494693,"5":-0.05426971147342858,"6":0.1282875606553224,"7":-0.01417719836676245,"8":-0.15065351477965494,"9":-0.16858340181951317,"10":0.05609619524721569,"11":0.1360907660986152,"12":0.1689140905803883,"13":0.17925306036208394,"14":0.2071818402554797,"15":0.03680575854664302,"16":0.093368949543194,"17":0.18318806056265655,"18":-0.039856918668740624,"19":0.023744341629904884,"20":-0.10688670233730485,"21":0.17549944755338603,"22":-0.03124840225810212,"23":-0.11001030867581982,"24":0.10649623184331844,"25":-0.08567768621650902,"26":-0.08957136949128668,"27":-0.00891764493791577,"28":-0.10715596444801186,"29":0.15926349005214216,"30":0.18072139800303594,"31":-0.07828843953847747,"32":-0.026997551269791708,"33":0.045299587785719075,"34":-0.12883652741560925,"35":-0.12680900506271242,"36":-0.09804771762233562,"37":-0.0216004741777805,"38":-0.09919868856875434,"39":0.09525093829602962,"40":0.1298940623331037,"41":-0.3435011397671103,"42":0.054790348279926814,"43":-0.14046021113924312,"44":0.10399102508514511,"45":0.04860475739610758,"46":0.03427873791617683,"47":0.006716680090713036,"48":-0.051136166142365616,"49":-0.003173924711076377,"50":-0.11729000283731864,"51":0.06981885252020004,"52":0.07025214677277512,"53":-0.08330726851803058,"54":0.02804672899506121,"55":0.122564731581997,"56":-0.1470705465884596,"57":0.18561511770585115,"58":-0.047896755408339285,"59":0.1382024483256101,"60":-0.066684284028614,"61":0.008039059049956245,"62":-0.00376809441359928,"63":0.02740559820756766,"64":-0.1807278218671979,"65":-0.1389611949125533,"66":0.14139705400179292,"67":0.14299137913539445,"68":0.04063497292952781,"69":-0.04818876797007542,"70":-0.03895493554532932,"71":0.13061610947104513,"72":0.08199325977000599,"73":0.014752149143859463,"74":-0.013113789847634194}},{"sx":1,"sy":1,"depth":75,"w":{"0":0.06135424247585809,"1":-0.13751932099909053,"2":0.06762178144991247,"3":0.00839619663948317,"4":-0.060977773339687895,"5":0.03866464909702746,"6":0.13139732207180008,"7":-0.01775241329947309,"8":0.055102648404776515,"9":0.10974704215449486,"10":-0.02785034310107961,"11":-0.046470168731188095,"12":-0.16358934914326878,"13":0.179420111991735,"14":-0.14320905731232844,"15":-0.052147247755867286,"16":-0.10520064001327796,"17":0.053487388163550253,"18":0.11573878320404771,"19":0.12130158813261067,"20":0.013513613132929009,"21":0.1303292347247358,"22":0.04075349492752644,"23":0.04580320140838257,"24":0.12109584447461219,"25":-0.10904918532498781,"26":0.00995488870806415,"27":0.1976940871321553,"28":-0.06641348875292732,"29":0.16139945471030004,"30":-0.05512620066229394,"31":-0.053720255294335384,"32":0.10326153097737799,"33":-0.08464037216161194,"34":0.1661793548081617,"35":-0.10095112460930417,"36":-0.05948343076611555,"37":-0.00016079673388803527,"38":0.0932397054240331,"39":-0.051123993606957005,"40":0.060243033450187895,"41":-0.17238291473272033,"42":-0.01431212992190277,"43":-0.05922952193629957,"44":0.014125623270564854,"45":-0.07700941802881878,"46":0.04256144665554062,"47":-0.06396271020292495,"48":-0.028757024269773283,"49":-0.035815004635642224,"50":-0.11958594404221409,"51":-0.2316411518968688,"52":0.20086725273579223,"53":0.00540689313687859,"54":0.07698963176887846,"55":0.15378977660357218,"56":-0.021315695183344075,"57":0.11212164818512187,"58":-0.07261968879677236,"59":0.18925537939828663,"60":-0.13373626103521946,"61":0.07670524452235684,"62":0.11322434488320175,"63":-0.04879138443498151,"64":-0.03972999817004164,"65":-0.14380088877436695,"66":-0.07100697762200846,"67":-0.06837376323403545,"68":-0.12417910233761799,"69":-0.09809264897644379,"70":-0.0118110990343142,"71":-0.05652712711085185,"72":0.14848770474826647,"73":-0.27634851289023865,"74":0.10403554147103258}},{"sx":1,"sy":1,"depth":75,"w":{"0":0.07641057350705817,"1":0.15764859858504832,"2":0.02133919409327223,"3":0.024621098996024892,"4":-0.05769451691684251,"5":-0.10987563806731206,"6":-0.01978542423652544,"7":0.07103918146769685,"8":0.1278910271124752,"9":-0.08205462432076852,"10":0.021283990081232416,"11":0.013163507201000048,"12":0.054863407370745326,"13":0.11772119936828901,"14":-0.022277792765401355,"15":-0.0409490093474731,"16":-0.10691337593474762,"17":-0.1706356435417515,"18":0.07642777589222723,"19":-0.07239049460233413,"20":-0.03235291290217132,"21":0.28183629088203804,"22":0.2618559171347133,"23":0.15316327960116133,"24":-0.11685658328459637,"25":0.10881085060747321,"26":-0.13596287823894343,"27":0.343281186682827,"28":0.05256318001737525,"29":0.23799448508567408,"30":-0.009495143864024532,"31":-0.012818114499671593,"32":0.1376761435706843,"33":-0.036855751092264154,"34":-0.03507439794756242,"35":0.04101309160407225,"36":0.0002787783238837448,"37":0.1822514137617222,"38":0.061809981402224504,"39":0.015736806851714264,"40":-0.0006226196177155325,"41":-0.00017848141589505296,"42":0.09471177861941811,"43":0.03552971214479857,"44":-0.016422049923283687,"45":0.10760265008546235,"46":-0.11369739812550049,"47":-0.07027502679920611,"48":0.3078955517619556,"49":-0.04978708452740393,"50":0.03147987348405118,"51":-0.1297181464397505,"52":-0.01614285671486598,"53":0.3585462393768898,"54":0.03847163447914158,"55":0.1006852707115032,"56":-0.11402163162300738,"57":0.30395349641432723,"58":0.0763465073891651,"59":0.008936693489590036,"60":0.026662798860765904,"61":-0.10893568010102468,"62":-0.09893178078885904,"63":0.11218471791449314,"64":0.013874029255413058,"65":-0.1281949021970494,"66":-0.04803897455516433,"67":-0.13672233102119277,"68":0.09351367967655706,"69":0.18477151018456692,"70":0.13926043099033994,"71":-0.0741555538120207,"72":-0.10129132583091544,"73":0.09120476015542744,"74":0.03019703326885588}},{"sx":1,"sy":1,"depth":75,"w":{"0":0.12577191600206186,"1":-0.06907422026604987,"2":0.18930044424788037,"3":0.14225584893661572,"4":0.1382932549393496,"5":0.048416597284972294,"6":0.04386485858469413,"7":0.07490728560413777,"8":-0.023651806585367,"9":0.1506645463164334,"10":-0.030730753578673626,"11":0.02351188771730894,"12":0.020007105782185192,"13":0.14908967957913072,"14":-0.11621821302349536,"15":0.18863604685190596,"16":-0.11734908295230109,"17":-0.06605117774376931,"18":0.020276913289342842,"19":0.022084355476233303,"20":0.20317222669018606,"21":0.17010967476890512,"22":-0.032648556780206145,"23":0.037986897092875886,"24":-0.21033255153571714,"25":-0.11715514694817256,"26":-0.03968817381430075,"27":0.20497692742624044,"28":-0.0762463960204053,"29":-0.24733109456068156,"30":-0.09312564694939657,"31":0.07063465978914052,"32":0.3111481448056954,"33":-0.01382947794510972,"34":-0.005308428734431489,"35":-0.03491900162429309,"36":-0.1607385819105983,"37":0.09863893629760066,"38":-0.0681681175286245,"39":-0.133914294719055,"40":-0.2922978059053356,"41":0.23535446828405748,"42":0.054641192749698295,"43":-0.05779133111057544,"44":0.06062304560003782,"45":0.1639868683990861,"46":-0.006253145257798484,"47":0.1499401701657996,"48":-0.12958073361631747,"49":-0.008409106719232994,"50":-0.07580604717414179,"51":-0.15434549093312622,"52":0.13792795652333803,"53":-0.20150380243186733,"54":-0.02712401313777566,"55":-0.1190331452846488,"56":-0.18878990844584592,"57":0.11228841404745674,"58":0.06969060344941193,"59":-0.010695860868555515,"60":0.2383780324627724,"61":-0.05163168267165378,"62":0.05844119036693175,"63":-0.0942233799958631,"64":0.03151811583901887,"65":-0.022236471247259422,"66":-0.08617354291112753,"67":0.10465758733837564,"68":-0.2145660864457996,"69":0.030564299519784854,"70":0.02668797303485658,"71":-0.09775438497958543,"72":0.13703034603486633,"73":-0.13918528435617497,"74":-0.06578374156095299}},{"sx":1,"sy":1,"depth":75,"w":{"0":-0.04456389858442622,"1":0.14614128586884673,"2":0.22235430442296156,"3":-0.11359853605967964,"4":-0.08261801743992914,"5":0.1876776952970687,"6":0.06587183391973818,"7":0.08269067661212222,"8":-0.033347502193640036,"9":-0.21208383873562436,"10":-0.06772016637312259,"11":-0.1449190015949942,"12":0.08732529191889168,"13":0.13093542346980822,"14":-0.009829623414545166,"15":-0.06230513435330534,"16":0.3055311358968443,"17":0.21745357074337177,"18":0.08838060135852445,"19":0.12618754091596732,"20":0.019330515632131107,"21":-0.1520047571643321,"22":0.22944846511977282,"23":0.02049027704250706,"24":0.12034471322868076,"25":0.20463874864453144,"26":-0.04737482016271779,"27":0.03276201765752862,"28":0.10833243535216786,"29":0.022687846496326304,"30":-0.039702294734248425,"31":0.10224567732546379,"32":0.26754292294858606,"33":-0.04833979775118276,"34":0.09845633121593447,"35":0.0018181711862931128,"36":-0.05189839967329931,"37":0.27882304139205755,"38":0.06063930201636804,"39":-0.10261584407121752,"40":-0.018904245757231344,"41":-0.03446616592807732,"42":0.05720105043087284,"43":-0.060235606659322656,"44":-0.2629543432289144,"45":0.07074109702430839,"46":-0.12145436248667306,"47":0.02564116668940748,"48":0.04111712659051339,"49":-0.10919492550685451,"50":-0.01403662871141112,"51":-0.14615474708119067,"52":0.2481884287043484,"53":-0.1060273651839224,"54":0.12071579261545584,"55":-0.04978204719136871,"56":-0.1737645224581613,"57":-0.05655340750697946,"58":-0.2117197012631306,"59":-0.04766614181206846,"60":-0.00045204686546984065,"61":-0.034023956518909944,"62":-0.1336909442975225,"63":-0.2442040519681,"64":0.24309680060033156,"65":-0.033871980132308896,"66":-0.047210175135865,"67":-0.07417300060886775,"68":-0.12617577797321733,"69":0.019365004083364366,"70":0.07045252225543783,"71":-0.09390664825620142,"72":-0.0024602856531217333,"73":-0.02810523310535312,"74":0.09432341624451891}},{"sx":1,"sy":1,"depth":75,"w":{"0":-0.0025594231255167584,"1":0.03202879970799952,"2":-0.03603372153624149,"3":0.02338361393441686,"4":-0.004036730753388622,"5":-0.07811718015781959,"6":0.01332510043971412,"7":-0.008201793434733026,"8":-0.06729798736725076,"9":0.06270507354559186,"10":0.3138527152004257,"11":0.06335755665204908,"12":0.04848099209186833,"13":-0.11603378546302472,"14":0.011422525098692592,"15":-0.05163193530762127,"16":0.16787185953400474,"17":0.013489195285930258,"18":-0.03495920784652695,"19":-0.13900728466101445,"20":-0.23027849599794495,"21":0.14676867454207296,"22":0.13756898601086273,"23":0.10120613289673239,"24":0.054161172761724476,"25":0.029759546077671246,"26":0.11058487803270672,"27":-0.06625805764139449,"28":0.057664111484454925,"29":-0.13825939530921405,"30":0.09019458226831259,"31":-0.09855391869714493,"32":-0.07071371149018535,"33":-0.019701129660678728,"34":-0.01007602575523536,"35":0.05058112911309236,"36":-0.02819620834318001,"37":-0.07339380946469592,"38":-0.1741338901027568,"39":-0.06532915460881865,"40":-0.15167509086527553,"41":-0.04332044920603701,"42":-0.06051729163700711,"43":-0.013212503312258539,"44":0.06560293332839941,"45":-0.016354460705458086,"46":0.002759212241865391,"47":-0.2076368888963197,"48":-0.019840894316276184,"49":-0.04373083245992297,"50":-0.026300961267367945,"51":-0.24700266515196714,"52":0.010959870307071462,"53":0.2603178985758088,"54":-0.10800499123078826,"55":0.006114883632579012,"56":-0.2213559621017236,"57":0.04767013076691031,"58":-0.036121891879363675,"59":0.12455663911849446,"60":-0.03992424890129335,"61":0.15885577925821534,"62":0.08745867543853307,"63":0.13156956368603875,"64":0.07443219103380572,"65":0.008275216776450232,"66":0.008584963009535495,"67":0.03568556647379667,"68":-0.24133077694280997,"69":-0.07559175477334092,"70":0.34397639238997124,"71":-0.1443605725399749,"72":0.17755936504344053,"73":0.03042704290998828,"74":0.048169462985231844}},{"sx":1,"sy":1,"depth":75,"w":{"0":-0.060017347375596546,"1":-0.14537898972537996,"2":0.10757495157847521,"3":0.1399540872545934,"4":-0.0473692106522572,"5":0.26113236891954306,"6":-0.23150808703313228,"7":0.09842015675156293,"8":0.1438014612861987,"9":-0.06401391800910804,"10":0.14220534293789017,"11":-0.13166266081553696,"12":0.10239290111301998,"13":0.06346652968167354,"14":-0.1015722204445221,"15":-0.14023383991463947,"16":-0.04798576257950677,"17":-0.02687015948486201,"18":0.07863905951657119,"19":0.04331894383605772,"20":0.011916193690386902,"21":0.05306791295911576,"22":-0.03225726851466272,"23":-0.06870332587446507,"24":-0.013864463875271555,"25":-0.1137370832352821,"26":-0.08379646568640563,"27":-0.13684491927328812,"28":0.2576424637166133,"29":-0.037671254846113535,"30":-0.10202845429935574,"31":-0.026533430285672434,"32":0.07736258261995314,"33":0.04430362452608462,"34":-0.03664299941394653,"35":-0.23856204451716212,"36":0.12880226880098328,"37":-0.03667850770825789,"38":0.3767561219417968,"39":0.30261789216133506,"40":-0.13980234682092135,"41":-0.10384354077058122,"42":-0.32694611032614485,"43":-0.05042277716751863,"44":-0.008897725574875956,"45":0.11300714505926164,"46":-0.07511991183095994,"47":0.06931172281051809,"48":0.06523164195130676,"49":-0.12974555665786686,"50":0.040840011037908505,"51":0.06762455565169889,"52":-0.14620066312273317,"53":0.2881931732634785,"54":0.047205339550976784,"55":0.07005941022995152,"56":-0.23203644764254103,"57":-0.021065391504866877,"58":-0.10562827189562492,"59":-0.01611661336928475,"60":0.06833185334859106,"61":0.11357049331237144,"62":0.15282993808862713,"63":0.20971843534098572,"64":0.04008780912337567,"65":0.08757263372393266,"66":0.09217323395422655,"67":-0.030363069875831854,"68":0.24243965481250818,"69":0.034034749756988156,"70":0.09732432978361513,"71":-0.04733512565255287,"72":-0.1324852728517143,"73":0.24720397036502725,"74":-0.07792435282357627}},{"sx":1,"sy":1,"depth":75,"w":{"0":-0.16872173589300632,"1":0.11841845662719029,"2":0.18210628102992463,"3":-0.08691983228458672,"4":0.09785033205978752,"5":0.09748471492583982,"6":0.16475450360097194,"7":-0.10517016219728344,"8":0.11598410183535256,"9":0.2248952834481065,"10":-0.01936183018362396,"11":-0.06626817014171883,"12":0.1131207741747473,"13":0.11482904171824244,"14":-0.1022235566765945,"15":0.041679863929477784,"16":-0.14512405659086333,"17":-0.09913609795579505,"18":0.13406846342454007,"19":0.002359600102223984,"20":0.1490331246988927,"21":-0.07554285719801819,"22":0.035232024603207866,"23":0.03755774468436723,"24":-0.002890680666461587,"25":0.016914526093204773,"26":0.08669957279498575,"27":0.12747851547516334,"28":-0.09535362780573639,"29":0.053677741001992026,"30":0.015933982357593086,"31":0.007270173536854937,"32":-0.028918312588757777,"33":-0.23008542356636977,"34":-0.1058670987452565,"35":-0.08230471253268952,"36":0.008544849600689025,"37":0.24316660868805634,"38":0.10302200874517195,"39":0.11294500070887015,"40":0.008914072104017116,"41":0.11197809286536377,"42":0.2330538448006994,"43":0.000363819001577143,"44":-0.0016946824835473745,"45":0.03760935511198139,"46":-0.012813267675176725,"47":0.10687142462847514,"48":-0.00654535068371323,"49":-0.05429298020557273,"50":0.16922134393429208,"51":-0.1061123467774732,"52":-0.04313763169054742,"53":-0.09883293884782184,"54":-0.07033913542791492,"55":-0.0036984340330813957,"56":-0.19906930862224687,"57":0.1859244106345898,"58":0.1598947799553479,"59":0.001485409135968079,"60":-0.03467246914190469,"61":-0.30279480999711883,"62":-0.0988497627132455,"63":-0.2669421731170719,"64":0.024177184211746847,"65":-0.03499655142636505,"66":-0.09124062373996819,"67":-0.07137445866236564,"68":0.10716319060275334,"69":-0.057489597716764256,"70":0.32369826517254946,"71":-0.09011836548883259,"72":-0.10859510925626896,"73":0.00006124689091406742,"74":-0.061436284907430416}},{"sx":1,"sy":1,"depth":75,"w":{"0":0.055015547446729825,"1":-0.01987384383190678,"2":0.24931108531402416,"3":-0.006793158342344772,"4":-0.14508545636297523,"5":0.0023674824736536013,"6":0.11981333607405982,"7":0.038549372924482295,"8":-0.022355890564461144,"9":-0.20514269594635434,"10":0.15491023335832782,"11":-0.06599553993815638,"12":0.12010564135702716,"13":-0.04407771704125385,"14":0.06175862882733839,"15":-0.05992461541211012,"16":-0.1170537731194969,"17":0.06635702017176075,"18":0.0834991992663234,"19":-0.22320760369142476,"20":0.1197539528484355,"21":-0.07046247887128776,"22":-0.006751303951812095,"23":-0.009461871382750859,"24":-0.0010901261714030875,"25":0.06661167948652556,"26":-0.03818667899788521,"27":-0.23079944870436953,"28":-0.3054271793798463,"29":-0.28627037448654785,"30":0.31575424697294274,"31":-0.0031201292711129547,"32":-0.023352497232694978,"33":0.07730078616533624,"34":0.0974677826033555,"35":0.0653926754821142,"36":0.02697734312778497,"37":-0.05115377248064272,"38":-0.15198937756811282,"39":-0.12655251354721747,"40":0.23704635721834302,"41":0.18364980584248458,"42":-0.06824977747937046,"43":-0.23587927673815687,"44":-0.10299529827308176,"45":-0.0025557912180174465,"46":-0.04021011430381431,"47":0.11719696921059942,"48":0.09208385422043379,"49":-0.11692680981061808,"50":0.16046050485629418,"51":-0.11947766347849884,"52":-0.1432240818702319,"53":-0.14835134369109046,"54":-0.03354209577915685,"55":0.11490610905440796,"56":0.042944021505213335,"57":-0.019971100943965935,"58":0.22130895937133171,"59":-0.1628271336014751,"60":0.04624386694476638,"61":-0.09976632343960924,"62":-0.059823711593787014,"63":-0.137321382400417,"64":-0.17395382964787934,"65":0.27466648298990504,"66":0.10183983791150988,"67":0.13358470309585369,"68":-0.047878838513982724,"69":0.04916297002019541,"70":-0.07557749748082862,"71":0.04175342858742275,"72":-0.07673345813372466,"73":0.009844463407178424,"74":-0.04607270976978805}},{"sx":1,"sy":1,"depth":75,"w":{"0":-0.12040845532704593,"1":0.03975154709963216,"2":0.15715402103400583,"3":0.007502265760866503,"4":0.17036833813525729,"5":-0.050950154151608466,"6":-0.007075671644728516,"7":-0.050138177849940534,"8":-0.008164987182657856,"9":-0.014918432623393369,"10":0.09929441774772599,"11":-0.11466136264826034,"12":0.1450722966673284,"13":0.27710328532024814,"14":-0.1433314935774063,"15":-0.03307627932328342,"16":-0.042086979265737116,"17":-0.03133088220950286,"18":0.2884645585760069,"19":0.0924363719291363,"20":0.2510061500898061,"21":0.02985296650160464,"22":0.12340514965621395,"23":-0.24305227666040155,"24":0.09359639442512405,"25":0.13104428383230113,"26":0.08013490851654634,"27":0.17042595821294115,"28":-0.07027207896209184,"29":-0.22725447790146075,"30":-0.16235135573113682,"31":-0.11406594617960619,"32":0.02328637478107317,"33":-0.11803696950173592,"34":-0.026745534478969678,"35":0.011069214445465493,"36":-0.021365578653164984,"37":0.12470439907290529,"38":0.13668247279828524,"39":0.11157364105001343,"40":-0.21955168967838534,"41":-0.11670511568737849,"42":0.2801918989148237,"43":-0.06916109003941981,"44":0.16260825139772428,"45":0.16613590253817598,"46":0.11373144438806211,"47":-0.15143054419665822,"48":0.2527919895524314,"49":-0.06978422712549327,"50":-0.013984821801307227,"51":-0.11867429926135047,"52":0.08857924370382413,"53":0.36743668635035315,"54":-0.16741294571005128,"55":-0.09331707521022896,"56":-0.21083340941441478,"57":-0.16660316037594597,"58":0.13256690501047544,"59":0.16086070196052724,"60":0.12891988593132434,"61":0.13505385540237652,"62":-0.10871859051310262,"63":0.25592483091707374,"64":0.016875702001649336,"65":-0.09284700331854873,"66":-0.26659329473693033,"67":-0.07491201548067404,"68":0.020270129667758655,"69":0.06736715078487994,"70":0.12015424616702096,"71":-0.23202530577466352,"72":-0.000003084692054885841,"73":0.251792051970484,"74":-0.00502801724883447}},{"sx":1,"sy":1,"depth":75,"w":{"0":0.13904346402906007,"1":0.028909009336287074,"2":0.3261604710299044,"3":0.01878471841833103,"4":-0.23561596493314482,"5":-0.1101167269924873,"6":0.04446079684001669,"7":0.20804843067318957,"8":-0.049282608804492235,"9":-0.38983382714637416,"10":0.09710327603841912,"11":-0.11829080877993481,"12":-0.1484088239651488,"13":-0.0622533851443091,"14":-0.13045475241162305,"15":0.1801837697467117,"16":-0.14211588059155927,"17":0.034250241793601297,"18":0.008435027113072065,"19":0.03489022769707734,"20":-0.045750799101628235,"21":0.22829685447171333,"22":0.08538198747686389,"23":-0.036812559310806445,"24":0.095779972595967,"25":-0.006428382336139931,"26":-0.1332707037463425,"27":0.2904756004258738,"28":-0.04028184508687564,"29":0.008971468339413459,"30":-0.2551350262569274,"31":0.06768572728188886,"32":0.23116600787201805,"33":-0.0901472384251038,"34":0.15128851067179497,"35":-0.12681175249430204,"36":0.1482441477403824,"37":0.17051693060918863,"38":-0.06515212613290454,"39":-0.059301072359868735,"40":-0.010792903051533019,"41":-0.09285002975098137,"42":0.5995083508448789,"43":-0.046314939754536426,"44":0.04452485861560423,"45":-0.08388832930101202,"46":0.026979021319890547,"47":0.12946283660919347,"48":0.10220928334428946,"49":0.2585195772924002,"50":0.012160279639697492,"51":0.05489561588001303,"52":0.33696585991313216,"53":0.04265314294303671,"54":0.0210359241306401,"55":-0.037920410951531106,"56":0.10439290601104506,"57":0.26402944554851204,"58":0.20917659405419683,"59":0.0657328577475558,"60":-0.05452083441724132,"61":0.07784340023382043,"62":-0.05396839066484323,"63":-0.14931857517397604,"64":-0.0000046814189520815006,"65":-0.05860335610246988,"66":0.08684376072111706,"67":-0.3643348829807511,"68":-0.1483552134770831,"69":0.0038566799809865555,"70":-0.09924224087206916,"71":0.293273136380165,"72":-0.23331943209616188,"73":-0.0024150612091185055,"74":-0.074224153782775}},{"sx":1,"sy":1,"depth":75,"w":{"0":-0.2613606501339385,"1":0.1585999036705827,"2":-0.31860340144528204,"3":-0.03985961478418935,"4":-0.01939158438253906,"5":-0.09299256500673393,"6":0.10255289192864808,"7":0.2114934697133928,"8":-0.07460030369115449,"9":-0.2782957429763186,"10":-0.07078599499099734,"11":-0.020463940938052035,"12":-0.11234951090587841,"13":0.017936156790759248,"14":0.15607226950415345,"15":-0.001146869746800206,"16":0.0765595885192533,"17":-0.09773741993943705,"18":-0.06761624672194058,"19":0.0451048930326181,"20":-0.16190779606017372,"21":0.06381732498928361,"22":-0.02362607912526994,"23":0.1861755951141506,"24":0.06099154080357644,"25":-0.2669646293175013,"26":0.020728041191093075,"27":0.06649947541133953,"28":-0.06553269672090749,"29":-0.17680092604118444,"30":-0.10285762109758556,"31":-0.07892507625512657,"32":-0.27337541081092176,"33":-0.11988637625320885,"34":-0.06885399511591463,"35":-0.024679397281256957,"36":0.00879176633584316,"37":-0.13865709093173467,"38":0.0738324421408242,"39":-0.17178126969366642,"40":-0.09145577450219364,"41":-0.03340674123027946,"42":0.09214503612089169,"43":-0.02370881542502642,"44":0.02554118963920551,"45":-0.08003061785767084,"46":0.1906825566693642,"47":0.20698754618076856,"48":-0.026297852073188497,"49":-0.07437560749516636,"50":-0.09293467554901455,"51":-0.009104360991392257,"52":0.15621635471110837,"53":-0.11557667360083662,"54":-0.08679535011379283,"55":0.05941916378886138,"56":0.18596574350918388,"57":-0.038895550004348606,"58":0.06390039957204625,"59":-0.1426204882115541,"60":-0.05891085853508067,"61":0.22181951002084935,"62":-0.08321965537652139,"63":-0.02579629367043806,"64":-0.001222866279469921,"65":0.0826065625074306,"66":0.1190557835036217,"67":-0.14915758008626903,"68":0.00040669636182224324,"69":-0.18042048853806922,"70":0.028241576943890834,"71":0.08034750890844257,"72":0.03823152606326772,"73":-0.2708044141177357,"74":-0.15140691888583352}},{"sx":1,"sy":1,"depth":75,"w":{"0":0.034334080605651844,"1":0.13586714466571373,"2":0.03234546634263289,"3":-0.059218923436922456,"4":-0.0007337016965698954,"5":0.08310211153351105,"6":-0.07570354261402304,"7":-0.20761026391759066,"8":-0.10935199492314521,"9":0.008714665654880487,"10":-0.22989276954534013,"11":-0.03146451534133741,"12":-0.00618023727096149,"13":0.3072707883452123,"14":0.019068200781235906,"15":-0.14875922970434752,"16":0.021576208776504506,"17":-0.02046762039684036,"18":-0.19138938350630424,"19":0.025373137190478977,"20":-0.10964306645609427,"21":-0.06194026065013939,"22":-0.13405696573860743,"23":0.13618265083524342,"24":0.02009441970831939,"25":-0.052559599641457504,"26":0.12505209318360502,"27":-0.06337506266560033,"28":0.07217149726766606,"29":0.025443512688844896,"30":0.18773528103400106,"31":-0.06583333903601156,"32":0.019236793216719374,"33":-0.12124033347542222,"34":-0.0900946909913865,"35":0.1051318730486265,"36":-0.061948122382363274,"37":0.027522990911357972,"38":0.24248466648269945,"39":-0.013004740550933805,"40":-0.20860702436367037,"41":0.08297953436168243,"42":-0.057923015225681336,"43":0.021837976568626162,"44":-0.06665199851665285,"45":-0.11167064136816178,"46":0.22676301247441513,"47":0.14026519223850653,"48":-0.04394709553576494,"49":-0.2515034433863825,"50":-0.05057401213824633,"51":-0.2420924596722176,"52":0.06052296306947102,"53":-0.12781369984017324,"54":0.035616513613016675,"55":-0.07561928273568606,"56":0.015616232773089883,"57":0.027793395618472584,"58":-0.16548328769181142,"59":-0.041530168051943324,"60":0.09805061836592961,"61":-0.08565077090152025,"62":0.025171603857433444,"63":0.02454025644091017,"64":-0.16929087856143865,"65":-0.1747946911262978,"66":0.0474532330468005,"67":-0.06697460218192638,"68":0.046960078110023236,"69":-0.08190611800828271,"70":0.06546607307167832,"71":0.012929884030477444,"72":-0.12219919643537473,"73":-0.2781261553121439,"74":0.03494170245567679}},{"sx":1,"sy":1,"depth":75,"w":{"0":0.11601642733982102,"1":0.2051339190280227,"2":-0.096083573427077,"3":0.1746292144463618,"4":-0.10304227121279072,"5":-0.16096316793264434,"6":-0.21617264082418614,"7":0.00872655672458228,"8":0.06516544936940771,"9":0.10943112701651644,"10":0.04795060198115031,"11":-0.14833586284965192,"12":-0.07391705515261328,"13":0.10687339312874902,"14":-0.04272829101668986,"15":-0.054071226642473144,"16":-0.09714721603946003,"17":-0.12073576402314617,"18":0.04367985484140969,"19":-0.05410209056966963,"20":-0.06412842776492449,"21":-0.01841311066239487,"22":0.10318796387556396,"23":0.19859736068796977,"24":0.256851906530691,"25":0.16808535040827402,"26":0.00931188992095086,"27":0.11459654213343534,"28":0.11395536604127884,"29":-0.21253907944006695,"30":-0.07414070128394422,"31":-0.06307006403234479,"32":0.13546687303032073,"33":0.09105399559575089,"34":0.05750004466841527,"35":-0.1344492032293288,"36":0.14586394591515786,"37":0.013514063243288542,"38":0.15123790369609488,"39":-0.011717802607236287,"40":-0.013162040433217096,"41":-0.19446751417671848,"42":0.36569445536650563,"43":0.2425340349944018,"44":0.2049169585827504,"45":-0.025096029013564104,"46":0.022635892091367654,"47":0.017438156419834924,"48":0.063124519578998,"49":0.014410843942733226,"50":0.12251174623837191,"51":-0.26008903360436353,"52":0.368749718898899,"53":0.11077493161008221,"54":-0.03864030272634779,"55":-0.07461686297213278,"56":-0.08467635985122686,"57":0.32642064877808824,"58":0.23137157479731404,"59":-0.10972790763282748,"60":0.15156138812047862,"61":-0.12891646457065759,"62":-0.01996939314776617,"63":0.17992495433380162,"64":-0.05239519644124611,"65":0.09199994705715105,"66":0.05128851214691532,"67":0.07760759791114999,"68":0.1545234449340336,"69":0.09757728689608744,"70":0.030232028266385633,"71":-0.015942488938979947,"72":-0.01152178127929437,"73":0.2305906367299536,"74":-0.15401690690287878}},{"sx":1,"sy":1,"depth":75,"w":{"0":-0.10804178762223732,"1":0.004312538494620639,"2":0.11767016721124608,"3":0.016849638080493678,"4":-0.05335413802887311,"5":-0.04011770178376953,"6":-0.14112919378518327,"7":-0.02577541933880498,"8":0.11018887527757308,"9":0.0001787287436093326,"10":-0.07712665434689658,"11":-0.11678950340459125,"12":0.09164826533153667,"13":-0.049740221653272354,"14":-0.12718568775018568,"15":0.09022806245323607,"16":-0.008839586840951446,"17":0.04521806994497726,"18":0.005691085409392043,"19":0.22112905606640235,"20":0.047717711615592906,"21":0.1250951985340428,"22":0.33029084258252706,"23":0.2350145396512567,"24":-0.01681759724305818,"25":-0.05683016638776923,"26":0.18614137323931867,"27":0.12777819749442168,"28":0.059072786030390664,"29":-0.11195689090838479,"30":-0.05858094367915481,"31":-0.15003568122827737,"32":0.0892652760554204,"33":0.06885325724087817,"34":-0.08315039793911708,"35":0.1911836032550384,"36":-0.1189618124763111,"37":0.05987888759112457,"38":0.05207181957596153,"39":-0.03235736874409475,"40":-0.15135897774724116,"41":0.00285057416761408,"42":-0.1498058563380409,"43":0.1451402566529642,"44":-0.006696498705420009,"45":-0.12786794980800267,"46":0.07412907411061452,"47":0.2008857967552062,"48":0.20717895930893784,"49":-0.1599974788327976,"50":-0.05379007759044796,"51":0.23626993777045882,"52":0.1869480098225809,"53":-0.3162781077751187,"54":-0.09147376609363934,"55":-0.047595474050249706,"56":0.00283140379832829,"57":0.05516250255025961,"58":-0.01237190662127261,"59":0.13902269693958286,"60":0.040374252092753006,"61":0.0673982702468054,"62":-0.0026188603647403687,"63":0.005760706605285322,"64":0.04207269355113142,"65":-0.024720694630319347,"66":-0.1353281448920549,"67":0.0060826255281258915,"68":-0.28608057905293977,"69":0.03879713304210965,"70":0.11776556718970878,"71":-0.10105053621402894,"72":0.04092770462675059,"73":-0.2797366924600501,"74":0.22072276779658245}},{"sx":1,"sy":1,"depth":75,"w":{"0":-0.08295600989248263,"1":-0.091263542124761,"2":0.098325908069338,"3":0.03825243916914702,"4":-0.00006667186934106697,"5":0.187144290042698,"6":0.16207533936907945,"7":0.2574940849959966,"8":-0.018914505783743693,"9":0.06802455931876955,"10":0.05793742249389501,"11":0.13228596412570393,"12":0.056032971958450355,"13":-0.07459293071601138,"14":-0.08896814771629302,"15":0.1972706665901035,"16":-0.07233290835200777,"17":-0.0356309902144532,"18":-0.029333596371046322,"19":-0.11216212358021554,"20":-0.017618545711720855,"21":-0.05600578824396033,"22":0.4929550723262958,"23":-0.1501915786871244,"24":0.14330691435206488,"25":-0.04468590123157673,"26":0.011849191487823638,"27":0.08971031530585115,"28":0.0019297094479946751,"29":-0.2633567305537213,"30":-0.22098843476471244,"31":0.09908315272000699,"32":0.3602189202124685,"33":0.03583615008453618,"34":0.05413607420577403,"35":0.03128948528296244,"36":-0.06277619872406559,"37":0.2464450294875186,"38":0.2236433342811012,"39":0.10454065311797005,"40":-0.022704580568433625,"41":0.03123301997999476,"42":0.3986163541890033,"43":0.14018300384192353,"44":-0.0008296203413538338,"45":0.024596827451990284,"46":-0.19986470548357146,"47":0.2780809996712817,"48":-0.03654424312629795,"49":-0.10943509216956962,"50":-0.006307236929085273,"51":0.03849755308625279,"52":-0.04014851380484131,"53":-0.05290148914070302,"54":0.00924369589665017,"55":0.053485198946608636,"56":0.056023452205069414,"57":0.21927100082397472,"58":0.1318082603507177,"59":0.07315838474818528,"60":-0.08064587455123956,"61":-0.09150440218904309,"62":-0.1317217615247347,"63":0.02484979874303102,"64":-0.10286243760968405,"65":-0.09923446764164535,"66":-0.0784089519080163,"67":-0.16453187637747366,"68":0.07205443058803643,"69":-0.11575301069277401,"70":-0.12022170501510275,"71":-0.27450922818231904,"72":-0.36005707186905833,"73":0.06928861298605597,"74":0.11258984943473907}},{"sx":1,"sy":1,"depth":75,"w":{"0":0.11092730184740807,"1":0.04233359310828161,"2":-0.05062890194051588,"3":-0.11877087275867612,"4":-0.0762682528070627,"5":-0.006007327690868155,"6":0.21554809372846226,"7":0.038119035806944285,"8":0.0037048855114389444,"9":-0.2708192815043125,"10":0.058423972955559164,"11":0.01809583870329731,"12":0.1693349593649285,"13":-0.016025756737274764,"14":-0.2020608513743962,"15":0.07159183797653397,"16":0.016278136040279164,"17":0.025755824937701004,"18":-0.0021267724540061967,"19":-0.2537003116646033,"20":0.2705331321204477,"21":0.15155973450605056,"22":0.023176187257575386,"23":-0.041765391443298994,"24":-0.05610730047464078,"25":-0.09054804782505181,"26":-0.03529085106165946,"27":0.024619702118871573,"28":-0.11922682882403009,"29":-0.11429606560565213,"30":0.13039419696872742,"31":-0.05417836059963725,"32":0.025726921418765564,"33":-0.020284038656175934,"34":-0.19419312194977706,"35":0.08338000707429778,"36":-0.1085281778202666,"37":0.06461148605197879,"38":0.22852414945295804,"39":-0.06304944308328214,"40":-0.13917650722068164,"41":0.02264973278069986,"42":-0.06448612741949701,"43":-0.07074956538598054,"44":-0.045475989908351305,"45":0.0013849093421925403,"46":-0.08015119568105723,"47":-0.0460798467211698,"48":-0.033612153078428415,"49":-0.11854328643249024,"50":0.17104482894827397,"51":-0.1570614328699444,"52":-0.15165385716198124,"53":-0.03981899404808741,"54":-0.14644106427927106,"55":0.06653861121345654,"56":-0.05589428478851436,"57":-0.22265087784985044,"58":-0.15479086466137004,"59":-0.014304953476710507,"60":0.2297873758081501,"61":-0.03275620432398633,"62":0.03466677139904663,"63":-0.013945491234502597,"64":-0.11742258679732652,"65":-0.11868094444821178,"66":0.013016796241425021,"67":0.08876403826307973,"68":-0.06653599014271354,"69":0.11391890614616239,"70":0.22188949017086756,"71":-0.18224365079318572,"72":-0.12148912747798106,"73":-0.014314710605864644,"74":-0.13121360668748414}},{"sx":1,"sy":1,"depth":75,"w":{"0":0.1537398921843974,"1":0.14882591318115235,"2":0.2072286551831545,"3":0.0193659803266267,"4":0.03148134138716645,"5":-0.1402761022570685,"6":0.0773725351220902,"7":0.012518974877442914,"8":0.03389155654557883,"9":-0.12860721956999932,"10":0.10940224849935061,"11":0.1687146831268544,"12":0.08461359948868641,"13":-0.15533006805075467,"14":-0.0022273911449718293,"15":-0.08986228829075692,"16":0.060729740578690336,"17":-0.04025414570351066,"18":-0.2422215005192003,"19":0.07891333055700224,"20":0.2537416842273551,"21":-0.09752370734462792,"22":0.14693807458189564,"23":-0.011930748533435337,"24":0.061183105080685585,"25":0.1061829339430368,"26":-0.005472890723367554,"27":-0.23498464977209152,"28":0.043443894389449976,"29":-0.03809830726573578,"30":0.07752161016424267,"31":-0.042786600916492334,"32":0.07173929173681184,"33":-0.04758429102196014,"34":0.008714464059232766,"35":-0.08562651283967068,"36":0.12472672569595644,"37":-0.09925420722405406,"38":0.13625060133511077,"39":-0.03406285677797765,"40":0.14494730045921725,"41":-0.15289237559926103,"42":0.10148495448583293,"43":0.030391373384035948,"44":0.08909445060207999,"45":0.035648288261503076,"46":0.07041046181328847,"47":-0.027240967733924856,"48":-0.021284708540933055,"49":-0.2719564277461871,"50":-0.035878766650032694,"51":0.017390806936158184,"52":0.04837214898279512,"53":0.018173077769890855,"54":0.24527585542469224,"55":-0.04697828568470669,"56":0.001256321404623017,"57":-0.08530946130881559,"58":0.27142493777079124,"59":0.0064016876268099335,"60":-0.02855361238811225,"61":0.1504248280498247,"62":-0.047606029258479655,"63":0.13988937717268088,"64":0.10128352352037272,"65":-0.19730049536268568,"66":0.11987379262384726,"67":-0.12455220316089098,"68":0.15354983224827182,"69":-0.14076191540485355,"70":-0.14271609664729965,"71":0.27825259210111375,"72":-0.055306052031415594,"73":-0.02639498891763399,"74":0.20132946744935373}},{"sx":1,"sy":1,"depth":75,"w":{"0":0.027502321649532344,"1":0.00823240439368181,"2":0.09962305912415109,"3":0.08775826088916298,"4":-0.06517755530910425,"5":0.029581367706702926,"6":-0.12475431465909045,"7":0.044138215158774356,"8":-0.10986792870282061,"9":-0.14984351778834812,"10":-0.05124814580236784,"11":-0.10184291476346899,"12":0.07233398685616316,"13":-0.04183660814000745,"14":-0.032158052112822286,"15":-0.08797898633613546,"16":0.08041089133921374,"17":0.03323483449693504,"18":-0.05887742014478813,"19":-0.05003134443934164,"20":-0.1166024839008763,"21":0.33975172844738427,"22":0.32281156472249,"23":0.09289029637043825,"24":-0.08423900914973668,"25":-0.07359050946678608,"26":0.39633078768456703,"27":0.4167016218250838,"28":-0.03853865087449133,"29":-0.013823102209957474,"30":0.12494344156820367,"31":0.06596405866045117,"32":0.2380713357387809,"33":0.26598981319643983,"34":-0.18779197104847406,"35":-0.11348731752764445,"36":-0.005582707528709868,"37":0.12409749476666503,"38":-0.05382529761803919,"39":-0.2627030121771868,"40":0.01903844334104464,"41":0.054111088943154445,"42":0.31388921088494975,"43":0.11002478045995932,"44":-0.05372593838385258,"45":0.023967179324377433,"46":-0.05336974404451077,"47":0.4014155793981973,"48":0.077460508876514,"49":-0.023929444853051433,"50":0.08255150272916183,"51":0.15941534608195537,"52":0.4214366109209203,"53":-0.27434001838104843,"54":0.10905718665344753,"55":-0.08446751638938754,"56":0.2077529974071065,"57":0.4072572878320384,"58":-0.135173582583671,"59":-0.0725349293223189,"60":-0.01875904658721922,"61":0.09850205636885043,"62":-0.13498662017996288,"63":-0.05998650158912872,"64":-0.024516859944646856,"65":-0.14184224804270887,"66":0.18107402518486282,"67":-0.08401977831459205,"68":-0.14308711373788333,"69":-0.10738312699046247,"70":-0.032676203501105526,"71":-0.0457223262736535,"72":-0.10703185859099036,"73":-0.146119593209084,"74":0.2174321807073872}},{"sx":1,"sy":1,"depth":75,"w":{"0":0.006325045284034802,"1":0.15572865597172525,"2":0.18019432268326416,"3":-0.034652579953270916,"4":0.027345978482068628,"5":0.008472585088458873,"6":-0.07967980663835533,"7":-0.12399585369063384,"8":-0.10765978796590253,"9":0.26104555611237595,"10":0.05215629873494571,"11":-0.12931627330491113,"12":-0.011679498800037593,"13":-0.032886877954827046,"14":0.045004879055793326,"15":0.009460261532780963,"16":0.04803288107041016,"17":-0.13863947418613298,"18":0.12747143451486664,"19":-0.055554694617434695,"20":0.10581540956299613,"21":0.23378988266571515,"22":0.09338358147009855,"23":-0.04126985697956266,"24":0.1398584088030364,"25":-0.13206640932713562,"26":0.15093796268995321,"27":-0.16354569062450636,"28":-0.02419369050046242,"29":0.05617132403069706,"30":-0.06128668583436089,"31":0.12828231879228524,"32":-0.1459373089006534,"33":0.046510713040663496,"34":0.1901727861546636,"35":-0.011316901915105806,"36":0.16425946597784918,"37":-0.1987306653857476,"38":-0.09830480653267308,"39":0.0728571013161392,"40":-0.19369343215845602,"41":0.03506050366160285,"42":0.0017235703300103138,"43":0.061106563549618506,"44":-0.07223276399338414,"45":-0.024721759932750057,"46":0.12552295375709938,"47":-0.04557030741563418,"48":0.14868573593694667,"49":-0.0775451702282381,"50":-0.2214008261493426,"51":-0.015629332657059604,"52":0.08956243833783857,"53":0.035435068771397515,"54":-0.05969484536656121,"55":-0.21299632838724836,"56":0.004371091435000344,"57":0.0649650915663057,"58":-0.06259560637006453,"59":-0.08321872800960528,"60":0.19096816183850338,"61":0.2073736418624056,"62":-0.06165542265236689,"63":0.1857051250158496,"64":0.0042287479875388915,"65":-0.10741554285385475,"66":0.05786699353387312,"67":0.020153811132981803,"68":0.173978191809813,"69":-0.008060299629706086,"70":-0.16835414966937207,"71":0.04265916291375014,"72":0.07828981797176778,"73":0.048624656001545474,"74":0.07847773796290987}},{"sx":1,"sy":1,"depth":75,"w":{"0":-0.11859493778140479,"1":0.021609251678922647,"2":-0.07237943170851012,"3":0.07033394650356732,"4":-0.02127277714555973,"5":0.09764262708681044,"6":-0.22690632242110723,"7":0.2668231547871548,"8":-0.12374983230455516,"9":0.02229588169907413,"10":-0.13737933994061644,"11":-0.1955672017702641,"12":-0.08346952951284625,"13":-0.18832241640371247,"14":0.02492679131142274,"15":-0.0611576863495539,"16":-0.11903579160413288,"17":0.08075503742577746,"18":0.05251662548529296,"19":-0.05184620832667004,"20":-0.08946298652130796,"21":0.08721747780154125,"22":0.024981382627177882,"23":-0.06380440669212228,"24":-0.031102123322709087,"25":0.1298366616753495,"26":-0.14764078146545576,"27":0.07506763605449102,"28":0.02687018557056532,"29":0.10184240970303537,"30":-0.08118902181606355,"31":-0.09669078673107032,"32":0.20655819275171,"33":-0.0592996492310496,"34":-0.11858605902760608,"35":0.2531049785096395,"36":-0.032063353392953804,"37":-0.1732165911267568,"38":-0.1195595968912383,"39":-0.14886027080240719,"40":-0.07431646194815437,"41":0.10662453085910144,"42":0.11054688014380341,"43":-0.09363912517855073,"44":0.08595437761666351,"45":-0.054252097047282816,"46":-0.25902670563172675,"47":0.055171679743472195,"48":-0.07008280354855495,"49":0.07084183915561333,"50":0.024055561834057087,"51":0.02971269451638326,"52":0.13146518913275046,"53":-0.04361403893648679,"54":0.16927579572214704,"55":-0.04164668822547276,"56":-0.10716521298397891,"57":-0.04710806515898582,"58":-0.05132054152907771,"59":0.20746959739663806,"60":-0.08973612516812966,"61":-0.2241693906936414,"62":0.13822481845544365,"63":0.09924356738840476,"64":-0.0402323367641213,"65":-0.069092200321504,"66":0.07212140321634762,"67":-0.08304388303686257,"68":-0.028193259057823633,"69":-0.05410948308937106,"70":0.07396148746529489,"71":0.09124253635557751,"72":0.1251062191171738,"73":-0.07678579934409235,"74":-0.184317298881921}},{"sx":1,"sy":1,"depth":75,"w":{"0":-0.06821294541272503,"1":0.16339548095045847,"2":-0.019600449989523892,"3":-0.10210669416372507,"4":0.029941930444107666,"5":0.13213176896712234,"6":-0.07728237085025234,"7":0.0792773749308918,"8":0.04584926154386462,"9":-0.21150356560488076,"10":0.038385145870676686,"11":-0.017228260492569133,"12":0.04416042178031123,"13":-0.03684734027447195,"14":-0.07087562489561477,"15":0.19734849210099378,"16":-0.06769723890590834,"17":0.0651645324808387,"18":-0.05021224754754093,"19":0.19692602477958668,"20":0.021195593734095956,"21":0.04389918784522727,"22":0.01222729517889149,"23":0.00548994584801349,"24":-0.10425294127273531,"25":-0.03411038490387071,"26":-0.00755268082120206,"27":-0.08732607123250334,"28":0.07659850227325775,"29":-0.0019695093861949,"30":0.10555629987877513,"31":0.190460514741306,"32":-0.05027609606920992,"33":-0.059078420612183574,"34":-0.07362075500546453,"35":0.16242416690429656,"36":0.11615754583785577,"37":-0.034322547666093446,"38":-0.1374791196568444,"39":-0.0963827528938527,"40":-0.0356433650568522,"41":-0.04656831962978122,"42":0.05850191690074463,"43":0.15289110648816043,"44":0.059173792202370255,"45":0.06119598244371501,"46":0.18069774910146968,"47":-0.01513957056599084,"48":0.02184639244378844,"49":-0.16700480628683348,"50":0.23240212450460646,"51":0.04828561609798791,"52":-0.024026170716153032,"53":-0.04177293550694675,"54":-0.21301039560990453,"55":-0.12771041060428875,"56":0.14123840710022825,"57":0.11872904714533489,"58":-0.10260712442951199,"59":0.031582753005677984,"60":0.21517536375685076,"61":-0.01250645661083588,"62":0.22117101070608378,"63":0.15468359019189043,"64":0.12051521376947781,"65":-0.05842056551229958,"66":0.10953784052883539,"67":-0.16816927535470114,"68":0.023108208306101913,"69":-0.009306745882714646,"70":0.04292343012378188,"71":0.044881253874370655,"72":-0.059115865208966424,"73":-0.08490475850277052,"74":0.07200820811523462}},{"sx":1,"sy":1,"depth":75,"w":{"0":-0.0800236710717027,"1":0.12339015670220183,"2":0.12971446935493844,"3":0.05839641698311115,"4":0.23563305978417268,"5":-0.10648974217662362,"6":-0.10317653997567672,"7":-0.08043652340572852,"8":-0.2209331014562684,"9":-0.003989530603743243,"10":0.10887937194646874,"11":0.07445534557461986,"12":-0.01710868215511504,"13":0.012792427442530974,"14":-0.13014573992295805,"15":0.07904981244914813,"16":-0.004337268374504121,"17":0.029265036193775296,"18":0.007468532616624769,"19":0.24385609538611414,"20":-0.022871809158008977,"21":0.01893304950055876,"22":0.021693620890194925,"23":-0.05348877968260489,"24":0.1771460927098691,"25":-0.17564466698217948,"26":0.14838177429115634,"27":0.19712503990295033,"28":0.042957455997869876,"29":0.07138626350167805,"30":0.0479962655987639,"31":0.09334255241291538,"32":0.27393266311151726,"33":0.005791848933874136,"34":-0.09638756633419812,"35":-0.05961975724492798,"36":-0.18433744341449265,"37":-0.01290946911220802,"38":0.02944325767427459,"39":0.16580446488838171,"40":0.025705891618992442,"41":-0.0022197500450989154,"42":0.48631344343022487,"43":0.014802191176669945,"44":-0.16459511455654466,"45":0.22120687094939867,"46":0.18691448343933778,"47":0.16768064426258789,"48":0.38015583356802896,"49":-0.013247989536594895,"50":-0.0429209447397294,"51":0.047675572243457746,"52":0.46498196347443355,"53":0.35632170984174094,"54":-0.05221142876702466,"55":0.01517003749226936,"56":0.030862019258300302,"57":0.22047482480795005,"58":-0.015152494167913136,"59":-0.03499806081270185,"60":-0.13610054416651085,"61":-0.16461958734620108,"62":-0.2164360679230183,"63":0.10532232653423254,"64":0.033429220204197994,"65":0.11029811130533035,"66":0.295612438157287,"67":-0.07057343141603456,"68":0.09248006343455728,"69":-0.10506277485706221,"70":-0.07691617015295918,"71":0.27889362938413714,"72":-0.13046482670320825,"73":0.23523258941212644,"74":-0.19021324481803348}},{"sx":1,"sy":1,"depth":75,"w":{"0":0.007031639246374316,"1":0.07642952592297635,"2":-0.06614711406013618,"3":0.0805185034661134,"4":0.15561662821225694,"5":-0.016349997204197792,"6":0.070218980974865,"7":0.20492211753794215,"8":0.1072221386291408,"9":0.10104142334952725,"10":0.02263864960752138,"11":-0.11166372535477746,"12":-0.15432187821799603,"13":-0.028817625990240046,"14":-0.22502341214984076,"15":0.019612505736740993,"16":0.10962799623809162,"17":0.0029367175561239977,"18":-0.1715071633666755,"19":0.03960832401677749,"20":-0.128167220536174,"21":0.1351397008214355,"22":-0.12229201400112981,"23":-0.16367692996192001,"24":-0.10270130437158233,"25":0.1548706586249227,"26":0.10181565222757455,"27":0.0843346405886565,"28":-0.022411667531239108,"29":0.04274386486350993,"30":0.0036095458817421134,"31":0.03865369456291627,"32":-0.07730450711960175,"33":-0.39954252571698207,"34":-0.06430193949367534,"35":-0.0979349369732482,"36":-0.06864441856863904,"37":0.026990548051587727,"38":-0.09822580060399355,"39":0.1321641461406973,"40":0.15694300933895056,"41":0.21557871690475644,"42":-0.16263696940482752,"43":-0.03523286536783818,"44":-0.009339873798267267,"45":-0.03643858162426097,"46":-0.06708018602420336,"47":0.15078254817043743,"48":0.12542764164940684,"49":-0.07871069661996434,"50":0.19983432245234933,"51":0.07210039902563442,"52":-0.16727893772223498,"53":0.012874852974821929,"54":0.027542397011530356,"55":0.17340608814600533,"56":0.1820423548886224,"57":0.10919722411050446,"58":-0.05780584758272397,"59":0.11097996084544913,"60":0.08616957410425949,"61":0.06575027934613693,"62":-0.0634551226161925,"63":-0.08056376234844383,"64":-0.13391093551940883,"65":0.18980798905749835,"66":0.24490321505650442,"67":-0.19223953546680184,"68":0.006006952851901876,"69":0.15922000937745276,"70":0.10303979313744374,"71":0.054279768329989174,"72":-0.07025685527876209,"73":0.010481871526436282,"74":0.06515186784840765}},{"sx":1,"sy":1,"depth":75,"w":{"0":-0.3278891580428768,"1":-0.08433020042428128,"2":-0.26451916543943066,"3":0.012618950022237419,"4":-0.12403370237565954,"5":-0.06368393324792068,"6":-0.07085379107184336,"7":-0.0049260093428450495,"8":0.1453503286070118,"9":0.09747626750065534,"10":0.015041238785175754,"11":0.053033844081122154,"12":0.06512429171855766,"13":0.06721541332075659,"14":-0.10359386717346938,"15":-0.08522736761142645,"16":-0.026958322025540018,"17":0.04035988482107482,"18":0.12911685975310827,"19":0.15599403400769138,"20":0.09123610762008531,"21":-0.12351232035137039,"22":0.035345448451037896,"23":-0.11603167448055512,"24":-0.09508320842533599,"25":-0.014345566445886167,"26":0.027344041569508603,"27":-0.021052918900485714,"28":-0.03980189582903454,"29":0.05134287099880844,"30":0.010438848771263047,"31":-0.016667936392060666,"32":0.2001944210211995,"33":-0.022793978250581767,"34":-0.0009743515523938114,"35":-0.021929853399840167,"36":-0.013311764250148713,"37":0.04802907522418578,"38":0.011787986180562031,"39":-0.019730612830299372,"40":0.07343630647825294,"41":-0.21449590868278753,"42":0.05940793632246509,"43":0.10409365073754026,"44":-0.04681877517593577,"45":-0.28342775468387066,"46":-0.03580762246926198,"47":0.04883023672490298,"48":0.1252704457529129,"49":-0.183371211263432,"50":0.04235019985578689,"51":0.012637296198358095,"52":0.049601940870964714,"53":-0.1359087161346271,"54":-0.12142242420154675,"55":0.00042430427874455773,"56":-0.03395424503411269,"57":0.18424793404542786,"58":0.02797766231197171,"59":-0.2618052267467709,"60":0.009097793680692986,"61":0.19723826090943186,"62":0.1892145837605271,"63":-0.10527996330337892,"64":-0.14831909549101224,"65":0.20975664396805652,"66":0.0016236921988479808,"67":-0.014832399991473852,"68":-0.20141316385968683,"69":0.11621730929143612,"70":0.13669817283723326,"71":0.09362993824228376,"72":-0.012239864609479435,"73":0.1458433815829505,"74":0.16605902098511224}},{"sx":1,"sy":1,"depth":75,"w":{"0":0.07724497527327678,"1":-0.022397736809616986,"2":-0.014493939001059353,"3":-0.01213665242954609,"4":-0.15231923531297245,"5":-0.19831519632242367,"6":-0.15902159398009666,"7":-0.1231499027977484,"8":0.016747961549052184,"9":0.011633548662910335,"10":0.1466932052729953,"11":0.038253285604441876,"12":-0.14379542964564182,"13":0.03338687369040626,"14":0.00042519356581952907,"15":0.07044873947563242,"16":0.015801157120621044,"17":0.1192946137226702,"18":0.0405360941745409,"19":0.09260357019839818,"20":0.028162206437992516,"21":-0.0397218423581994,"22":0.13324216351612803,"23":0.032690528382270795,"24":0.05269749599537827,"25":0.06900158997670547,"26":-0.08665327473987634,"27":0.05425762101282288,"28":0.10516088811807234,"29":0.017098736336247203,"30":-0.0003863369570310277,"31":0.053798151167054706,"32":-0.07459444559735598,"33":0.10313532883215343,"34":0.1677522895110924,"35":-0.004161423470630785,"36":0.044287703309118846,"37":-0.0991532620425047,"38":0.21105869684705045,"39":0.05956916508879627,"40":-0.04141378528802319,"41":0.19573523988630062,"42":-0.011274976710761598,"43":-0.021517010873779618,"44":0.05763659338363266,"45":-0.0909542399864084,"46":0.07443320089898835,"47":0.0599381526549983,"48":0.2600088902684417,"49":-0.031822406706785475,"50":0.17127384534994328,"51":0.0953191401703168,"52":0.012408680384400747,"53":0.03393900074850344,"54":-0.12149166539741015,"55":0.034127482761796814,"56":0.20749867349769968,"57":0.06849547606170575,"58":0.0749609696319463,"59":0.17422757053280494,"60":0.018618235259795217,"61":0.053266474723708324,"62":-0.12025081787130204,"63":0.054871943827529246,"64":-0.13727323801912722,"65":0.057698318023303885,"66":0.1544393887278068,"67":-0.20263185109906195,"68":0.1342504454178753,"69":-0.05578380381575161,"70":-0.172145073011094,"71":0.0038789493625382243,"72":-0.08710091255586153,"73":0.22904934890435524,"74":-0.03238876376091343}},{"sx":1,"sy":1,"depth":75,"w":{"0":-0.07543206121380952,"1":0.11387669507905031,"2":0.08174671471411589,"3":-0.0671426353812554,"4":0.11098258955599,"5":-0.13526346858657043,"6":0.051288085718789796,"7":0.07785982965815487,"8":-0.14335041118542965,"9":0.0322901012414166,"10":-0.025817126163632263,"11":-0.11619452103861393,"12":-0.05499320360899814,"13":-0.023225125559503592,"14":-0.044223875238085165,"15":-0.09427386795024313,"16":-0.002061732840945245,"17":0.11552299260567409,"18":-0.1594599179769049,"19":-0.11868958479993756,"20":0.1276910856144997,"21":0.12892918379457807,"22":0.09098210669182584,"23":-0.04050172183839784,"24":0.2441086784445071,"25":-0.04648984320610562,"26":-0.01759328706282279,"27":0.22843198637554543,"28":-0.17213199158464704,"29":-0.03577842328291185,"30":0.045929439959408534,"31":0.2538364953890939,"32":0.21760670669037163,"33":0.006389617362426978,"34":-0.1684261425193531,"35":0.07202738348492375,"36":0.1291468343401847,"37":0.09261405413341293,"38":-0.06376584270191667,"39":0.22972984963754797,"40":0.041247792576575015,"41":0.026513473857255363,"42":-0.0018939551965685805,"43":0.03254982527367631,"44":0.19938692617934445,"45":0.013250494077692732,"46":0.012747725917395631,"47":-0.005578219503373031,"48":-0.07909375513315241,"49":-0.04147304492729622,"50":-0.13200968320414366,"51":-0.07133208288995792,"52":-0.08330872489876762,"53":-0.116704458129797,"54":0.03229506265408189,"55":-0.0043963153203272765,"56":0.07515203876728016,"57":0.15579177189452936,"58":-0.04322892044584243,"59":0.011063270108446597,"60":-0.047125220599339386,"61":0.03657500270504066,"62":0.06541802083196674,"63":-0.15904817039216443,"64":-0.01221801510263032,"65":0.06877712115965227,"66":0.04333143547226057,"67":-0.03204955566381431,"68":-0.02130996413018098,"69":0.08105139676335829,"70":0.16476222112366945,"71":0.1533006605345296,"72":0.26096975026002167,"73":0.01592478375521682,"74":-0.022548186575641376}},{"sx":1,"sy":1,"depth":75,"w":{"0":-0.0500208042593447,"1":0.014651688478125566,"2":-0.03166426205789076,"3":0.12674195286778492,"4":0.05944435292476896,"5":0.3119953622193029,"6":0.004040109043419326,"7":-0.02171857749059861,"8":0.021680602310167656,"9":0.08989773804868349,"10":-0.05564248772661502,"11":-0.1833834682088587,"12":0.07674132016364156,"13":0.06481143599736827,"14":0.006597806423612745,"15":-0.19648846112350274,"16":0.0740705865945626,"17":0.07378483041937389,"18":-0.10242123390795506,"19":0.0576244637975773,"20":-0.14252639430006894,"21":-0.14637572969301893,"22":0.1699153308667079,"23":0.16596076309738372,"24":-0.10035922104440417,"25":-0.07911958063873101,"26":-0.012550671409890432,"27":0.0981705031095364,"28":0.03629808659268541,"29":0.09349823953040108,"30":-0.010475392175924221,"31":-0.03215387124241041,"32":-0.15108726722909296,"33":0.19442105240111898,"34":-0.12999555070085042,"35":0.06906170890632764,"36":-0.03011642978465857,"37":0.015195471831816802,"38":0.09729227261915674,"39":-0.04759334379635702,"40":0.32257100730126836,"41":-0.008702873539157694,"42":0.06707746269571543,"43":0.12285349309942546,"44":-0.1442751867694285,"45":0.08458722666648956,"46":0.21449993588031083,"47":0.04637651379449014,"48":-0.022684476307425098,"49":0.2573761131549332,"50":-0.05015245812540478,"51":0.06548600502378792,"52":-0.003874109501780996,"53":0.14067887287987332,"54":0.04853992962663577,"55":-0.08706999202184579,"56":-0.07863282203526727,"57":0.08016708416614575,"58":-0.015959413416666027,"59":-0.14076391795132204,"60":-0.08816133930900374,"61":0.2252388334884984,"62":-0.11521462797953073,"63":0.18074498491118207,"64":-0.09591113226678952,"65":-0.07651966514661969,"66":-0.006325554609484038,"67":-0.01585802528086986,"68":0.2905410098393224,"69":-0.03839888777154814,"70":0.00019903511817531436,"71":-0.08898671109471991,"72":-0.006116824139567796,"73":0.22219456726201994,"74":0.1752762062063112}},{"sx":1,"sy":1,"depth":75,"w":{"0":-0.12328763356699152,"1":-0.12355631181577223,"2":0.2186400621888947,"3":-0.10179564293779148,"4":-0.2500358828232757,"5":0.22036092478197755,"6":0.03374887598749983,"7":0.11560642178068571,"8":-0.035694876553323845,"9":-0.005036873853566472,"10":0.10927201291492897,"11":-0.11920299389147311,"12":0.014664320252333884,"13":0.03821166066283427,"14":0.1537426047940962,"15":-0.1428937563465095,"16":-0.17896080818383725,"17":-0.03080525405138351,"18":0.07379293623753841,"19":-0.08650659218578635,"20":0.007964079572427014,"21":-0.07197329960880852,"22":-0.17155147923192185,"23":0.2224977664717156,"24":0.16239200349298052,"25":-0.103696588234849,"26":0.14599335087631743,"27":-0.02911396868894281,"28":0.054324459065394556,"29":0.06634272575223851,"30":-0.004106905656528033,"31":0.01660331157931179,"32":0.2269920405228576,"33":-0.05665748474748945,"34":0.04920370320098392,"35":-0.09202424666959193,"36":-0.018744823680982427,"37":-0.1172852423703324,"38":-0.12954271018302985,"39":0.144283017187936,"40":-0.16428295558592257,"41":-0.032310888020233956,"42":-0.38950825404774825,"43":-0.007675100788949662,"44":-0.010638133225467165,"45":0.028480427740682462,"46":0.002462793300096994,"47":-0.041001438784186245,"48":-0.03184508786158015,"49":0.15712165798582908,"50":0.12159920270349617,"51":-0.05023313315157277,"52":-0.0701665570386192,"53":-0.04677308938526268,"54":0.16886000716343733,"55":-0.23535710533811444,"56":-0.16321459395819177,"57":-0.015041742140051833,"58":-0.15572957865713008,"59":0.06750741809257327,"60":-0.055149230095179344,"61":-0.2341987797306789,"62":0.05322441125814204,"63":0.07107117624671616,"64":-0.06854965056395605,"65":-0.1644440933673904,"66":0.04004199109903706,"67":-0.10765882958486453,"68":0.11417155337492606,"69":0.07164973598052503,"70":-0.013347074551941378,"71":-0.06574059461118498,"72":0.03698204424391252,"73":-0.12109917651647992,"74":-0.022960519508745895}},{"sx":1,"sy":1,"depth":75,"w":{"0":-0.07283128149788132,"1":-0.0015967699556344445,"2":-0.14033587867798467,"3":0.033293503126212896,"4":0.1511923894223892,"5":0.1667225500573061,"6":0.018077222202295552,"7":-0.02462295033664024,"8":-0.12407597533029623,"9":0.24443464429222664,"10":0.12175690493760906,"11":-0.12133465011499803,"12":-0.09416778733710632,"13":-0.04096114203029486,"14":0.03470965985959671,"15":-0.05640450632761525,"16":0.14457681196917752,"17":0.09597133171424457,"18":0.10070788837035756,"19":0.16870839446872798,"20":0.18537473586693526,"21":0.07357481323941083,"22":0.0319052743825679,"23":-0.01782540066300544,"24":0.0024185881271469025,"25":-0.01211435437902185,"26":-0.1862817886898127,"27":-0.0899157857112986,"28":-0.00257647134544801,"29":0.040993622772170675,"30":0.006811315031024524,"31":-0.24146988815825668,"32":-0.15810619587379798,"33":0.06576839254317346,"34":0.04227562570311133,"35":0.01775487515782867,"36":-0.023510943478416157,"37":0.010402935946021737,"38":0.02941422999358071,"39":0.18434059039492243,"40":0.11377123732334699,"41":0.013093044153364658,"42":0.12194323839069784,"43":-0.29572923572585996,"44":0.029378808936353043,"45":0.07176928020570128,"46":-0.010024709251274723,"47":0.07158690833787934,"48":-0.06719527395363996,"49":-0.24479090332739759,"50":-0.06425759367484286,"51":-0.11627030366017212,"52":0.08767240597387913,"53":0.06865290894169787,"54":0.04424871388037149,"55":-0.006514904424656631,"56":0.10241322688666554,"57":-0.08985580378883552,"58":-0.13336991292878025,"59":-0.11555467896624971,"60":0.04665620608620556,"61":0.004568191582417034,"62":-0.02663129191472822,"63":-0.17055124445702732,"64":-0.16100793937163105,"65":-0.30949212860605163,"66":0.09905965579036738,"67":0.13379473588890262,"68":-0.17846757781086858,"69":0.08594469437445088,"70":0.033477707887389886,"71":0.12443609236534565,"72":0.025703195679270364,"73":0.0718228746991193,"74":-0.06563960697006133}},{"sx":1,"sy":1,"depth":75,"w":{"0":0.03651456464266332,"1":0.21099538350883928,"2":-0.13320241359744278,"3":0.16818349478164255,"4":0.0973442262756634,"5":-0.19464847797898283,"6":0.0482593926260497,"7":0.06863510189395991,"8":-0.15682880198851767,"9":0.08993692259851918,"10":0.03316511107522485,"11":-0.1626566282284173,"12":-0.04065779349083969,"13":-0.06126116573703754,"14":0.016999454608522375,"15":-0.20078274322406392,"16":0.07796851906337665,"17":-0.06867320415894013,"18":0.028486593095303957,"19":-0.07298268493670405,"20":-0.07051136555833995,"21":0.05963297389363126,"22":0.016445409270920214,"23":0.03333667521621935,"24":0.16815968377827514,"25":0.03718674959899313,"26":-0.007830700558922675,"27":0.22273678989205176,"28":-0.07092070195135546,"29":0.02209415504710598,"30":-0.053724005563405106,"31":-0.03635269492134154,"32":-0.0763592413227098,"33":-0.22092410909976373,"34":0.09595520394998765,"35":-0.10696795175208061,"36":-0.040786043201189795,"37":-0.20396054932158042,"38":-0.2427916199470587,"39":0.042846674262998916,"40":0.06818129866492874,"41":-0.08185308515419272,"42":-0.10800401811475902,"43":-0.09106350569069725,"44":-0.05753661751522741,"45":0.07291531544917253,"46":-0.14315742007994592,"47":-0.0704234664228218,"48":0.1904787770240994,"49":-0.09821101143012388,"50":0.0016876974825443523,"51":0.1573895922107035,"52":0.045331599734409714,"53":-0.06970879128650938,"54":-0.059259529966937965,"55":-0.0864440714659986,"56":-0.016437219091021263,"57":0.11066347931727089,"58":-0.027889866120965195,"59":-0.013604802789084899,"60":-0.19804455764556508,"61":0.10955219889453395,"62":0.063116828851301,"63":-0.042493950145934455,"64":-0.17940687626844518,"65":-0.006721982358995782,"66":-0.0007135904666703839,"67":-0.16973710007965717,"68":0.03729632585299189,"69":-0.09975946109957529,"70":0.06894056654905588,"71":0.03619964849884429,"72":0.24959201741516837,"73":-0.13715159641440197,"74":0.12103251497155869}},{"sx":1,"sy":1,"depth":75,"w":{"0":0.01314054766560177,"1":-0.007949334278252285,"2":0.022721324238421534,"3":-0.05855860561854544,"4":-0.0149762057102716,"5":-0.3829812256453883,"6":0.012130616885138843,"7":-0.1256110988663562,"8":-0.23695419111615185,"9":-0.07589131299218023,"10":0.07224009060434845,"11":0.024711690930234537,"12":0.0024228087660187743,"13":-0.06290259758261697,"14":0.0970129427272273,"15":-0.031361699926453664,"16":0.050256274722347005,"17":-0.2570914567918421,"18":0.08202140813184576,"19":0.06342013011945989,"20":-0.16967091224241984,"21":-0.06017806026952004,"22":-0.11837179897307921,"23":0.15544176155880537,"24":-0.054141235286818,"25":0.07964576501224944,"26":0.19216716876482448,"27":0.12060222383443987,"28":-0.15659941915006692,"29":0.01855431096447441,"30":0.1363608653028825,"31":-0.06392290558230068,"32":0.016877004176839464,"33":0.022105023681342217,"34":-0.08703363475714573,"35":0.0640064854771186,"36":0.08125886714893107,"37":0.04940078999178205,"38":-0.03370722908525378,"39":0.15278394246071406,"40":0.11089057077107875,"41":-0.1823300917018177,"42":-0.14132166764816656,"43":0.002203821488382036,"44":-0.10123870981750831,"45":0.07834261613232117,"46":-0.2469259406704026,"47":-0.08576946451317334,"48":-0.23823146897997027,"49":0.09463476007565312,"50":0.19174526942741602,"51":-0.11457461078525782,"52":-0.03387967210037798,"53":-0.06985448573961656,"54":0.012845300324992003,"55":0.09834644790377452,"56":0.01995143607503159,"57":-0.07786400510073141,"58":-0.14877627418933004,"59":0.04120965222957118,"60":0.05318577434046177,"61":0.15252446955741863,"62":-0.003958485051963472,"63":-0.1261876143924556,"64":-0.11525949217692794,"65":0.1402396742353562,"66":0.0955057154152833,"67":0.05802817887189621,"68":-0.00948745602809305,"69":-0.05665606146393779,"70":0.23180717738038056,"71":0.06429004861390099,"72":-0.18559482515483872,"73":-0.21732792970314738,"74":-0.18540182287195525}},{"sx":1,"sy":1,"depth":75,"w":{"0":0.1140312754756367,"1":-0.0017234261683218596,"2":0.08053260300668254,"3":0.0472583727934312,"4":0.08820873604876857,"5":0.1178262785882253,"6":0.009474472644142265,"7":0.2646458833723737,"8":-0.028257340785246762,"9":-0.14162198701712705,"10":0.04697625235648289,"11":0.10150484983135277,"12":0.19803952262346433,"13":-0.09391405851104119,"14":0.16031211985158722,"15":0.08767448121831063,"16":0.18592473773433094,"17":0.20505627702845464,"18":0.053898355979555904,"19":0.1530429980789854,"20":0.1910840612972538,"21":0.14332430088300802,"22":0.3015374695618981,"23":0.0004893524687171191,"24":0.01210247151130884,"25":0.08361913474760105,"26":-0.11962995064276172,"27":0.19548138327179845,"28":0.23545416909676267,"29":0.061902322290327785,"30":-0.014667284834327056,"31":0.025508044867421614,"32":0.27164469261941204,"33":0.18905788550695907,"34":0.061016967302701695,"35":0.0773530694469471,"36":-0.0043540437787852986,"37":0.06530675363931418,"38":-0.01850590300614596,"39":0.13607872451000474,"40":0.06904174866008574,"41":-0.12189180319784286,"42":0.29436188190573626,"43":-0.01579026525541221,"44":0.07146546154879092,"45":0.10999586401564114,"46":0.3856398532975023,"47":0.18513268670806288,"48":0.12504516474219154,"49":0.0661643886334214,"50":0.035967369503453445,"51":0.2583186984358164,"52":0.20053517801059667,"53":0.20135468172329005,"54":0.15403958721551175,"55":-0.043970003321237704,"56":0.06328253105444649,"57":0.4496111672548454,"58":0.18752005205487388,"59":-0.060880893403990166,"60":0.01933350921618418,"61":0.029657462014520596,"62":0.003302331755735713,"63":0.34568763327061675,"64":-0.04366196528503076,"65":0.08837017841834716,"66":0.00992612929089468,"67":-0.2805262208027254,"68":0.1962794520806477,"69":-0.10497804182688548,"70":-0.006832051808408951,"71":0.11940056419057593,"72":-0.05150030228021823,"73":0.22895428858467431,"74":0.013331751080872065}},{"sx":1,"sy":1,"depth":75,"w":{"0":0.03142566448936903,"1":0.04456228234309201,"2":0.023743685741368866,"3":0.10445303841147847,"4":0.0429198593672924,"5":0.1449041620989341,"6":-0.043989304840601484,"7":0.05784537470230853,"8":-0.16054484393593715,"9":-0.15748784612726258,"10":0.0635649100981756,"11":0.036190563833248736,"12":0.1565586880757265,"13":0.07623923574419944,"14":-0.021607570212804992,"15":0.18653575726470875,"16":0.18619877582373692,"17":-0.03505707044038231,"18":-0.06260591292211286,"19":0.22420183564021873,"20":0.13473889231627925,"21":-0.11018778025581451,"22":-0.16746820988323444,"23":-0.052451978747179474,"24":0.11911879216226046,"25":-0.12457023681008854,"26":-0.0823591255288248,"27":-0.10617013633824586,"28":-0.18081349883093809,"29":-0.03423830749274994,"30":-0.05089706261349989,"31":-0.1611041979019174,"32":-0.04492991843045784,"33":0.13412745627527722,"34":-0.13250209651675302,"35":0.1832514693760393,"36":-0.09136650297617571,"37":0.19612492510696553,"38":-0.09295697070244908,"39":-0.029130245879065042,"40":-0.052784882177912995,"41":-0.1321087242028641,"42":-0.10040828397775577,"43":0.04926034640299065,"44":-0.05451931250643927,"45":-0.008732366801236357,"46":0.08522423881478658,"47":0.06357588662386424,"48":-0.06768063589169623,"49":0.07581818690684308,"50":0.3041393424356901,"51":0.041908138627760334,"52":-0.04026496573416093,"53":0.12194133794634221,"54":0.04808908180760574,"55":-0.2497006027734463,"56":0.07097023658237636,"57":-0.03912153282695175,"58":0.054427623292271396,"59":0.1449857396745104,"60":-0.05879396329323686,"61":0.1705205324636032,"62":0.003701000056326687,"63":0.03697482221285286,"64":-0.1548367436199166,"65":-0.18523014255172618,"66":-0.021394802418184127,"67":0.19303288766908547,"68":0.07873119561711489,"69":0.22709981598032764,"70":0.16022102148135642,"71":0.013068028737488597,"72":0.2259748700473808,"73":0.03930797642491657,"74":-0.06257716401891343}},{"sx":1,"sy":1,"depth":75,"w":{"0":-0.05704085047843192,"1":-0.05114030307087106,"2":-0.10292962838923923,"3":0.09112647653808102,"4":0.0058672517997856045,"5":0.06373885404297377,"6":-0.02395005708443966,"7":-0.049027010841541596,"8":0.09787973665635558,"9":0.11652732498487353,"10":-0.0017356851691521379,"11":0.08415857965521353,"12":-0.10085890228139058,"13":0.03727411586046954,"14":0.20299907380402213,"15":0.08904943219472793,"16":-0.03615404602865768,"17":-0.049425894137335134,"18":-0.1864385297629784,"19":-0.19953387608159961,"20":0.11207385488416712,"21":-0.04279445709416503,"22":-0.0713264861152591,"23":0.09196187287925371,"24":0.06888157141644174,"25":0.06023834409203545,"26":-0.020886825888058225,"27":0.11000176082342886,"28":0.1885955594530994,"29":0.08895471493679932,"30":-0.0434681909907898,"31":-0.11472173569124852,"32":0.009025335188780334,"33":0.08171784697842892,"34":-0.1595267754830501,"35":-0.12600071333964694,"36":-0.18340952928408286,"37":-0.005291391213523642,"38":0.12712987909648538,"39":-0.015747263188720058,"40":0.09676466159518228,"41":-0.13092525866172064,"42":-0.14785036276759306,"43":0.08900951832205554,"44":-0.0376105196162009,"45":-0.005366815535887157,"46":0.06832531494165703,"47":-0.2403179720193212,"48":-0.2074337861065058,"49":0.15696138236599452,"50":-0.12037276342229829,"51":-0.05225877097027595,"52":-0.013079036611459222,"53":-0.13745665370619392,"54":0.18085183212455366,"55":-0.04433826344032522,"56":0.08070293008064237,"57":0.11858346172673838,"58":-0.3094507265131331,"59":-0.07085658474277881,"60":0.1369803090006809,"61":-0.0787315413731968,"62":0.07644286292613861,"63":-0.11255966652515872,"64":0.14217642294660957,"65":-0.049899337524019975,"66":-0.12672024119543474,"67":0.06913383313722736,"68":-0.11613414394392639,"69":-0.026537611021057235,"70":0.017393702926377985,"71":0.00026809138000118073,"72":-0.059588205582327566,"73":-0.02224055899547834,"74":0.12783049881966965}},{"sx":1,"sy":1,"depth":75,"w":{"0":0.058611591602708214,"1":0.16455234468011312,"2":0.229666597746505,"3":-0.12859918558933026,"4":-0.10929188782990563,"5":-0.058854693175934295,"6":-0.009096324361903437,"7":0.010439636715579879,"8":-0.05762120659608647,"9":-0.010225223539732977,"10":0.1178935510987911,"11":-0.07350906924122616,"12":-0.04469438203999513,"13":0.1346106792002113,"14":-0.09220979321815817,"15":-0.0671021705120301,"16":-0.08269310662909664,"17":-0.10119884023113787,"18":0.09847876702888049,"19":-0.08636148843243092,"20":0.16922678495953627,"21":0.023864219862328218,"22":0.2700808936725818,"23":0.15085313068589243,"24":-0.1314717013702042,"25":0.04480796773644768,"26":-0.007630669528734844,"27":0.09169120278186194,"28":-0.037045241873682015,"29":-0.14764191727329495,"30":0.06004841693487179,"31":-0.023300226735551367,"32":0.03841892057354333,"33":0.14672346122993576,"34":-0.06134690071678774,"35":0.0702059344453663,"36":0.16121055545377427,"37":-0.06929223298622132,"38":0.14745892568103294,"39":-0.0112451581728072,"40":0.04823707583425175,"41":0.034790454459389414,"42":0.11810713241647727,"43":0.022946518662052995,"44":-0.09588659242849681,"45":-0.18653482341514543,"46":-0.06825485113248153,"47":0.2698179876285198,"48":0.11606926864630909,"49":0.06609420578449057,"50":-0.0896926027929467,"51":-0.09220859621365614,"52":0.3008961506148652,"53":0.11226908618619862,"54":0.004705192453471225,"55":0.01186801992217999,"56":0.01800545470150761,"57":0.3810585364921274,"58":0.1214267328614967,"59":0.019568596344366054,"60":-0.015323128928069592,"61":-0.21503987560348964,"62":-0.08960841368994261,"63":-0.09771731084774547,"64":-0.050007873401730074,"65":-0.3029142870207043,"66":-0.09102916207585209,"67":-0.12429589982363977,"68":-0.08767391209960881,"69":0.04585197176278363,"70":-0.0382664719890602,"71":0.011034476972993607,"72":-0.177461500545788,"73":0.14205193368736171,"74":-0.014692289491151898}},{"sx":1,"sy":1,"depth":75,"w":{"0":-0.013245973973796423,"1":0.13312230932927904,"2":0.10275656327695723,"3":0.02776643828394556,"4":0.2531737935746539,"5":-0.15659528991419508,"6":-0.18441030516200957,"7":0.01451119069410658,"8":-0.14244886786880723,"9":-0.05378469712526436,"10":-0.10520457252242946,"11":0.18291595734286267,"12":-0.015403420788789542,"13":0.09842132799627296,"14":-0.07364615105593007,"15":0.004455043980468562,"16":-0.057652088762096716,"17":0.1459504282209807,"18":-0.050329394806389115,"19":0.08339689566859494,"20":0.16707913123732182,"21":0.11330410699560327,"22":-0.04844135449886221,"23":-0.1357160622964433,"24":0.1876504702716747,"25":0.14055723272402396,"26":0.029906839671556235,"27":0.10328344505862892,"28":-0.06934272837142245,"29":0.15469011107169744,"30":-0.12658209355102387,"31":0.07429419175228406,"32":0.04192986017596152,"33":-0.17636317280984437,"34":0.03732180846888058,"35":-0.003914006518533536,"36":-0.06280539018784374,"37":0.14499753669833335,"38":-0.012825686121190264,"39":0.19864315600116939,"40":-0.020830086712832287,"41":-0.24922021787268916,"42":0.0015352982436809069,"43":0.05288049204910233,"44":0.2758544751357496,"45":-0.0867544878025691,"46":-0.11396602027516152,"47":0.1620506331283186,"48":0.12133287702709875,"49":-0.08619797240068763,"50":-0.22742155429976815,"51":-0.029192071831033835,"52":0.18155812518557418,"53":0.24484213958569795,"54":-0.11198765133313175,"55":0.16728314189361534,"56":0.18113076397904795,"57":0.39468115608265353,"58":0.1365220935707365,"59":0.15677392310694424,"60":-0.005249875515575675,"61":-0.10552687517567462,"62":-0.36684761369917984,"63":0.11579954748839973,"64":-0.05301037964838591,"65":0.07494388161372269,"66":0.008559351109178789,"67":0.0760096693816331,"68":-0.037296223100263336,"69":-0.04618012456273514,"70":-0.0964151298733879,"71":-0.08755568203652098,"72":0.018360324717882216,"73":0.026673774453079054,"74":-0.05283526051345506}},{"sx":1,"sy":1,"depth":75,"w":{"0":0.004849902539662789,"1":-0.06979489299525228,"2":-0.05845032807307294,"3":-0.031178333909509515,"4":-0.10241925215822348,"5":0.07937323695300269,"6":0.12204804232648973,"7":0.13796300602533512,"8":-0.13783952599483196,"9":-0.11626709878582311,"10":-0.033841125077932764,"11":0.07337121055710055,"12":-0.011974116134446237,"13":0.1924614079056667,"14":-0.1582906402503725,"15":0.02442908117448222,"16":-0.03653571131425401,"17":0.10371406519736731,"18":0.04681674003249176,"19":0.04724892144563265,"20":-0.05030993937191435,"21":-0.18331448879035847,"22":-0.0673237793607988,"23":-0.039323475799140535,"24":0.009223108209244227,"25":0.15807916994361235,"26":-0.01360799380787462,"27":-0.14920686295440846,"28":-0.09684113172513303,"29":-0.10213850366128004,"30":0.0904173517514075,"31":0.04966504164938115,"32":0.05918661781517382,"33":-0.05112008091908159,"34":-0.08516562276658673,"35":-0.2842979072292728,"36":0.02171103088979657,"37":0.12257803674813891,"38":0.10754646322057732,"39":-0.008272485586105233,"40":0.180930638577947,"41":-0.057448008285693554,"42":-0.26187710686901433,"43":0.22924854139888198,"44":-0.1633196608457449,"45":0.13397623997610944,"46":-0.08877436405926141,"47":0.05754870720374037,"48":0.21450902822590456,"49":0.03637057445276601,"50":-0.0026288178365650103,"51":0.0020330409143372785,"52":0.31463310463750477,"53":0.20423948597201824,"54":0.07149727015932701,"55":-0.09444623965154142,"56":-0.10616582191422094,"57":0.057666598647203964,"58":0.10963253526537116,"59":-0.1647834976104951,"60":0.08148736180449428,"61":-0.021173940497825613,"62":0.20525946084259863,"63":-0.1908302158973932,"64":0.20101197319776667,"65":-0.015006767774859351,"66":-0.15536845969149907,"67":-0.13156386643179568,"68":0.02423885395570233,"69":-0.11567750884789033,"70":-0.10071800271681784,"71":-0.13665256056697286,"72":0.037858035051862374,"73":-0.2581052211690974,"74":-0.21884314282137765}},{"sx":1,"sy":1,"depth":75,"w":{"0":-0.2272081754852417,"1":-0.012094283743874253,"2":0.08842071305499334,"3":0.026837441538609244,"4":-0.16638020417943897,"5":0.07351682264530898,"6":0.04749309514447537,"7":0.05948527664679209,"8":0.06642777208758564,"9":0.19139248138747098,"10":-0.14697056556672797,"11":-0.06479486237656278,"12":0.11328377947567106,"13":0.12612987115086124,"14":0.11440722959027033,"15":0.0573793268622606,"16":0.11618692097426381,"17":0.0030180399628229743,"18":-0.0393491847690051,"19":-0.1807865585570743,"20":0.0019482774310877213,"21":-0.0860651954245661,"22":0.4185164448501197,"23":0.21845660267433115,"24":-0.139206283083326,"25":0.011695801806392476,"26":0.09502738537032095,"27":-0.02414064950842678,"28":-0.0443639363475391,"29":0.11080987523729897,"30":0.17663023971864403,"31":0.15977486270124852,"32":0.07258565339096178,"33":0.10241727526420279,"34":-0.11827322076073683,"35":0.1462670354985682,"36":0.20723819093693718,"37":-0.08489753433710162,"38":0.25691977194289467,"39":-0.12939507164090638,"40":-0.13104886184694234,"41":-0.2097261376640047,"42":0.16297540036671262,"43":0.0483749060754606,"44":-0.05887841858881123,"45":0.18015987327231056,"46":0.2683592223424945,"47":0.2597269837227742,"48":0.24511342743485146,"49":0.047702930028130114,"50":0.11544838275422645,"51":0.3778895951663571,"52":0.20326737193141337,"53":0.2165843152992616,"54":0.024554003122222248,"55":0.02315375610250857,"56":0.13139230560626797,"57":0.0751407088899896,"58":0.11945848146577968,"59":-0.11233712706064956,"60":0.11883321377976713,"61":0.048163840609080064,"62":-0.2697709872677673,"63":0.22898083923339452,"64":-0.02503917205519253,"65":-0.023802868783830613,"66":0.07986143697417651,"67":-0.11368210126654828,"68":-0.01429083535883653,"69":0.14804520799570656,"70":0.010802453709730968,"71":0.22980176210000236,"72":-0.12130073200824318,"73":0.3054469843988291,"74":0.10792455288538604}},{"sx":1,"sy":1,"depth":75,"w":{"0":-0.15166520484416038,"1":0.01419618465999098,"2":-0.0016092800104605674,"3":-0.11437293188588679,"4":-0.02606835106704107,"5":0.07899631602998755,"6":0.004566391313643835,"7":0.11145819817776106,"8":0.010071284763793932,"9":-0.044148861986989425,"10":-0.127550979348643,"11":-0.10539347361454458,"12":-0.17505993461545566,"13":-0.05554827762293584,"14":-0.02857002969245584,"15":0.17816553946806643,"16":0.199545766499506,"17":0.17311977741394116,"18":-0.17241418129811395,"19":-0.20886467119848898,"20":0.16542794981659906,"21":0.05087071132404913,"22":-0.03148511893033861,"23":-0.07231046087589994,"24":0.024936989367095333,"25":0.10837698490435228,"26":0.03524470079737023,"27":-0.012951461691925015,"28":0.1113312501435917,"29":0.1480927257192703,"30":0.11473717645384426,"31":-0.03496929139446698,"32":0.15350854496831645,"33":-0.05026023071409316,"34":-0.321573886201503,"35":0.11420638656254684,"36":-0.03562209435652968,"37":-0.015741067940089705,"38":-0.2322752334442617,"39":0.04273015811709671,"40":-0.1321527682966949,"41":-0.4064143482949549,"42":0.02118804498737259,"43":-0.0372633043320813,"44":0.09177966952136885,"45":0.16923330553290156,"46":0.06319032411755879,"47":0.09214877542112186,"48":-0.3144782473094783,"49":-0.020732301931321702,"50":-0.03960211146560449,"51":0.0963783920198488,"52":0.11043825388543486,"53":-0.13412257692642984,"54":0.1481036773109865,"55":0.010738590362997517,"56":0.11788652806515826,"57":-0.16377723006552491,"58":-0.19990617322888563,"59":-0.3827011070772133,"60":-0.10933024164607676,"61":0.03669224191375055,"62":0.06974296267836916,"63":-0.029095399711565047,"64":0.007950915355704472,"65":0.03681487288665587,"66":-0.04573037435182516,"67":0.02446000729116293,"68":-0.05132334583624495,"69":-0.1109428896171446,"70":-0.024504508120527884,"71":0.061413817603878894,"72":-0.06065978366978948,"73":0.0217188615272774,"74":-0.11248609166508422}},{"sx":1,"sy":1,"depth":75,"w":{"0":-0.010336492279379196,"1":0.06656482087058709,"2":0.15302155527301534,"3":0.08686729665685428,"4":0.1362631426903953,"5":0.07772530959270121,"6":-0.02100178655779819,"7":0.013971077896783535,"8":0.19381898949651966,"9":-0.12730193756609606,"10":-0.1268203558252724,"11":-0.0640910248049185,"12":-0.044778886897032064,"13":0.028605328907835105,"14":0.1104666187214648,"15":0.22735794884825633,"16":0.019378332721825393,"17":-0.034574358509951504,"18":-0.07515319084772774,"19":-0.028305676992290443,"20":-0.2827951893461623,"21":-0.21647541859126854,"22":0.11274826851560989,"23":-0.00197675741442838,"24":-0.0964787826971108,"25":0.04593478337387291,"26":0.031032454624144366,"27":0.030543712348974246,"28":0.0011201604374265455,"29":-0.09284941770382742,"30":0.14377632370147903,"31":0.009745741393476122,"32":-0.22872495567783213,"33":-0.13833140220610096,"34":0.1470294032081329,"35":0.1892557061090876,"36":-0.04804366101471986,"37":-0.1415103136121355,"38":0.05979356626937853,"39":-0.0640484641106254,"40":0.0023530115548601816,"41":-0.1510066562857658,"42":0.05348865441210425,"43":-0.0443431662501777,"44":0.05977809490103811,"45":0.07698373168747767,"46":-0.031743013744919134,"47":-0.010240334676194252,"48":0.014063267622580687,"49":0.13026047038401975,"50":0.033292517816871994,"51":-0.053113802807769346,"52":0.17848911697687322,"53":-0.05844064193463669,"54":0.028009135194929875,"55":0.012403761724377306,"56":-0.12192756436636651,"57":-0.19915402601809526,"58":-0.21725834763992247,"59":-0.17865571434016725,"60":0.13054171890472366,"61":-0.04513231002858498,"62":-0.04561560816991012,"63":-0.12359681448496308,"64":0.15980805078108157,"65":0.038649143989096274,"66":0.05079302561487343,"67":0.13243749245998057,"68":0.08965410647719013,"69":-0.10972845032699237,"70":0.06628958197562929,"71":0.06922918122263946,"72":0.03841576789256395,"73":-0.20561908962279737,"74":0.13349178771699566}},{"sx":1,"sy":1,"depth":75,"w":{"0":0.19257576386625808,"1":-0.15652197411919036,"2":-0.026991261718215007,"3":-0.04400655346656922,"4":0.1571118890701123,"5":-0.14678282695663036,"6":-0.05499846409599919,"7":-0.11425244742037596,"8":0.06897811606102788,"9":0.12698905599755347,"10":-0.13929021927139992,"11":-0.24841590678430114,"12":-0.039852140486005015,"13":-0.13008943643907028,"14":0.118618267059049,"15":0.14387154483714484,"16":-0.19731403420241017,"17":0.10352247448797655,"18":-0.1410127723412859,"19":0.13701455572575744,"20":0.07527205852565212,"21":-0.16179604441579995,"22":0.2946557651686033,"23":0.24231407724756399,"24":0.09084005944191946,"25":0.11801889657902415,"26":-0.07161865303580078,"27":0.18055206211455702,"28":0.256860562211493,"29":0.04523469035570161,"30":0.057107922989046295,"31":-0.17915431704977555,"32":0.05850684560107641,"33":0.07277076589098039,"34":-0.10601833173337563,"35":-0.10799385012290887,"36":-0.3699381734998543,"37":0.05444140179939653,"38":-0.0535664911498257,"39":-0.08776123799022585,"40":0.09151873074354502,"41":-0.10531691801586025,"42":0.1592529063926766,"43":0.023823624972242278,"44":0.15138927256908363,"45":-0.02721393533063087,"46":-0.16352297879512043,"47":0.055403502555527326,"48":0.05781027284862892,"49":0.12138046875572951,"50":0.17076169419823056,"51":-0.23349724991015702,"52":-0.07308080035540747,"53":0.04261162147773448,"54":0.06429095401796679,"55":-0.07836629538568339,"56":-0.006634116746253893,"57":0.020308489073478424,"58":0.060012016571742745,"59":-0.18796778619678106,"60":-0.0054271590001255966,"61":-0.16621950307041994,"62":0.03870597798655343,"63":0.03935410029527028,"64":0.09407303219402322,"65":-0.14840598657445048,"66":-0.16945044623361633,"67":-0.05459788480141298,"68":0.042973923169607214,"69":0.053966720395094876,"70":-0.20975018718566388,"71":-0.2944795926962683,"72":0.09917083484002573,"73":-0.4019630227231473,"74":0.06080223888869161}},{"sx":1,"sy":1,"depth":75,"w":{"0":-0.12962372519340945,"1":0.02254645169720652,"2":0.15358164269312116,"3":-0.0005646055429502491,"4":0.005457010654283663,"5":0.13166665598131733,"6":0.06885401987418183,"7":0.019475785343268232,"8":0.10222689052176404,"9":0.12916497940269897,"10":0.04941736679091842,"11":-0.024065809658364166,"12":-0.09031592568147818,"13":0.04340712195433736,"14":-0.1708219311616365,"15":0.017157135856981365,"16":0.08657378066604364,"17":0.1562390257103229,"18":0.0686545410774853,"19":-0.14166877342028827,"20":-0.02418638141652964,"21":-0.044855416506592465,"22":0.10615147286847398,"23":0.2472744541214793,"24":-0.07757618418162932,"25":-0.12310516358251015,"26":0.055529568770971836,"27":-0.004135110473195185,"28":-0.0634474231180884,"29":0.15450052416102575,"30":-0.05162412480456709,"31":-0.02533706297141022,"32":0.003766445758252693,"33":0.022475853077935794,"34":-0.07371483721579244,"35":-0.019295870939841645,"36":0.29669840862002417,"37":0.22449824381402267,"38":0.16543198293212202,"39":0.20838472297964175,"40":0.09118380917360304,"41":-0.27278638696984253,"42":0.2821584760334573,"43":-0.1224796236711242,"44":-0.31211345368803706,"45":0.0860097024484195,"46":0.00486686242124667,"47":0.17483681974667006,"48":0.23196734960100593,"49":0.29204320573085585,"50":-0.056394359642130146,"51":-0.0051077071454101106,"52":0.31462622004835167,"53":-0.02058929453417983,"54":-0.07609898617707946,"55":0.03284170554190799,"56":-0.27805262108840784,"57":0.2503949162485667,"58":0.010562953724586923,"59":-0.0762134306659325,"60":0.20928561876076343,"61":-0.05883712169619008,"62":-0.2082324596079815,"63":0.007572061472955339,"64":0.08818338438886343,"65":-0.05277394023227693,"66":-0.025130867233113634,"67":-0.08195253196923559,"68":0.3008792931164647,"69":0.07134989740088434,"70":-0.13897313793510557,"71":-0.08287460195614038,"72":-0.12033195500356252,"73":-0.017763756849385148,"74":0.08333196030224696}},{"sx":1,"sy":1,"depth":75,"w":{"0":-0.06103108939534942,"1":-0.10161077897988169,"2":-0.010344797380461773,"3":-0.20116158596911374,"4":-0.08841157625947953,"5":-0.00941213450942304,"6":0.02529671060427347,"7":0.31501123344517556,"8":0.0029293844883635602,"9":-0.00812553876315692,"10":-0.03864823560809504,"11":0.1654979549582521,"12":0.03352416863896648,"13":0.09260437168898333,"14":-0.1138416038512033,"15":0.06935580738707729,"16":0.15034525867861614,"17":-0.16020470694742883,"18":0.12408884872140767,"19":0.14762867142633615,"20":-0.19395366934298128,"21":0.10095228875818273,"22":0.08964898666476265,"23":0.0651516111872807,"24":-0.028461703073998302,"25":-0.08524043725388758,"26":0.0840060792416125,"27":-0.24950974974185558,"28":-0.033745129809787465,"29":0.08483737658151738,"30":-0.019039609525949328,"31":0.04526093650490664,"32":-0.1577352161232019,"33":0.03081427072952092,"34":0.004310681435305558,"35":0.1183698586491849,"36":0.14345582879265364,"37":-0.08930242899976137,"38":-0.03235938621751556,"39":0.1361048573342897,"40":-0.20662671159380444,"41":-0.19540091564736847,"42":0.006704820569245781,"43":-0.12165825919920076,"44":0.19279813535265375,"45":0.29602943388478614,"46":0.24031522899326854,"47":0.03925713896506435,"48":-0.1037264757000226,"49":-0.14578459549433542,"50":0.02038455850297891,"51":0.23958762435496284,"52":0.048825920289114894,"53":0.051448381048463214,"54":-0.08061178889892918,"55":0.023807577792396666,"56":0.2432659544250914,"57":-0.10397280706997351,"58":-0.22546894935791972,"59":0.000546165240065325,"60":0.015982788906287116,"61":0.0809380856654228,"62":-0.1538150504134129,"63":0.15801813689187502,"64":-0.07378389704349836,"65":0.1585498642089496,"66":0.26392250686243435,"67":0.126009965715697,"68":0.14131000412099595,"69":-0.1743976482620537,"70":0.05766891832206288,"71":0.26734500113091536,"72":-0.016287622766415977,"73":0.12900284450508853,"74":0.11902252930516083}},{"sx":1,"sy":1,"depth":75,"w":{"0":-0.04612173649656303,"1":0.17363893830845833,"2":0.012988473265448133,"3":0.22454074359594903,"4":0.11551295412602444,"5":0.026399567548691587,"6":-0.04262062188709192,"7":0.05052332793836471,"8":0.02594175401300105,"9":-0.15773588237141234,"10":0.04230567986257377,"11":0.010028027768075747,"12":0.20763347371923696,"13":-0.01447541826602002,"14":-0.07660881615719686,"15":-0.11427651087409751,"16":0.11419728911015128,"17":0.119948927567089,"18":0.014540791030051044,"19":0.07307237829803935,"20":0.08413097504051768,"21":-0.04400808096840535,"22":-0.1469109631592919,"23":0.18814792804343944,"24":0.19429833191614065,"25":0.24059732533378278,"26":-0.0421336809438838,"27":-0.02227017940995006,"28":0.15142825068899496,"29":0.20371580959686902,"30":0.001514030387999967,"31":0.16986808505880324,"32":0.025705300403916047,"33":0.024939370921422913,"34":-0.15393120943580493,"35":0.2411092893875729,"36":0.03237467646680706,"37":0.09980020987340882,"38":0.1316464171709911,"39":-0.00959820728337671,"40":0.2435522530371017,"41":0.20563076637763983,"42":0.044114065488126686,"43":-0.05581630789229978,"44":0.23778655428363318,"45":0.01181592521987467,"46":-0.18713725586974,"47":0.18641714274992943,"48":0.3007183199077159,"49":-0.07130738903295454,"50":-0.2538176056455288,"51":0.03783014005730345,"52":0.1032042914503235,