
//<![CDATA[

// a few things don't have var in front of them - they update already existing variables the game needs
lanesSide = 3;
patchesAhead = 18;
patchesBehind = 0;
trainIterations = 50000;

// the number of other autonomous vehicles controlled by your network
otherAgents = 0; // max of 10

var num_inputs = (lanesSide * 2 + 1) * (patchesAhead + patchesBehind);
var num_actions = 5;
var temporal_window = 0;
var network_size = num_inputs * temporal_window + num_actions * temporal_window + num_inputs;

var layer_defs = [];
layer_defs.push({
    type: 'input',
    out_sx: 1,
    out_sy: 1,
    out_depth: network_size
});
layer_defs.push({
    type: 'fc',
    num_neurons: 120,
    activation: 'relu'
});
layer_defs.push({
    type: 'regression',
    num_neurons: num_actions
});

var tdtrainer_options = {
    learning_rate: 0.001,
    momentum: 0.0,
    batch_size: 64,
    l2_decay: 0.01
};

var opt = {};
opt.temporal_window = temporal_window;
opt.experience_size = 3000;
opt.start_learn_threshold = 500;
opt.gamma = 0.90;
opt.learning_steps_total = 10000;
opt.learning_steps_burnin = 1000;
opt.epsilon_min = 0.0;
opt.epsilon_test_time = 0.0;
opt.layer_defs = layer_defs;
opt.tdtrainer_options = tdtrainer_options;

brain = new deepqlearn.Brain(num_inputs, num_actions, opt);

learn = function (state, lastReward) {
brain.backward(lastReward);
var action = brain.forward(state);

draw_net();
draw_stats();

return action;
}

//]]>

/*###########*/
if (brain) {
brain.value_net.fromJSON({"layers":[{"out_depth":126,"out_sx":1,"out_sy":1,"layer_type":"input"},{"out_depth":120,"out_sx":1,"out_sy":1,"layer_type":"fc","num_inputs":126,"l1_decay_mul":0,"l2_decay_mul":1,"filters":[{"sx":1,"sy":1,"depth":126,"w":{"0":-0.09859190622720455,"1":0.04733912987692026,"2":0.061893479218443286,"3":-0.024119921763842665,"4":0.08577243551647766,"5":-0.025449834047821602,"6":-0.17073444497022724,"7":0.002195369060611952,"8":-0.1315204033209624,"9":0.04940314064358206,"10":-0.026147653502572886,"11":0.007497242538152256,"12":-0.12502780278048775,"13":0.01950697987448854,"14":0.10705536118817768,"15":0.020597433899003818,"16":-0.07069694867132553,"17":-0.03958670948535073,"18":-0.0406485745389721,"19":-0.02652049588119201,"20":-0.12742488745016722,"21":0.06859839558705332,"22":-0.05134877366009587,"23":-0.015958828488083332,"24":0.18406046515830063,"25":-0.07745948758458887,"26":-0.0842247178604163,"27":-0.03421955152111801,"28":0.23225632627411572,"29":-0.06468483153460856,"30":0.007098527043714682,"31":-0.002158248380559103,"32":0.1483057293927076,"33":0.008695649389035474,"34":-0.024017774776820783,"35":0.1399164784393004,"36":-0.09814433467002176,"37":-0.09983346511877969,"38":0.1637976336811451,"39":0.1560975378472181,"40":-0.12563730750728028,"41":-0.20315938334902453,"42":0.03809279751856995,"43":0.011888883553353593,"44":-0.06590235617594584,"45":0.011930787566213203,"46":0.021605424348047176,"47":0.09092863884485743,"48":-0.00263138680840239,"49":0.07190337062179519,"50":-0.07810712563611298,"51":-0.05795779040166118,"52":-0.010028739799529323,"53":0.09974003877049642,"54":-0.08044390091760964,"55":0.1488726498091303,"56":0.06468855473304069,"57":-0.06972303979995914,"58":0.02955668095253612,"59":-0.2269744559763304,"60":-0.052753351523907616,"61":-0.036951589933398574,"62":-0.060043041201938804,"63":-0.05735169642963249,"64":-0.10566908158588584,"65":0.023003957922450833,"66":0.10069488651913343,"67":0.13004860768536797,"68":0.11932957403270703,"69":-0.03075944034152816,"70":0.06230593057801495,"71":0.0493837717158773,"72":-0.035913027131610244,"73":0.003469881248101965,"74":-0.15276187757989937,"75":-0.20642156092569183,"76":-0.03389959331869783,"77":0.07435925483919037,"78":-0.011111611654185416,"79":-0.0009038754089176293,"80":0.04110449026325257,"81":0.0482010372306885,"82":0.040001033377934765,"83":0.19722041143078503,"84":0.08936635747863288,"85":-0.01594937659586186,"86":-0.12473443835461732,"87":0.01276461362867541,"88":-0.1906689063331861,"89":0.03126903723132376,"90":0.0839798594309183,"91":0.12204057852001785,"92":-0.02540461715678383,"93":-0.01310275648212915,"94":0.06108915809180888,"95":-0.047812055802184124,"96":0.06213861402836114,"97":0.04556978884554317,"98":0.009356778298477308,"99":-0.03066140542299425,"100":0.06130087936944474,"101":0.03215847444175843,"102":0.2533595414041976,"103":0.04512217823204305,"104":-0.1837313131751653,"105":-0.003190542164783052,"106":-0.12313812048493354,"107":0.06276037521945241,"108":0.04030602758954878,"109":0.04187139571786912,"110":-0.046627326473444884,"111":-0.025727544680933467,"112":0.19312096391953354,"113":0.34127300338739863,"114":-0.04852726075183794,"115":0.11386522943272426,"116":-0.09546281201551529,"117":-0.11087241630279134,"118":-0.05977985588795346,"119":0.06560788708196061,"120":0.15687756645184672,"121":-0.1158987917455976,"122":-0.03334138306717791,"123":-0.025677450030849962,"124":0.18078396738380945,"125":-0.16933209608931643}},{"sx":1,"sy":1,"depth":126,"w":{"0":0.10264204102558766,"1":-0.004111667711002119,"2":-0.03131875512841832,"3":-0.020857538336219977,"4":0.03420828854599506,"5":0.18848978360413313,"6":-0.08723409176739645,"7":-0.005542478724530118,"8":0.10772232873365058,"9":0.08735607914993827,"10":-0.10368440759184278,"11":-0.012740710435778582,"12":0.050457233696406506,"13":-0.07049618282965586,"14":-0.052123474990378615,"15":-0.0675340490802722,"16":-0.07033985938735283,"17":-0.15674628090271603,"18":0.0928115649375218,"19":-0.08113699788100233,"20":0.011023500310090912,"21":0.012823336146512541,"22":-0.0018158680353630612,"23":0.15365156824963316,"24":-0.20064839283119054,"25":0.09779158137925806,"26":-0.12947005890298946,"27":-0.13779517235792088,"28":-0.0875064621810144,"29":0.01805685594074192,"30":0.16411087885785297,"31":-0.04356386020942797,"32":0.0391570903847374,"33":0.03560341207303441,"34":-0.15296547132734162,"35":0.08693383871066229,"36":0.18423754895357475,"37":-0.0842864372653976,"38":-0.060152810987634614,"39":0.07373858646635637,"40":-0.05778185597268677,"41":-0.02174406728466565,"42":-0.008461412963833992,"43":-0.06275804510049791,"44":0.05248106264751488,"45":0.005662356815983991,"46":0.01816783383376479,"47":-0.12017742590905861,"48":0.07418930491653901,"49":0.1508144636394997,"50":-0.030410976120304658,"51":-0.12306961066786819,"52":-0.15160240748515316,"53":0.09381979341195551,"54":0.13686230015281345,"55":-0.008405528402889693,"56":-0.002467378973841261,"57":-0.0003348067558484278,"58":-0.015915831654627448,"59":0.01956708451562473,"60":0.054724262114340644,"61":-0.03574431681583213,"62":0.007715651128539312,"63":0.03149931612118969,"64":0.06147496028505871,"65":-0.008103342686861553,"66":0.008186789444266802,"67":0.01912973612828371,"68":0.0220740695733518,"69":-0.04820338830435581,"70":0.1894009846753233,"71":0.14821133047927576,"72":0.05179322292046332,"73":-0.04488434707592422,"74":-0.07282099448571792,"75":-0.15477401931831264,"76":0.06883578120377924,"77":-0.010866381807357784,"78":-0.07498067534092762,"79":0.17420102066544682,"80":0.10812786883054687,"81":-0.040999352196020473,"82":0.24854447953901349,"83":-0.16091450101438262,"84":-0.02178070045416532,"85":-0.09189916269953398,"86":0.1060694891718756,"87":0.06662490109541934,"88":0.14026698343443728,"89":-0.004164362213887831,"90":-0.09388345232540254,"91":0.08711094169768609,"92":0.03814779750871811,"93":-0.18976513338612558,"94":0.1016418361800045,"95":0.03136215824691788,"96":-0.07083502371068966,"97":0.005893546154685082,"98":0.034486636176822204,"99":-0.040471113225234896,"100":-0.05928637119165115,"101":-0.01200225566485876,"102":0.04722982889821411,"103":-0.013425589554948015,"104":0.1459950179478001,"105":0.0274284428622464,"106":-0.01297383437835926,"107":0.1208171239993735,"108":-0.04182635741661786,"109":-0.009922512255253497,"110":-0.17294472476362793,"111":0.08438517971465392,"112":-0.07686492465487813,"113":0.06657333900885046,"114":-0.13720488561736272,"115":-0.05167902368482206,"116":-0.027667897812764523,"117":0.06777094880104241,"118":0.15228580251680912,"119":-0.10269894444942014,"120":-0.03512424461995487,"121":0.013683263491692844,"122":0.034700312309169874,"123":-0.10912227668199197,"124":0.13695989876005354,"125":0.07112145134561854}},{"sx":1,"sy":1,"depth":126,"w":{"0":0.11301665159072996,"1":0.047277781641603074,"2":0.005184266729562291,"3":-0.01014891707181753,"4":0.04077157991579951,"5":0.1469009529842029,"6":0.09408968260323047,"7":-0.09387717624992685,"8":-0.1404343573477269,"9":-0.04669443702237693,"10":0.0011901599416428714,"11":-0.08086200962007828,"12":0.004764500078574587,"13":-0.015005775480694044,"14":-0.08536355788494511,"15":-0.06059962351544244,"16":0.0629131096532756,"17":-0.026394554285402348,"18":-0.19783557710620525,"19":-0.09901030405135669,"20":-0.0979093544901638,"21":-0.11498290145026747,"22":-0.08534015732518005,"23":0.040431642736036194,"24":0.27119094624090756,"25":-0.09565135380949365,"26":-0.00921600013200829,"27":0.032867226216738675,"28":0.12692863276288982,"29":-0.0027798154597811577,"30":-0.22137151132116323,"31":0.05867986586140543,"32":0.039220723223073274,"33":-0.028049021719288143,"34":0.033445958439684204,"35":-0.04471637701929252,"36":0.016071714552861868,"37":0.12200463939466899,"38":0.059790490027492385,"39":0.15060030375762268,"40":0.08322518659892736,"41":0.06516619810829063,"42":-0.05138376115372878,"43":-0.049740013039041964,"44":0.10258695761744553,"45":0.17041604909712388,"46":0.001120493708666951,"47":-0.023269662967287174,"48":0.06075746785369313,"49":0.10219754632236575,"50":0.0709450735121247,"51":-0.0015594270124006065,"52":0.11077657849544877,"53":-0.0599431429223672,"54":-0.039965369308784165,"55":-0.04354153760184292,"56":-0.07040205087068452,"57":0.03896157768827803,"58":0.09723639979411484,"59":0.00007598261804171945,"60":0.01250935582886413,"61":0.08831332279394112,"62":-0.015394623963891877,"63":0.04780623764260399,"64":-0.0998054776769593,"65":0.012825541465312085,"66":0.04557152530600302,"67":-0.12586025157418163,"68":0.010974005578187111,"69":-0.007022810238938999,"70":-0.05719198622797356,"71":0.015641725227610072,"72":0.021549047873130677,"73":0.06153419727690482,"74":-0.06716410668636418,"75":-0.020088785624710673,"76":-0.10157291270088417,"77":0.09765418493693323,"78":-0.0183210322127727,"79":0.13815016415944673,"80":0.21450210599147546,"81":-0.04307176011800754,"82":0.14147930074372414,"83":0.05641119486195449,"84":-0.08720975339396764,"85":-0.042564669572933526,"86":0.07233093965526659,"87":0.14089169282448794,"88":0.0176339528940158,"89":-0.07196578138025496,"90":0.06799788695575631,"91":0.06854678271259924,"92":-0.02185255774388426,"93":0.03202338263939477,"94":0.1531808391458013,"95":0.13252101514514678,"96":0.11263521518757579,"97":0.01148663548266654,"98":0.1930307476671631,"99":0.14097411168567975,"100":-0.03768656610897091,"101":0.03146504928168543,"102":-0.012925470985619913,"103":0.06289862977380685,"104":0.021086483809061064,"105":-0.03094766191457814,"106":0.06775038598193302,"107":0.1599263185653109,"108":-0.10357560443324196,"109":-0.09054219221427619,"110":0.01308252798521869,"111":-0.06183120874467516,"112":-0.15217530550677322,"113":-0.12124176201184969,"114":0.18772307731704108,"115":-0.02706735097086704,"116":-0.1579389499931595,"117":0.06325291758967343,"118":-0.04229315377198442,"119":0.06775038780161106,"120":-0.05889627999446476,"121":0.2053403321860002,"122":-0.08365326149923126,"123":-0.26328677084446844,"124":-0.036755045157559,"125":0.04716059635811113}},{"sx":1,"sy":1,"depth":126,"w":{"0":0.02445808836522173,"1":0.13886032015433664,"2":-0.12729928658429066,"3":0.07931389170152715,"4":0.0020334640489093744,"5":0.07261708618980028,"6":-0.10582383509751998,"7":-0.019440953034267724,"8":0.1716599561560949,"9":-0.12055836633713445,"10":-0.17016061028341897,"11":-0.0789922139686616,"12":0.06914000578747508,"13":-0.010375627621255398,"14":-0.007619291914039943,"15":-0.13758072433522295,"16":-0.0009332259355215005,"17":0.003949553825867177,"18":-0.16053918658177735,"19":0.12266496455857841,"20":0.1112734121948275,"21":-0.03543295568032784,"22":0.03869442891550461,"23":-0.05275482245373352,"24":0.008485435809151037,"25":0.029767987857700604,"26":0.02245270299798066,"27":-0.042520091987150364,"28":0.03075338597064834,"29":0.017601121330761887,"30":0.057048181360017144,"31":-0.05742032338041511,"32":0.16141423619265766,"33":0.10476232799870085,"34":0.03901093470292745,"35":0.022280429136657984,"36":0.11602545299071794,"37":0.06632049227706019,"38":-0.0038279627363967143,"39":0.18323604848229189,"40":-0.02372338734296576,"41":0.09169932351085494,"42":-0.057987939282248914,"43":0.16537441628961563,"44":0.07052646820794463,"45":-0.18056226328774436,"46":0.1315383940110197,"47":0.09663356719476568,"48":-0.04767608705426007,"49":0.03605958744894061,"50":-0.0027331675048525394,"51":0.03663519417622897,"52":-0.11944315959893423,"53":-0.04683082569179482,"54":-0.039362532702251714,"55":-0.07356732003034505,"56":-0.04182574754488041,"57":0.029177383076147454,"58":0.012175162287124957,"59":-0.16304170500409892,"60":0.21425245431099368,"61":0.1387514164719213,"62":0.06602660066569079,"63":0.056819709636658,"64":-0.09227099268045232,"65":0.004292911378895818,"66":-0.08964325390694942,"67":-0.0026750115210244074,"68":-0.15000702940114802,"69":-0.13445970371580243,"70":0.1951143467120062,"71":-0.12899573409685494,"72":0.15896932700701866,"73":-0.09017716473475539,"74":-0.031875074835095496,"75":0.027407035822954742,"76":-0.05132368616123134,"77":-0.05912784332429385,"78":-0.013878117184259383,"79":0.06379083803786105,"80":0.0775039316898422,"81":-0.08254271380522844,"82":0.11245127955351754,"83":0.059619560827636746,"84":-0.033769635417254786,"85":0.06610676670608102,"86":0.026619097907487673,"87":0.08816735738494004,"88":-0.07738332516568627,"89":0.03381290187731607,"90":-0.027515150171546446,"91":-0.034465842030655856,"92":-0.04063729483407545,"93":-0.062445653361303866,"94":0.005912230942005087,"95":-0.06734270468274754,"96":-0.055779357602156444,"97":0.016152155075962033,"98":-0.1517775295939213,"99":-0.1676158619802187,"100":0.03009333212447326,"101":0.0710637819346729,"102":-0.006918874859350338,"103":-0.12835418783352703,"104":0.1145085394236046,"105":0.066044831387886,"106":0.04623860742015132,"107":0.022769721877186528,"108":0.09810583701195748,"109":0.12007809101798853,"110":-0.04271402736522626,"111":0.11816986563262985,"112":-0.007101444499029967,"113":-0.04694000622959579,"114":-0.0791542156070695,"115":-0.02967999357795521,"116":-0.13362716183171267,"117":-0.023651373460316562,"118":-0.055960596556634726,"119":0.13742702762204292,"120":0.07257968720190455,"121":0.06612786359937127,"122":-0.11326332212558562,"123":-0.009737097889252679,"124":0.02490953794640257,"125":0.08810519992693135}},{"sx":1,"sy":1,"depth":126,"w":{"0":0.09041728912367698,"1":-0.014166662566472732,"2":0.2247801333095178,"3":-0.03554452107584358,"4":0.11963777129620562,"5":-0.12252299153487725,"6":0.0467102926612836,"7":-0.007525616329033598,"8":0.052587317960680495,"9":-0.08193813604656879,"10":-0.0073759512054917134,"11":-0.014581894261816398,"12":-0.006159931005985728,"13":-0.004587974271881828,"14":0.12683756863316914,"15":-0.06656455654268241,"16":-0.15235641881622905,"17":-0.002129331633162722,"18":-0.018967612455297902,"19":0.054609976615363126,"20":0.03188725264298932,"21":0.0686857187593105,"22":-0.05677012871002487,"23":-0.05401103693451898,"24":-0.06091959072163301,"25":-0.0015591451587391666,"26":0.05569195629905525,"27":0.06559649716856855,"28":-0.07526982656290121,"29":0.08910908944770415,"30":0.04349155139507805,"31":0.053720008390775585,"32":-0.08976143411501274,"33":-0.010438068653311776,"34":-0.17142840419249186,"35":-0.07987373258513439,"36":0.0022883770290583662,"37":0.01188978980869672,"38":0.13526106298885263,"39":0.011647955746106642,"40":-0.059926958457307875,"41":0.13625263935631113,"42":-0.038355313120636565,"43":-0.04909779119674789,"44":-0.050872423929573564,"45":-0.05344747060030237,"46":0.028424016420604343,"47":-0.036644032720429785,"48":-0.10891886593322882,"49":0.0476688499661867,"50":0.05958721892960009,"51":0.011331607381797134,"52":-0.021702353229257672,"53":0.10520495139622309,"54":0.11032146500096844,"55":0.03649114359344632,"56":0.014569869029425137,"57":-0.0022793801671879654,"58":0.02143806667319767,"59":-0.01791277298597909,"60":0.08959866074682177,"61":0.022073041252106077,"62":-0.047457461929953,"63":-0.0977659014192152,"64":-0.11716943553961646,"65":0.07556215592264376,"66":-0.0716412496428102,"67":0.1421393895514312,"68":0.08300795402943126,"69":-0.004164910108225051,"70":0.009866719255128319,"71":0.11686451015505782,"72":0.013956017550117026,"73":0.06990016660432266,"74":0.08136861714228671,"75":-0.12714039238252867,"76":0.08464902939970548,"77":0.0402434993104705,"78":0.19629379533443772,"79":0.0965896283742298,"80":0.031629798305981324,"81":-0.11493496714696143,"82":-0.07182521735014899,"83":-0.21620223357038654,"84":-0.1527289538436019,"85":0.057044435366076056,"86":-0.007975770030379182,"87":0.1404823031246359,"88":0.08135205969746873,"89":0.06814897286694356,"90":0.0016391765054117329,"91":0.0412296903593221,"92":0.07512116925922942,"93":-0.02726519695329321,"94":-0.19518464006468877,"95":-0.005254680966777431,"96":0.10906181265404846,"97":-0.011913563581262122,"98":0.03571164628159689,"99":-0.05093041280566697,"100":0.06723896417972233,"101":-0.05561194037023873,"102":0.1389773632674879,"103":-0.12322895452883305,"104":0.14146509979227553,"105":0.08276654204850645,"106":-0.15460276619783325,"107":-0.04878030954142213,"108":-0.10217271404551156,"109":0.08993129720342107,"110":-0.06854692974742224,"111":-0.059741670461862365,"112":-0.05491291883601343,"113":-0.05030406811114521,"114":-0.005883489805333333,"115":-0.05164876194710411,"116":-0.16048951666805641,"117":0.014812704066627111,"118":0.037393572232869106,"119":-0.006536287914522342,"120":-0.011083708505623398,"121":0.17123935019921419,"122":-0.11428865858223428,"123":-0.15185948442459235,"124":-0.04069937037350107,"125":-0.11999166152556046}},{"sx":1,"sy":1,"depth":126,"w":{"0":0.0854516010294092,"1":0.1965308996123788,"2":-0.06387545383443788,"3":0.02908312979136969,"4":-0.015228846942944279,"5":0.1065856968879887,"6":0.052309723363408514,"7":-0.11644422762681006,"8":0.039892936932997156,"9":0.135298137195643,"10":0.034559132404267695,"11":0.01233977306170435,"12":0.07718497475679997,"13":0.037598084308795125,"14":-0.05972419638892097,"15":0.07120331335105211,"16":0.06695731345167036,"17":0.03150422309197128,"18":0.0619276934047326,"19":-0.12248465250476967,"20":0.2134849628676702,"21":-0.03406249072968845,"22":-0.010535309606760943,"23":0.05549276084623948,"24":0.05618822719987968,"25":0.11530645110511432,"26":0.036315288190470175,"27":-0.012875414588381574,"28":-0.0006282448969765797,"29":-0.09974407638711955,"30":-0.03522519688631975,"31":0.01830126603219386,"32":-0.08194813943814855,"33":0.0295157562454651,"34":0.1238487489014878,"35":0.09420241335281761,"36":0.023036143094897054,"37":0.007580390666300997,"38":0.01763691320845939,"39":-0.029137990260629004,"40":0.061670878666710144,"41":0.1237571861707265,"42":-0.07940780287900645,"43":0.11066806648486026,"44":-0.12093139159192139,"45":0.09746573347287141,"46":-0.11805462885863417,"47":-0.10301892022634451,"48":-0.06717622357642344,"49":0.0018984824627562603,"50":-0.09138282934247323,"51":0.0308629490159888,"52":-0.016655850743638,"53":0.018178677852017502,"54":0.06383623569438197,"55":-0.031054154150376514,"56":-0.07496019157594616,"57":0.004164225159792474,"58":-0.1475577231676628,"59":0.06487282196774817,"60":-0.005354342308200713,"61":-0.05383409080482663,"62":0.16176424900768632,"63":0.03244932246868977,"64":0.04379552692712803,"65":-0.07493930891786335,"66":0.0425214427449066,"67":-0.20902962911324682,"68":-0.10432674447385967,"69":-0.11758603182059826,"70":-0.169548488584756,"71":0.047539749094122875,"72":0.21719901540035477,"73":0.1714599930443967,"74":-0.017005326323158782,"75":0.004790925799630392,"76":-0.016358111524719554,"77":0.025599634178528025,"78":-0.12921387501946716,"79":-0.0686621803529695,"80":0.2222615434115891,"81":-0.1660634599824329,"82":0.06472139243858588,"83":0.006668004477379858,"84":-0.056413433396495447,"85":-0.009141578465446524,"86":0.03618285827653933,"87":0.15133538039591668,"88":-0.1864304520991782,"89":0.10300585668400963,"90":-0.06929881985075617,"91":0.18254402039614034,"92":0.08816506893729922,"93":0.012734209814510277,"94":0.09032876417593838,"95":-0.07867432953428169,"96":-0.13655038034680725,"97":0.11565782285478837,"98":0.052859903886230485,"99":0.06905231650917044,"100":0.09737011316991705,"101":0.20715358358510128,"102":-0.07785763082305794,"103":-0.03309014989088907,"104":0.021138555207990503,"105":-0.06625328241674812,"106":0.06276333508589008,"107":-0.08366898250627626,"108":0.08652091523585397,"109":-0.08275919007934475,"110":-0.07213952493651762,"111":0.13558754898269346,"112":-0.19565161226709588,"113":0.1940551340904936,"114":0.00826457656703693,"115":0.14084833784583398,"116":-0.032110053268865804,"117":0.040348194192357315,"118":0.0034994718290901083,"119":0.037833373889271,"120":-0.15192183978407536,"121":-0.03604909698657173,"122":-0.1438634573919223,"123":-0.16883619491995933,"124":-0.07900619759145595,"125":-0.04583314679216529}},{"sx":1,"sy":1,"depth":126,"w":{"0":0.04898247948103154,"1":0.14745197350269953,"2":0.04170697902159727,"3":0.11466829780962097,"4":0.10714678595938086,"5":-0.18416198199769745,"6":0.20408913675184068,"7":0.11229607711786305,"8":-0.07632015439760198,"9":-0.1120299977049776,"10":-0.12887240854238488,"11":-0.05858338538066279,"12":-0.03904241387556025,"13":-0.09212616366825878,"14":-0.13945473544710058,"15":-0.03792016623868478,"16":0.002112574436065929,"17":-0.03956596921640325,"18":0.07086636873041083,"19":0.05455329608231101,"20":0.10295694595916888,"21":-0.08058318661898078,"22":0.04583194479349894,"23":0.04245503988257157,"24":-0.07467791099261695,"25":0.07561837357845265,"26":-0.15057821283233486,"27":0.11905030312407383,"28":-0.022305389678742293,"29":0.04130629165095771,"30":-0.07160947490112096,"31":0.06883498090958114,"32":0.01945075615778395,"33":-0.05256323087640923,"34":0.17788564831390838,"35":0.05578095150817352,"36":-0.007556596182976054,"37":-0.016058924320490706,"38":0.027771280475522346,"39":-0.01527528162236949,"40":0.1257752773205023,"41":-0.1644749881317877,"42":0.07930848402234278,"43":-0.1861896993650479,"44":0.0007444697688510503,"45":0.09294313978965084,"46":-0.11264358134151196,"47":-0.05743721212902395,"48":0.039628301933453215,"49":-0.0931761153735036,"50":0.02167932137125342,"51":0.0016872188906023587,"52":0.06119199835265336,"53":0.12498451845292753,"54":-0.08088737125210214,"55":0.16094875969252956,"56":0.011707073007687344,"57":0.053801729335207785,"58":0.17400544647594282,"59":0.061446702441336855,"60":0.04360089331801542,"61":-0.06461246879995919,"62":0.026176959839852278,"63":0.13129706906613164,"64":0.01248729194578178,"65":-0.03538989516558038,"66":0.14295469086017157,"67":-0.04898841578741261,"68":0.02654609961237454,"69":0.3054783767913225,"70":0.12418797300559087,"71":0.10593457221562327,"72":0.1075064415482693,"73":0.2388440139394376,"74":0.0045525595942540326,"75":0.08754148060153596,"76":0.10286131838113272,"77":0.05551616223409661,"78":-0.07871302167819484,"79":0.2334062471046044,"80":0.19668599871353223,"81":-0.03676233042298603,"82":0.024585268982997937,"83":0.17324950193291308,"84":-0.06364769961415122,"85":0.046814656971380895,"86":0.19742763192636048,"87":0.07866112234998468,"88":0.010232445200682155,"89":0.013021401112882582,"90":0.11581998647133743,"91":-0.024047390196028272,"92":0.09298747183183888,"93":0.18741390621874235,"94":-0.017756629126474237,"95":-0.057652325998317065,"96":0.06260041224955713,"97":0.013717378326866148,"98":0.07629760625970258,"99":0.024788061891059605,"100":0.12607927029822577,"101":0.11833523882244652,"102":0.0036911075482773444,"103":0.043183242111893116,"104":-0.043436888373489566,"105":0.039208987222268614,"106":-0.15355609831798003,"107":0.13387773315320053,"108":-0.14221129113858666,"109":-0.016404617733011065,"110":-0.049947896926076346,"111":-0.006442670171223621,"112":0.09543046335029945,"113":-0.04917745962794682,"114":0.11711497855431273,"115":0.009985879953470389,"116":-0.025792654938696202,"117":-0.022308635046199916,"118":-0.020540000800116347,"119":-0.12957099678233927,"120":-0.08535150959236905,"121":0.2615440457668398,"122":0.12908738451212143,"123":-0.0671637454677452,"124":0.019936343938905393,"125":-0.08591520707069765}},{"sx":1,"sy":1,"depth":126,"w":{"0":-0.07238480954656827,"1":0.06626388973552447,"2":0.18048473114068594,"3":0.047462056701972254,"4":0.00010338349068135454,"5":-0.044242125066743146,"6":0.14076552290358232,"7":-0.04570406818001928,"8":-0.07009005263866706,"9":0.13133142681575624,"10":0.04455494466071276,"11":-0.03063222106838366,"12":0.08425070183709443,"13":0.007910423055276656,"14":0.02918275969571679,"15":-0.0499511042096213,"16":0.0367661361114534,"17":0.0681795469734096,"18":0.01962829371893185,"19":0.11082286465948586,"20":-0.04888860798990925,"21":-0.11463759904314128,"22":-0.018562146797571236,"23":-0.10110040627038941,"24":0.036538812418308475,"25":-0.07785324528266438,"26":0.12301810602985426,"27":-0.05610680136954867,"28":-0.11119019100607536,"29":0.2569649499167695,"30":0.06104872960403064,"31":0.02754905817667453,"32":0.16897903354903981,"33":-0.0218923423311657,"34":-0.085310155803521,"35":0.05981256809990011,"36":-0.10967147833404405,"37":-0.13934769767149263,"38":0.17525803678371302,"39":-0.06222878104753202,"40":-0.018388281815002492,"41":0.035477814993244663,"42":-0.018390061419635294,"43":0.013021007706541078,"44":0.030711052047028314,"45":0.08237727812668634,"46":-0.044892051215375865,"47":0.1065580528632366,"48":-0.12508877074083455,"49":0.07522313387019007,"50":0.08966895182798888,"51":-0.01661136575688767,"52":0.09661181713951938,"53":-0.016966084561369756,"54":-0.0349938398952241,"55":0.01943080104175122,"56":0.0005960309036639781,"57":0.04250422390885721,"58":0.026221312346573156,"59":-0.10729962876940903,"60":0.054222839805193004,"61":-0.11335733512183946,"62":0.22786071426004906,"63":0.031213311457148365,"64":0.04989023788477621,"65":0.015342689096782422,"66":0.08237902690958171,"67":-0.06663077591360596,"68":-0.0092817232748821,"69":0.04295185260562518,"70":0.04932944846952327,"71":0.005118653561822481,"72":-0.06153157619845633,"73":0.09453460912201578,"74":0.011556723497485292,"75":0.07155443004295362,"76":0.1492622849627141,"77":-0.013830427183054281,"78":-0.11071437063625028,"79":-0.007948624701373613,"80":0.23034921645594078,"81":0.1364442799573461,"82":0.008298602817962613,"83":0.056876553070175945,"84":-0.03932658341655533,"85":0.03620456335227188,"86":-0.017198133379546673,"87":-0.014501926382133238,"88":-0.15695994205621203,"89":-0.08474593120719683,"90":-0.12194231426321524,"91":0.04819820597271065,"92":0.022376027177039518,"93":-0.12562675491248151,"94":0.0931605860692078,"95":-0.14396192531216687,"96":0.1506986083112417,"97":0.10285771256664848,"98":-0.02348678823563944,"99":0.09652136255396447,"100":0.0887630104739122,"101":0.10064284225233985,"102":-0.0916598568563018,"103":0.07544566503541374,"104":0.031792634877992644,"105":0.17175205568580906,"106":-0.18715681951479005,"107":-0.09508433231543333,"108":-0.0005559314201297015,"109":-0.17744850998743847,"110":0.136544684471508,"111":-0.16202523189436585,"112":-0.054554815896184876,"113":0.015433533078999192,"114":0.0033384305871145465,"115":0.058254658797783736,"116":-0.008428992641675995,"117":0.03077906752523717,"118":0.06939193799377097,"119":-0.002812788302566004,"120":0.04941568086105923,"121":-0.020018740341815947,"122":-0.019755095941709593,"123":0.04133175344131864,"124":-0.04881412283664057,"125":-0.0245264942813267}},{"sx":1,"sy":1,"depth":126,"w":{"0":-0.0008557939810634068,"1":-0.0067410846380010865,"2":-0.04689293270065502,"3":0.10843804935582557,"4":0.03302526755918046,"5":-0.007233785199509728,"6":0.010175636271195231,"7":-0.08117410751766961,"8":0.07674938104905278,"9":0.002415512621116741,"10":0.003184446488735161,"11":-0.01730894105686265,"12":-0.08327147181826146,"13":-0.1727150563381229,"14":0.00897028653827815,"15":-0.14067450992191707,"16":0.059011004738175506,"17":-0.03860747485508064,"18":0.09679912824649971,"19":0.08171021156327002,"20":0.09652355686794054,"21":0.014179009713139207,"22":0.20156887559696143,"23":0.08467621068744674,"24":0.1445790860369789,"25":0.11105902165465295,"26":0.14408144288895386,"27":-0.035338333436539505,"28":-0.09157604287598119,"29":-0.04436132747398396,"30":0.01728481888468282,"31":0.11139056142019493,"32":0.11341366538773527,"33":-0.08996677711927065,"34":-0.06083442762188163,"35":-0.2818646039588527,"36":0.03695255787523382,"37":0.02523297232811109,"38":0.18088090537801782,"39":-0.06146965895989208,"40":0.007215758055582401,"41":-0.04228786322547319,"42":-0.020002156253863573,"43":-0.009052226559501102,"44":0.04682985834842468,"45":-0.07157638470259646,"46":0.1253250713506685,"47":0.08402353841310341,"48":0.10433456045358758,"49":-0.015476540206606621,"50":0.028481476220517225,"51":0.006285855013463609,"52":-0.008272146372431708,"53":0.18354621600137758,"54":0.06698044680445364,"55":0.12192985350304383,"56":0.09662045624873682,"57":0.07028155579842792,"58":0.035680606204263526,"59":0.11887138082788613,"60":0.017161000619417912,"61":0.005892362408263499,"62":-0.052239634877448995,"63":0.09321495847370187,"64":0.07248012492048708,"65":0.22127104300469022,"66":0.05235197611321395,"67":0.20134957208855844,"68":0.1998006253161835,"69":0.03379860985363054,"70":0.00407734071904761,"71":0.054115588883982525,"72":0.15878362869062182,"73":-0.16538561487931608,"74":0.093867736280439,"75":-0.003391406088669896,"76":0.09769668565932291,"77":0.06314957528403312,"78":0.061071419780523474,"79":-0.1458668995283515,"80":0.04475050164137604,"81":0.09152516468562527,"82":0.03627153816080512,"83":-0.14888435980209527,"84":-0.07508605960405634,"85":-0.028224112627288765,"86":-0.02255378875033749,"87":-0.00956517967151998,"88":0.10379440388179335,"89":-0.026193637875405167,"90":-0.2387542020190906,"91":0.002758343365570227,"92":0.0494963573773649,"93":0.048511734244785894,"94":0.07518667666533088,"95":0.32668307621567577,"96":0.011846189542179647,"97":0.08824040458449287,"98":-0.03488512527970646,"99":0.11423497650130768,"100":0.06307179262978348,"101":0.1174599910170639,"102":0.16131469192403133,"103":-0.020393832041330367,"104":-0.08840164376484108,"105":0.019547279640306548,"106":0.03097188026284188,"107":0.022067256316380127,"108":-0.05316640995304663,"109":0.13080854545008794,"110":-0.031681699797931374,"111":0.20914527595719312,"112":-0.04569281857778888,"113":0.0713528515127719,"114":0.044223557665560166,"115":-0.05248699775460663,"116":0.23421544967190508,"117":0.05659203895822591,"118":-0.08345488557265134,"119":-0.022635470292534952,"120":0.009776462742768412,"121":0.22337831429886884,"122":-0.1238717622509545,"123":0.3741031626624088,"124":-0.07245343752194355,"125":-0.16969804698714278}},{"sx":1,"sy":1,"depth":126,"w":{"0":0.1884154682512253,"1":-0.05773419977643444,"2":-0.012094534146456557,"3":0.0034152891137984713,"4":0.05759325968689084,"5":-0.05234161183875681,"6":-0.03933810289881794,"7":0.005285835382266202,"8":-0.07559625697686928,"9":0.09424195280353148,"10":-0.00046343670692578463,"11":-0.11982801337335387,"12":0.013925114200919958,"13":0.012612740379002245,"14":0.07081641068263521,"15":-0.20915807010485923,"16":0.014263800876296908,"17":-0.02364260246224026,"18":-0.2291554085609776,"19":-0.04455023123724833,"20":-0.0710217752518731,"21":0.025679664803020988,"22":0.023896838979407392,"23":0.06415289083174464,"24":0.06056275113301481,"25":-0.006761498717495553,"26":-0.05808971084807769,"27":-0.14141025985562047,"28":-0.06805569009847152,"29":0.2189202653564442,"30":0.008496052390788177,"31":0.03478544453464128,"32":0.0321881982489387,"33":0.0032282956507190446,"34":-0.007135333920918261,"35":0.015636931106041068,"36":-0.09091925945986623,"37":-0.03252284343858843,"38":0.11217368758571009,"39":-0.09550399644047404,"40":-0.009216223041061698,"41":0.08213143814771338,"42":-0.11410159244202668,"43":0.04285120795644943,"44":0.12538248016193818,"45":-0.08844577731336578,"46":0.15550175157696255,"47":-0.003092037270047515,"48":0.09099362148689222,"49":0.0772619329124211,"50":0.1895734613033433,"51":0.08793971450557367,"52":0.0910365051266017,"53":0.034375301227802676,"54":-0.07582788464098952,"55":0.02157764467135569,"56":-0.1791953314068697,"57":-0.01708218629393348,"58":0.1911816439554201,"59":-0.029819216819555593,"60":-0.207799907322235,"61":-0.05744575502802225,"62":0.0718758711391577,"63":0.01026762083817756,"64":-0.018123444717970037,"65":0.00942413828835222,"66":0.07630475957575643,"67":0.01704317331714055,"68":0.04081033302933536,"69":0.010727059393299907,"70":-0.04399975864797714,"71":0.006872499119867287,"72":0.07008611881175493,"73":-0.013626663327853951,"74":0.050711236370745726,"75":-0.11928357387971841,"76":0.07132964261526074,"77":-0.07931095050102481,"78":-0.05651073596333914,"79":0.0007817035366724702,"80":0.065243234481949,"81":0.03626129167400341,"82":0.048298873103062474,"83":0.05191338160417596,"84":0.008309118591324768,"85":-0.12663587650141878,"86":0.10149809583194071,"87":0.1884141625963674,"88":0.08193059874424374,"89":-0.06581751597589135,"90":-0.06932695539031,"91":-0.019016583443525234,"92":-0.08056353230015482,"93":0.01994160691066503,"94":0.013977224206300197,"95":0.07903861330664076,"96":0.017611749491397606,"97":0.06395381397545753,"98":-0.04792302434762907,"99":0.02863818859891332,"100":0.036199735568247106,"101":-0.06208897163552485,"102":-0.08282116363714438,"103":0.17363699591721807,"104":-0.13164239081339443,"105":0.09859246328044217,"106":0.09075234975505587,"107":0.042169933309888025,"108":0.030477515434577395,"109":-0.17398474488222443,"110":0.09216884628074823,"111":-0.05021558892430747,"112":0.13065896271784633,"113":0.007906780786520424,"114":-0.010933117811152854,"115":-0.09095322107820666,"116":-0.013608567225650223,"117":-0.042264237985686605,"118":-0.05873869541577433,"119":0.07118772967635134,"120":-0.05325089219092161,"121":-0.11153101531919059,"122":0.04635979076977167,"123":-0.11619192687136265,"124":-0.06857286624023955,"125":0.04478790362036546}},{"sx":1,"sy":1,"depth":126,"w":{"0":0.12904141276039083,"1":-0.026903562972714,"2":-0.03716136058244737,"3":0.023466487703561047,"4":-0.02822018825211825,"5":0.058643540015953975,"6":-0.0011149297400159636,"7":-0.06970795922052182,"8":0.0246116840808792,"9":-0.18218910184615608,"10":-0.010125656522634278,"11":0.01871383841085966,"12":-0.004767566786459464,"13":0.02513531225941592,"14":-0.051536369449931646,"15":0.04663498446238505,"16":-0.16744020711998123,"17":0.07888431478119325,"18":0.0008843857132536639,"19":0.0699586930489489,"20":-0.001456695434412507,"21":-0.0400974026940147,"22":0.0719415114047298,"23":0.11764111927649534,"24":0.0516460646854502,"25":-0.06655929925063964,"26":-0.0346064843581582,"27":0.07378270047547102,"28":-0.030587206361800543,"29":-0.005354870018946766,"30":0.20871556622632723,"31":0.018737911874223984,"32":0.01394815096888946,"33":-0.08422693763893678,"34":-0.13810864136219989,"35":-0.07853294087202771,"36":0.08135905474830585,"37":-0.03642858699334838,"38":-0.12382506984626418,"39":0.0896303347264603,"40":0.08564719798111836,"41":0.011649192596721418,"42":-0.05706958299036209,"43":0.08497412916248996,"44":0.06136505909297668,"45":0.047066911243949565,"46":-0.17752876373219323,"47":0.1912740183808969,"48":-0.08544948673441508,"49":0.07398206102224858,"50":0.16200977960887367,"51":-0.05320069676293799,"52":0.09189024595463685,"53":0.02412874155113896,"54":0.12497922486239474,"55":0.09355090798932005,"56":0.10552265271003075,"57":-0.03927294273982761,"58":0.06039435217272684,"59":0.09288264686036163,"60":0.034642973646508535,"61":0.12758117656729867,"62":0.1327283267349147,"63":0.04244102761033767,"64":0.09476331995268485,"65":0.01253870272306278,"66":0.007794141178936654,"67":-0.011854251836361443,"68":0.01412877900971663,"69":-0.044533895750162186,"70":-0.022334079812727215,"71":-0.03612656776655461,"72":0.05515132833545061,"73":0.10428379230147736,"74":-0.07897514426789257,"75":-0.03758315486982344,"76":0.0035565233023158375,"77":0.031996033307875635,"78":-0.03991557565977062,"79":-0.06115496986931403,"80":0.10300588520984078,"81":0.08749349358846328,"82":-0.01440259346995391,"83":0.03199226142000422,"84":0.01919248695842704,"85":0.02446663561898142,"86":-0.08997559563514469,"87":0.05355932464215742,"88":-0.06999620369299729,"89":-0.07418576695264442,"90":-0.05035639278495064,"91":-0.07340782304698296,"92":-0.021826543590489855,"93":-0.04408335841965915,"94":0.15622191300263435,"95":-0.15822045851090047,"96":-0.024997982772983224,"97":0.1276171487574041,"98":-0.055643174985957736,"99":-0.13748151099023476,"100":0.027941468669039526,"101":0.03668590641150073,"102":0.08535365716428617,"103":-0.11171565841601226,"104":-0.06314574964098894,"105":-0.07642886922495751,"106":0.10093199373475115,"107":-0.10759507874046197,"108":0.08919963298523237,"109":-0.11467003668479135,"110":0.047260625081811385,"111":0.09422978225358516,"112":-0.17832910619764608,"113":0.0973098405780956,"114":-0.2859481957165943,"115":0.19887372444411974,"116":0.034401259109077355,"117":0.06043199031917528,"118":-0.170499351893634,"119":0.13036655494651084,"120":0.07744166660842258,"121":-0.2392583581933259,"122":0.15133357204272613,"123":-0.08344529167641845,"124":-0.07994008691751503,"125":-0.06669411611837288}},{"sx":1,"sy":1,"depth":126,"w":{"0":-0.11631131170973284,"1":-0.0266077258928635,"2":0.13446535619436983,"3":0.08520167075345378,"4":-0.02546326112883883,"5":0.07077249165709992,"6":-0.2331552747525133,"7":0.05182595753120167,"8":-0.03979594109159313,"9":0.04608371968174255,"10":0.013967773307395955,"11":-0.11926477128651204,"12":-0.041964336307493015,"13":0.13006744941157053,"14":-0.10165663130656824,"15":0.014085479367459517,"16":-0.007927086385741878,"17":-0.08469951509983555,"18":-0.015342527271013935,"19":-0.050822267141939596,"20":-0.0026260625314328398,"21":-0.08446743408919913,"22":0.060744696698941586,"23":-0.09334770876738066,"24":-0.1484463613929484,"25":0.14009278318417978,"26":0.06905322289864294,"27":0.02867540088939247,"28":-0.02012754495949568,"29":-0.02318654814109494,"30":-0.03932235712330024,"31":-0.011729103196341479,"32":-0.09670642554564628,"33":-0.17165797998748994,"34":0.0060482041509618304,"35":-0.028684550259612463,"36":-0.11490623185243715,"37":-0.009962728754378116,"38":-0.11160331049714539,"39":0.02292121671829361,"40":-0.16480831974452573,"41":0.029091187726937855,"42":0.14757979103765156,"43":-0.06858985246233068,"44":0.05953432524872017,"45":-0.03204860746800684,"46":-0.10854228619793019,"47":-0.10389494999552439,"48":-0.09253312863994607,"49":0.03737727285815465,"50":-0.019801687163841862,"51":-0.1246575088272233,"52":-0.058990961114921574,"53":-0.23994135985987639,"54":-0.08929867099010728,"55":0.04956936918944794,"56":-0.013912571847396587,"57":0.14618599827984277,"58":0.05438699581403298,"59":-0.08544405690279264,"60":-0.04543121570765731,"61":0.03535719257603308,"62":-0.011105883773214262,"63":-0.05449124266911707,"64":-0.06178786585125638,"65":-0.06183055878827403,"66":-0.007996136503747777,"67":-0.023095605694685675,"68":-0.12452429334215195,"69":0.08545917852961091,"70":0.10475227700854084,"71":-0.08667958620945981,"72":0.07167521109191667,"73":-0.06882255645914266,"74":-0.0888650494134568,"75":-0.04392829962425935,"76":-0.029614850269929334,"77":0.14065668993781524,"78":0.05877679935556737,"79":-0.030703380983491547,"80":-0.0022209592432419502,"81":-0.012905110031890626,"82":-0.02417641508428547,"83":0.056165259982052504,"84":-0.007232297074333169,"85":-0.12401180653804159,"86":-0.1326406609548643,"87":0.15883364450407192,"88":-0.12789918835294348,"89":-0.15741829167424543,"90":0.15648134432150848,"91":0.03011622187736863,"92":-0.02267961040229267,"93":-0.1022695528132819,"94":0.044223595357987505,"95":0.03535245346246728,"96":0.12811431550221178,"97":-0.07577900065987501,"98":0.08747196594475543,"99":0.0565093824247468,"100":-0.16392928353077788,"101":0.12848870667584064,"102":-0.01672945203936541,"103":0.23901994397174375,"104":0.024068004880977333,"105":0.07042967296656942,"106":0.04571261595214602,"107":-0.047810701298857256,"108":-0.03597655261055277,"109":-0.010968200996722816,"110":0.07621078798596696,"111":0.16999934861558483,"112":-0.0674100487267892,"113":0.06419687240084761,"114":-0.13477416965738206,"115":-0.032006911121140076,"116":-0.002951738320431868,"117":0.20020255571037843,"118":-0.01542740237458609,"119":-0.05362028013242295,"120":-0.2138990780576143,"121":0.02053721999716331,"122":0.12556086584232828,"123":0.08111725964157458,"124":0.09508133070234023,"125":-0.08042230349752665}},{"sx":1,"sy":1,"depth":126,"w":{"0":-0.016447580484467303,"1":0.04322643688999273,"2":0.10966938890419818,"3":-0.10340992633306878,"4":0.15800222496036465,"5":-0.1035918719274248,"6":0.0676974597699604,"7":-0.02830577913099333,"8":-0.0043247811185549824,"9":0.1417541397983089,"10":0.052549737191648564,"11":-0.024627204339215225,"12":-0.056163184703333736,"13":-0.05203567079642803,"14":-0.031406729159654326,"15":0.12809011164763376,"16":-0.016276318232938583,"17":-0.055673732286811585,"18":-0.06696428015607825,"19":0.10291515127722668,"20":0.08320900493789554,"21":-0.026138035455019516,"22":-0.08329694818049468,"23":0.040934574184927075,"24":0.031244995300234342,"25":-0.007159208496773039,"26":-0.005941234645003808,"27":-0.07226361873935824,"28":-0.041158201144837606,"29":-0.03405345512737022,"30":0.041994409702252926,"31":0.10912237597197828,"32":-0.0697906315634406,"33":0.05764391934602023,"34":-0.14042019499584504,"35":-0.07145439742202146,"36":-0.03834663484811926,"37":0.044369652184296504,"38":0.05454123319727562,"39":-0.0022754945774018267,"40":-0.045844062453009156,"41":-0.11128043761047283,"42":-0.045208115840713194,"43":-0.002616175349478851,"44":-0.06254998223652952,"45":0.01844340098201917,"46":-0.05928437435328169,"47":0.02001846769755445,"48":0.12835864293938534,"49":-0.12510663918958537,"50":0.09463659261873923,"51":0.006665120825791939,"52":0.024052416021762633,"53":0.22786691877648646,"54":-0.032701624765533836,"55":0.10445978762978503,"56":0.0357016811394312,"57":0.16168703584261615,"58":-0.0815986011550725,"59":-0.09673978747261293,"60":0.004028631367521009,"61":-0.05717000659258084,"62":0.03512312883213177,"63":-0.14415390809684098,"64":0.13436789483749156,"65":-0.005043724313026159,"66":0.09792950345248644,"67":0.1590155697010068,"68":-0.007289688873197107,"69":0.12100688569397192,"70":0.1370222948562313,"71":-0.03955778634121448,"72":0.04561627931823686,"73":-0.05506173638756561,"74":0.06649916348873444,"75":-0.08654928187511556,"76":-0.017268960683042525,"77":-0.01011872560139582,"78":0.08617546186267659,"79":-0.06603106547420753,"80":0.011007639106976455,"81":0.08423080527665829,"82":0.0580806535795379,"83":-0.012991232608476743,"84":0.0864785120797142,"85":-0.056344323126637126,"86":-0.04779087227281893,"87":-0.05942592064616423,"88":0.06979381322076597,"89":-0.07439977747032782,"90":0.15870193462851617,"91":-0.08152016360532402,"92":-0.02582031476778375,"93":0.05486053270170061,"94":0.047881009711876005,"95":0.14270940287431633,"96":0.16355473593570768,"97":0.17472115677079514,"98":-0.03615579845620703,"99":0.08473917634922018,"100":0.10445022219426826,"101":-0.023651509919072392,"102":-0.0018212597693963832,"103":0.09842298673713663,"104":0.01421571371645201,"105":-0.043726969812387356,"106":0.03585418660417333,"107":0.04626737238018281,"108":0.054398981468692036,"109":0.004869097777794255,"110":0.07776935202901032,"111":-0.00031477424682458196,"112":0.07115722146251978,"113":-0.012567760386329636,"114":-0.14175477497727706,"115":-0.016462783338750026,"116":0.06557653625352715,"117":0.08083417533659461,"118":0.008148648273000492,"119":-0.17443273525747544,"120":0.034613580552413904,"121":-0.12710443438224145,"122":-0.019230182580949925,"123":-0.045480092121141596,"124":-0.0735950782666064,"125":0.08915626066466682}},{"sx":1,"sy":1,"depth":126,"w":{"0":0.07170733192732982,"1":-0.05668253897486397,"2":-0.02538689067072023,"3":0.08018780343406141,"4":0.08907362984697582,"5":0.030007694999778525,"6":0.07158238265006028,"7":-0.027435150267128314,"8":0.03703590006095026,"9":0.0773801645929785,"10":0.07250339604871614,"11":0.03642642493489703,"12":-0.008923673901816587,"13":-0.028665561730368237,"14":0.12806979585283557,"15":-0.034045896600867875,"16":0.15000510527816735,"17":0.059291540127993814,"18":0.1406088210207837,"19":-0.05805266406852166,"20":0.0818243572313651,"21":0.022867122368650055,"22":-0.148302827803418,"23":0.10874889096828028,"24":0.005301983801840879,"25":-0.0027998010192856965,"26":-0.06955732035901702,"27":0.06624626249143242,"28":-0.1314913000528138,"29":-0.009316662115370798,"30":-0.022895406382097784,"31":0.1128340477271066,"32":0.03563731733898543,"33":-0.021087170314397278,"34":-0.06964946854020332,"35":0.031119789386538185,"36":0.06272504547519009,"37":0.009141385596306312,"38":-0.10853684430788577,"39":-0.16257095031957405,"40":0.0041025802126821225,"41":0.09072763983429542,"42":-0.18658119167425777,"43":0.1090155128610949,"44":-0.18495658559147188,"45":0.0845906951569583,"46":-0.034484543278948676,"47":-0.16318129495091704,"48":-0.06335090130310905,"49":0.06425432304654594,"50":0.10051542184956969,"51":-0.01806178183647832,"52":0.1382045017054111,"53":0.09312104173260231,"54":0.11978485268912005,"55":0.02613814383509052,"56":0.10283998508678972,"57":-0.03730206972538315,"58":-0.032631545774646054,"59":-0.11673214750879327,"60":-0.1346120316105756,"61":-0.22126739977194052,"62":-0.03939495838378092,"63":-0.03431450612239634,"64":0.03683710905384646,"65":0.013855307966115586,"66":-0.12014799702421056,"67":-0.08650542494009585,"68":-0.0517137066615894,"69":0.08583019221466097,"70":-0.05960471869408942,"71":0.047684161598986925,"72":-0.1460851835198479,"73":-0.12174454252230528,"74":0.14377388652169282,"75":-0.16923830257060438,"76":0.060965318033558466,"77":-0.06394652364839808,"78":0.027473214318897946,"79":-0.09368702854279902,"80":-0.055182248156526725,"81":-0.10984450645499402,"82":0.04216540610867004,"83":0.025194756165455013,"84":-0.16971230841528034,"85":-0.011519132660295668,"86":0.11211897708283847,"87":-0.07768001430618615,"88":-0.1677388837331011,"89":-0.24659400323735017,"90":0.0028414699008425855,"91":-0.0864476291722295,"92":-0.02109800933931196,"93":-0.03602053666818607,"94":0.10088500967266784,"95":0.1888930095568501,"96":0.021386313040490372,"97":-0.2624400955175852,"98":-0.004619890034073262,"99":0.030203040917467023,"100":0.000003811760006214464,"101":-0.11635060484878128,"102":0.11295196146241483,"103":-0.1045289361989839,"104":0.10293525829986053,"105":0.02755464462556455,"106":0.03708679439308198,"107":-0.057960062798333344,"108":-0.08021517100125787,"109":-0.013580601537504077,"110":-0.04435143594851234,"111":-0.034788882233301434,"112":-0.22260456167359713,"113":0.006332350296428963,"114":-0.12972227732226116,"115":-0.13788433797911467,"116":-0.10347434786874543,"117":-0.14569039199243203,"118":0.04244730863773507,"119":-0.011812799132923187,"120":0.03934881342471904,"121":0.06616191370519506,"122":-0.05862897349205047,"123":0.031798580864159966,"124":0.01764366729521124,"125":-0.2340467811914492}},{"sx":1,"sy":1,"depth":126,"w":{"0":-0.028047610267347974,"1":0.15305658676878686,"2":-0.07919206307982482,"3":-0.036925140985496256,"4":-0.08380908748424439,"5":0.021390796718237466,"6":0.11238554651270177,"7":-0.0475658120136677,"8":-0.11251444843388433,"9":-0.12689847369926247,"10":-0.20257558911489704,"11":0.10072092119815584,"12":-0.09453613541449293,"13":-0.07181323684741488,"14":-0.08374509341602314,"15":0.06666513012756868,"16":0.03590321472344707,"17":0.0008353049394819681,"18":-0.05230377062049573,"19":-0.06313893524247743,"20":0.03096170126632866,"21":-0.009536043438967941,"22":0.047804854722064895,"23":0.049524078692916224,"24":0.01707904756331721,"25":0.03629306695856053,"26":0.013526407227523674,"27":0.04375999341278245,"28":-0.04985324711461814,"29":-0.05584267166248613,"30":-0.04505952841093201,"31":-0.022402025210913463,"32":0.2022221201095239,"33":-0.08036977298646132,"34":0.006375818575000842,"35":-0.005350896837597529,"36":-0.09014082467716679,"37":-0.020955258089012715,"38":0.09116537798676348,"39":-0.10224101068296741,"40":-0.05187465545199403,"41":0.10360115185655366,"42":-0.05764784326475835,"43":-0.0955138035366967,"44":-0.09188007972513561,"45":-0.07223311064213167,"46":0.021562911292681185,"47":-0.10040065166540259,"48":-0.06448450261625781,"49":-0.09030493258383747,"50":-0.039690890109067956,"51":-0.02342613499405915,"52":0.06476380238908828,"53":0.24522651537515913,"54":-0.07560748631136802,"55":-0.07856583259309852,"56":0.09753864857528063,"57":-0.03219071826064883,"58":-0.044481226842842336,"59":-0.0650082645380854,"60":0.043481960177988666,"61":-0.05356895969479419,"62":0.03376313421887671,"63":0.04622639882804092,"64":-0.02193469272517518,"65":-0.09738954063775727,"66":0.23470549771199936,"67":0.11833468106052934,"68":-0.0847271078996319,"69":-0.025176493947829767,"70":0.12107027420173852,"71":-0.09337109999239092,"72":-0.11499154416845103,"73":-0.13280813414489845,"74":0.015174166935109364,"75":0.2544273167545203,"76":-0.05270403040557884,"77":-0.0311344473894747,"78":-0.11254107318049163,"79":-0.17743880885646382,"80":0.1462880623248737,"81":0.05063934527177605,"82":0.03909179760897663,"83":-0.049428805080728486,"84":0.061007978312880864,"85":0.11163594316532229,"86":-0.09686754949658287,"87":0.1339062442876153,"88":0.042481004458249566,"89":-0.025694790473936052,"90":0.011326046195531594,"91":0.032025084942529106,"92":0.16095027705156123,"93":-0.03229044667337988,"94":0.1813857212820864,"95":0.07306712811201538,"96":-0.09759142006652972,"97":-0.05930658575495399,"98":0.03029007889059794,"99":-0.10479711580095638,"100":-0.03480655497249328,"101":0.1909146805010062,"102":0.03799656714319705,"103":0.19254673576491457,"104":0.027522920425020435,"105":0.07840689005108871,"106":0.08331726698831132,"107":-0.15386651312126462,"108":-0.05925862805878579,"109":0.02266840513899085,"110":-0.12547122794541088,"111":-0.04390407473379673,"112":-0.12570213548379203,"113":-0.08799227482119595,"114":-0.03177822702945862,"115":0.01238514032298986,"116":-0.1359935892397337,"117":-0.07452904428213901,"118":0.04218712499599732,"119":-0.041256391512447754,"120":-0.024796521349706335,"121":0.004596879962819799,"122":-0.027359441821788677,"123":-0.005071472168052336,"124":-0.14863199803507096,"125":0.17744666573400136}},{"sx":1,"sy":1,"depth":126,"w":{"0":-0.10519463327727713,"1":-0.1210240373289398,"2":0.023523764266736844,"3":-0.10618192252491618,"4":0.0767757696063736,"5":0.027251835810308527,"6":0.05947851892073418,"7":-0.06321503940993571,"8":-0.046304525652949305,"9":-0.012546741138164131,"10":0.07745323901141991,"11":0.12451936438136756,"12":0.10699016326301294,"13":-0.1611202905377825,"14":0.1748930699338257,"15":0.1357760159672776,"16":0.03775673278457703,"17":0.040964661378658236,"18":0.1588217783252275,"19":0.03558071983161857,"20":0.14313496722605168,"21":-0.006534031097393056,"22":-0.052706183929445094,"23":0.12139329400306963,"24":0.10039140930083636,"25":-0.06534183764851804,"26":0.02924618269930603,"27":-0.12420237282062375,"28":0.0021613349385723154,"29":0.07048769367361207,"30":-0.03853299047677492,"31":-0.1001439444843516,"32":-0.13416995371455853,"33":-0.0005462528885665644,"34":-0.01843281933854076,"35":-0.06103588604663356,"36":0.11277096069748777,"37":0.007875979187785806,"38":-0.056416637805494725,"39":0.0445492093159882,"40":-0.006784140133152671,"41":0.23000824712986645,"42":-0.15246828041262372,"43":-0.10588626190185982,"44":-0.043627717298573385,"45":-0.09354130424297886,"46":0.008138235844089582,"47":0.04633595581358097,"48":0.002044711089748149,"49":-0.11200107164533368,"50":-0.20357160622099574,"51":-0.08222786175319688,"52":-0.025698500588489645,"53":-0.006338180122124625,"54":-0.042815898811475406,"55":0.00016232664433363253,"56":0.047377767578854806,"57":0.05966685665471495,"58":0.005245900252835684,"59":-0.06802848115891502,"60":-0.005180527428450004,"61":-0.08827628720607893,"62":0.07450145131419499,"63":0.04527342396184982,"64":-0.02932679980401424,"65":-0.043365203822602186,"66":0.01412483097984146,"67":-0.03228856910161821,"68":0.03210095716017317,"69":0.01015300814720561,"70":-0.022258187357367603,"71":-0.03838434613477752,"72":0.05465714227027092,"73":0.04450932377994173,"74":0.108192786446734,"75":-0.06949660297093883,"76":-0.012014121402413671,"77":-0.08222810267437403,"78":0.06264182657556608,"79":-0.04318992674799583,"80":-0.14364794420107518,"81":0.02998564272413289,"82":0.04259397601347578,"83":0.0992344039004474,"84":-0.08594797764082757,"85":0.07315841135161821,"86":-0.015833869191488773,"87":-0.02037593788334724,"88":0.0701673922089203,"89":-0.04436484834507448,"90":-0.05627074800551493,"91":-0.05265308699410296,"92":-0.07616608841352662,"93":-0.00020418018026451275,"94":0.1598276431038789,"95":-0.028475304489777843,"96":-0.09654042757438269,"97":-0.0542338460392809,"98":-0.023727055565636996,"99":0.10946546197807576,"100":0.05200011669093843,"101":0.05582277086210238,"102":-0.05479226464723791,"103":-0.061338092888611855,"104":-0.05163882315803424,"105":-0.07201220648820034,"106":0.07279756254532667,"107":-0.10240868438464606,"108":-0.028230882682267366,"109":-0.046074347901694734,"110":-0.005653271542567922,"111":0.26584917441736716,"112":0.11197961547038142,"113":-0.07450271731127556,"114":-0.020416208632504117,"115":-0.012554183802377716,"116":-0.11150784870405779,"117":-0.14320815377440788,"118":0.17269044650072943,"119":0.11408416082956507,"120":0.03521031609383205,"121":-0.1547927212242631,"122":-0.0788412320893962,"123":-0.0328389467470738,"124":0.08793915939247879,"125":0.09480111961594018}},{"sx":1,"sy":1,"depth":126,"w":{"0":-0.2287760872262347,"1":-0.05091743928822946,"2":-0.027611940601412685,"3":0.06707618615621772,"4":0.11924183178654059,"5":0.02070076685478849,"6":0.09744630237820771,"7":-0.059224974841518,"8":-0.0536774778124588,"9":0.10137206415599279,"10":0.07351988026776833,"11":0.03067852835290591,"12":0.12269355675805009,"13":0.08755149648140383,"14":-0.09494054066268481,"15":0.20783156933012598,"16":-0.014107632263878763,"17":0.013622682804483546,"18":0.10647627733989953,"19":0.046491786215964226,"20":-0.0800920396663231,"21":-0.0870407988325594,"22":-0.014399081635013886,"23":0.009065189464424568,"24":-0.04838626081375608,"25":-0.04941991414088465,"26":-0.01675308777850277,"27":-0.02044039349635877,"28":-0.0387234011973343,"29":-0.06140084507279809,"30":0.06326607711618744,"31":-0.05443802741695033,"32":0.12197071825125061,"33":-0.0384476575838453,"34":-0.11692146168849467,"35":-0.06878013588356642,"36":-0.06088029361147268,"37":-0.06615826347232422,"38":-0.03675579714782074,"39":0.02747963264590736,"40":-0.01330987496799153,"41":-0.08533183029751083,"42":-0.11510891479004956,"43":0.014249770363726924,"44":-0.020240234712456447,"45":0.09617274869566479,"46":0.22499804462571887,"47":-0.11041825407142787,"48":-0.05664271709891636,"49":-0.2540998970894812,"50":-0.18568325871372376,"51":-0.033027180776726825,"52":0.09680516097943552,"53":0.10546362101478371,"54":0.09174367333904287,"55":-0.06957030771761374,"56":-0.07324256448104342,"57":0.05958844908992565,"58":0.021253515458917138,"59":0.0909500880628114,"60":-0.03707083859213011,"61":0.0497480273549228,"62":-0.027163715290992846,"63":-0.11225797729436554,"64":0.06288329582561467,"65":-0.07973343091679028,"66":0.018285215599407847,"67":0.03358051749997745,"68":-0.05071001758519592,"69":-0.08664827371135107,"70":-0.04742979110252956,"71":-0.02400060718628487,"72":-0.12612872348961732,"73":-0.017533205962205495,"74":-0.07583675856132498,"75":0.031171651388996125,"76":0.13460308166728638,"77":0.046039244210019155,"78":0.1423482077324294,"79":-0.017766984881353563,"80":-0.007234356523970358,"81":0.024764769808752567,"82":-0.044148992206297415,"83":0.06493435270353637,"84":-0.045532602770449654,"85":-0.0046803499546940516,"86":-0.07781240175557404,"87":-0.03643632138490315,"88":0.2644423543171685,"89":-0.08914239088364022,"90":0.018250567470247073,"91":-0.032028494647757706,"92":0.07755388180813014,"93":0.11144176378832098,"94":0.1595898969518985,"95":0.04348061453439015,"96":0.13887418707617236,"97":0.01062499595895551,"98":0.0219107197277079,"99":-0.05680002707490908,"100":-0.020026016695488414,"101":0.07656923669712497,"102":-0.006059900000511008,"103":-0.048454673893761895,"104":0.08359268631185877,"105":0.10621076385337631,"106":0.02321169341955108,"107":-0.04237713449196344,"108":-0.0170203973675285,"109":0.037701315359806475,"110":-0.06313632247029215,"111":-0.17775931359662142,"112":0.14251436718996274,"113":0.08010167567088704,"114":-0.033239855963690945,"115":-0.030624878099907892,"116":0.004217100248046503,"117":0.12428562557299166,"118":0.015947358872636472,"119":0.002236704982348971,"120":0.1630158008756911,"121":0.03278351623378856,"122":-0.18148563506386314,"123":0.16383541441347263,"124":-0.1185665490551632,"125":-0.10200329150653878}},{"sx":1,"sy":1,"depth":126,"w":{"0":-0.04861139955458465,"1":-0.08149729335460877,"2":-0.07140850123781296,"3":0.03316957966811859,"4":-0.02285070022304841,"5":0.06498366415648243,"6":0.005785070096936983,"7":0.05136664206483519,"8":-0.08034264583894504,"9":-0.15961513926660584,"10":0.026787112311460262,"11":0.1088090083048525,"12":-0.12226677911235892,"13":-0.05151778606875341,"14":0.14194130267825497,"15":0.22316671258624662,"16":-0.04920364087303164,"17":-0.0268508614994431,"18":-0.0038987155000508185,"19":0.09659179236970247,"20":0.10723429009351723,"21":0.014254349302477813,"22":0.1257819620353505,"23":-0.02173063150281085,"24":0.011530227035474783,"25":-0.2112819594309254,"26":-0.03319225120552506,"27":0.03735590990944872,"28":-0.009249759296159642,"29":0.06201980860014015,"30":0.05926772439575242,"31":0.10088074191146967,"32":-0.02810430251934917,"33":-0.11646949733257264,"34":0.046383983899454966,"35":0.11292413838474973,"36":0.11654217520205552,"37":0.16192779469536625,"38":0.13399266280326408,"39":-0.05322023346253865,"40":-0.2195302691011429,"41":-0.03925640768887481,"42":-0.038403928719006455,"43":0.18481254308111564,"44":0.12629090560992676,"45":0.20550932532428323,"46":-0.047740826421635824,"47":0.019025406739541402,"48":0.08038484114042507,"49":0.006757556438377159,"50":-0.08523338480085715,"51":0.16409172826052731,"52":0.08672168753361865,"53":-0.10427455468444928,"54":-0.03131378962136511,"55":-0.05150842549170376,"56":0.07068609777325344,"57":0.0801546816361622,"58":0.04864688216693985,"59":0.013279850304492847,"60":-0.11047504646710202,"61":-0.2359223793908614,"62":0.02032007814522237,"63":0.020319024603933856,"64":0.03494460158050425,"65":0.25275114230073675,"66":0.02909122709426422,"67":-0.10089020692328618,"68":0.0010780945491429522,"69":-0.020329327530217083,"70":-0.14505625093184057,"71":-0.09814621630562435,"72":0.030098200731837776,"73":0.08454423906140363,"74":-0.0787936570387553,"75":-0.01016099172752906,"76":0.06370515742183631,"77":0.03815002020580565,"78":0.050577580865335696,"79":0.04965961377443028,"80":0.19332834957191455,"81":0.1139898864764991,"82":-0.04660622379296073,"83":-0.03629773138883642,"84":-0.05827024086497609,"85":0.007179929468234671,"86":0.0953800448935237,"87":0.3617393365389002,"88":0.02255337013245278,"89":-0.088036521587971,"90":-0.10035553541623994,"91":-0.1065700257201017,"92":-0.04699237465659763,"93":0.02580698820786353,"94":0.15819144757401088,"95":0.06730755802032312,"96":0.1596837314676348,"97":0.08824758817543722,"98":0.06295294644458177,"99":-0.010265970607528652,"100":0.06988728614454259,"101":0.36220199383281065,"102":-0.2769700312859232,"103":-0.023750850012988076,"104":0.02831929648519226,"105":0.0270282502753734,"106":0.06558879335019249,"107":0.1276131634068434,"108":-0.01646982836677486,"109":0.07386306257896494,"110":-0.02407152622759022,"111":-0.2231447217825484,"112":0.2253543218611485,"113":0.03262210463201928,"114":0.08578637812575599,"115":-0.03452990408662183,"116":-0.0882454494128336,"117":0.06136087393717382,"118":-0.13073152100702368,"119":-0.1147947553988925,"120":0.10838349030615929,"121":0.20723565393968818,"122":-0.14565294467456877,"123":-0.20487864119546073,"124":0.08482845608008924,"125":0.10948014612237947}},{"sx":1,"sy":1,"depth":126,"w":{"0":-0.023972884057915537,"1":-0.05351679825870926,"2":0.2029786150616309,"3":-0.08459105272763273,"4":0.07537265140389689,"5":-0.07538582093174312,"6":0.10410935448934269,"7":-0.004603783836556466,"8":0.16456194503740124,"9":0.0891346732110992,"10":-0.09818796365057383,"11":0.2531893921137969,"12":-0.03551236669413352,"13":-0.06812201965249158,"14":-0.0614422508876476,"15":-0.05372190999005978,"16":0.1861645267853499,"17":-0.102649028570685,"18":0.11674656991733175,"19":-0.010691680923515013,"20":0.09968120727542347,"21":-0.037166264140276906,"22":0.060396709412288814,"23":0.028645170100472545,"24":0.05632711598749799,"25":-0.14375066115103613,"26":0.17059122647216202,"27":-0.08044280885826008,"28":0.08216951916401419,"29":-0.0045528088901434505,"30":0.03477235887301626,"31":-0.03481749092238171,"32":0.13108065576532738,"33":-0.08048249771923316,"34":0.07683892346580849,"35":-0.05392170106730334,"36":0.07571811683975248,"37":-0.11206931402784488,"38":0.1445956976003949,"39":0.00916564239665064,"40":-0.16289630222939794,"41":-0.03986737938752516,"42":-0.0320100676288398,"43":0.06330258623883597,"44":0.07911664541991674,"45":0.040345132575852254,"46":-0.17288958462096787,"47":0.033031230860322565,"48":0.05503677078836831,"49":-0.0111480040446222,"50":-0.13153983119516557,"51":-0.16929966450781667,"52":-0.0913664146125859,"53":-0.14733825968856698,"54":-0.07163299542512866,"55":0.010075757087445326,"56":0.02948139793291546,"57":0.03454530113515648,"58":0.005634553201051328,"59":0.043622102304571746,"60":-0.022594826070586105,"61":0.08891739094337077,"62":0.07857883220300302,"63":0.053065912683978984,"64":-0.034393307447976945,"65":-0.14911289577667922,"66":0.05261838374288315,"67":-0.09967937422168387,"68":-0.07838043954760436,"69":0.05320866400340686,"70":-0.19849827991914165,"71":0.06161714229483568,"72":0.09580219096220775,"73":0.08298432517538563,"74":-0.23130984717829706,"75":-0.005680528208626236,"76":0.03716613994229812,"77":0.04959291418081452,"78":-0.03384822834684608,"79":0.11595740810943063,"80":0.027662133189493652,"81":-0.04346209663992858,"82":0.1939696810756616,"83":0.08295751973284946,"84":0.07824597135460507,"85":-0.06366680625696176,"86":0.041792303849658145,"87":0.1752465821824601,"88":-0.14664583476858886,"89":-0.01538569679132383,"90":0.10885272491801339,"91":-0.031086407444067297,"92":-0.1294932156346508,"93":-0.014610569121367612,"94":0.01627132875220777,"95":0.07364652849026582,"96":-0.01723426371620099,"97":-0.12657481167705995,"98":0.0019631210557870308,"99":-0.11013288896501974,"100":0.09066606541071269,"101":0.07575880385418082,"102":0.2238239332028478,"103":-0.007836926343445585,"104":0.15527903014053154,"105":-0.16984453225284735,"106":-0.0655851626508283,"107":-0.08694347713069966,"108":-0.05294502329804276,"109":0.04928439212173278,"110":-0.17844146490201104,"111":0.006691929089512421,"112":0.05891071473491845,"113":-0.0003335946716508403,"114":-0.014741866376422552,"115":-0.08481584199296688,"116":-0.16969255399620575,"117":0.06877479351498908,"118":0.031347133575796056,"119":-0.20442593080830107,"120":-0.02128015739963057,"121":-0.029219667910654466,"122":-0.10895647329302825,"123":0.061591059172021435,"124":0.08968758817714631,"125":-0.058791413512623784}},{"sx":1,"sy":1,"depth":126,"w":{"0":0.014753254219724536,"1":0.05910813083238781,"2":-0.021947282516519614,"3":-0.059425240381762945,"4":-0.040893276795075914,"5":0.0975574302139205,"6":-0.05977550097040614,"7":-0.08488383826729116,"8":-0.13887927035646006,"9":-0.10795913998322555,"10":0.08147255969448419,"11":-0.0421190313805608,"12":0.21303447810940115,"13":-0.04788211391178372,"14":-0.041787574882998064,"15":0.012317983777422731,"16":0.0999812352911028,"17":0.06540862269930454,"18":0.10012665718854086,"19":-0.05497861937269937,"20":0.009939242292248358,"21":-0.008986911117573918,"22":-0.027493378627793774,"23":-0.02234562806144098,"24":-0.12359476465086784,"25":0.0016163166584675795,"26":0.08773887894690134,"27":-0.07905358772559487,"28":-0.04347540036087757,"29":0.10932912202786965,"30":0.12722545027802257,"31":-0.038829325355785885,"32":-0.047997462271880946,"33":0.07365263973098936,"34":-0.06733105660898614,"35":-0.2936178974758619,"36":-0.0193149233890898,"37":-0.03849520700893781,"38":-0.0009095628985080805,"39":0.08409971719041079,"40":-0.058823219672353634,"41":-0.03717362594563084,"42":-0.03164330335582889,"43":0.16193033714292676,"44":-0.0479774546864577,"45":-0.18845866312071005,"46":-0.07914043469913619,"47":-0.04405932975751893,"48":-0.05891081201695351,"49":-0.03671770347908751,"50":0.0008860964904315843,"51":0.050072087659691074,"52":-0.05533512636278508,"53":-0.04767131370330995,"54":0.0051604887044451216,"55":-0.037781119620469664,"56":0.04699944012281677,"57":0.06608615965970913,"58":0.0974728533091494,"59":-0.01717252254189277,"60":-0.017224038825493795,"61":-0.055443024786539785,"62":0.05374352268696541,"63":0.16788258348097718,"64":-0.021249146840052493,"65":0.14588240317830636,"66":0.0728806268441683,"67":-0.01173933102061901,"68":-0.10028322014741803,"69":-0.10908016597631678,"70":-0.0469640854033531,"71":0.045063873057470595,"72":0.18626126993819286,"73":-0.044375141276252174,"74":0.05164256783146419,"75":-0.07374021262607888,"76":0.10486554029499316,"77":-0.06301607233160479,"78":0.048617770852154865,"79":0.052794130043409215,"80":0.060558426140544686,"81":0.05669474465722807,"82":0.09474938916899543,"83":-0.005550652984578993,"84":0.18197108414401728,"85":-0.012265190604011123,"86":-0.014341827454686885,"87":0.019505547328528553,"88":0.018973459416857887,"89":-0.028336033716532604,"90":0.16659874502606925,"91":0.15349426140765096,"92":-0.10778234700989746,"93":0.010393592253265025,"94":0.04969675374467623,"95":0.20569587732703623,"96":-0.05629057614190297,"97":-0.022770610502178653,"98":-0.06929518223338627,"99":0.16600054869279787,"100":0.08154589574353772,"101":0.018348535589734555,"102":-0.04072068993116604,"103":0.08192296579506549,"104":0.013644748197359651,"105":-0.1496953755345626,"106":-0.08365123991445389,"107":-0.08993119255087119,"108":-0.03059110533120228,"109":-0.06700862352903258,"110":0.1499796900626349,"111":-0.06736144485828344,"112":-0.055330057781327956,"113":-0.07008827249678994,"114":-0.01576310607944278,"115":0.13035925559951386,"116":-0.006340448694420202,"117":-0.22201984641486222,"118":-0.08739749383092109,"119":-0.16148694225565313,"120":-0.1974759592738713,"121":-0.2216444761934277,"122":0.033643062879362466,"123":-0.003952013934959963,"124":-0.027738651420338573,"125":0.04669619559942557}},{"sx":1,"sy":1,"depth":126,"w":{"0":0.11983276420392658,"1":-0.031124896193507372,"2":0.03200256566990916,"3":-0.14152494974847257,"4":0.05135268468557725,"5":0.03605933673718134,"6":-0.023021148293108157,"7":0.03185443090396618,"8":-0.13409441385512394,"9":-0.07749913558565849,"10":0.14537896921758695,"11":0.16239856976252848,"12":0.20215972703505156,"13":-0.06416058291118822,"14":0.1385688898968882,"15":-0.08478984537035827,"16":0.0047577224587082015,"17":-0.14499432948070257,"18":0.019934059809061065,"19":0.036506021095060896,"20":0.06137550640026209,"21":0.030659424501238913,"22":-0.01135392757790728,"23":-0.0609352783622355,"24":-0.20358865008621363,"25":0.04682319134333452,"26":-0.09009205994967649,"27":0.007784919183644619,"28":0.033281113563098014,"29":-0.03569083601679002,"30":0.07842220094316936,"31":0.0698884683451559,"32":0.05678674389482189,"33":-0.0013316918514907682,"34":0.0369006606207596,"35":0.019689969416334434,"36":0.052807764444957016,"37":-0.09892648344834067,"38":-0.06621385062228079,"39":0.08384544863924731,"40":-0.05731583934340307,"41":0.09612114527974566,"42":0.07075827024772945,"43":0.0015135340798449056,"44":-0.03641997276573883,"45":0.03296875621438961,"46":-0.11067568073498411,"47":0.07882966735860955,"48":0.011990612527926226,"49":0.12227949610351183,"50":0.11323876034841203,"51":-0.0899384227358846,"52":-0.05239181618789402,"53":0.15788912867918678,"54":0.03753914927069656,"55":-0.11745985828340864,"56":0.03218989473355806,"57":0.03281585435350568,"58":-0.06752644429791894,"59":-0.1666255456144414,"60":0.037011349613973454,"61":0.027901991912897817,"62":-0.0016060847329642637,"63":-0.08470704207504381,"64":-0.06486754111448238,"65":-0.039033401141796265,"66":0.02812254553110314,"67":0.09388207231913819,"68":0.1230434038218564,"69":-0.009065472818299603,"70":-0.03629445610023861,"71":0.07515043981388725,"72":-0.02982366184932629,"73":0.13318874102039066,"74":0.12165164034094911,"75":-0.008707257685732965,"76":-0.028597189971795587,"77":0.1173790479411668,"78":0.16656789617031872,"79":-0.07384189818593424,"80":-0.03686125785369458,"81":0.3077191104226761,"82":-0.24177936776684328,"83":0.035985321911860865,"84":0.04176757652426129,"85":0.11008603224151099,"86":0.042796633556638014,"87":-0.042395213037033856,"88":0.23561717388362763,"89":-0.013480194817685616,"90":0.11273221881843061,"91":0.04414687544684029,"92":-0.055730268655074,"93":0.02309716085410218,"94":-0.12069963789201311,"95":0.2679070233103352,"96":0.04960737413928238,"97":0.013604276290768078,"98":-0.004354793737720007,"99":0.08155424616485529,"100":-0.015143046217520311,"101":-0.1098330644161088,"102":0.03659492823471129,"103":-0.020622121538678175,"104":-0.11247471637893511,"105":0.06381702395304989,"106":-0.037648032791978,"107":0.23630031393553283,"108":-0.00511999779822191,"109":0.29275819294222555,"110":-0.022532821247015663,"111":0.023003165197267778,"112":0.024345862156910553,"113":0.11300681068381346,"114":0.2082645827604269,"115":0.031618746571480186,"116":0.18330224673922105,"117":0.06395362145189842,"118":-0.04108008225040222,"119":0.10561622133196104,"120":0.11393321883420571,"121":0.13710241161814124,"122":-0.031010184129915883,"123":0.28765559996327406,"124":-0.09865831570475958,"125":0.05522620438244097}},{"sx":1,"sy":1,"depth":126,"w":{"0":-0.003485236234684655,"1":0.1289848598814432,"2":-0.056245070392370186,"3":-0.09072118416540942,"4":0.029354081522597344,"5":-0.015519855177332054,"6":0.03199633628161556,"7":0.015077924057283938,"8":-0.1357859678996171,"9":-0.17303269857527634,"10":-0.05432144776458707,"11":0.07451363543345366,"12":0.09020693792097399,"13":-0.0431226891547076,"14":0.0037695620221607877,"15":-0.0012756539207445577,"16":0.003274518138226865,"17":0.06506191904087108,"18":0.012025532535059036,"19":-0.03843276154804039,"20":-0.1133616475429616,"21":0.015286355973278746,"22":-0.19612151915649295,"23":-0.012174874203880687,"24":0.00380140640412602,"25":-0.08419738261527947,"26":0.011875645368291245,"27":0.207982255248751,"28":-0.15608139776339447,"29":0.010087949780292087,"30":0.1570689027904243,"31":-0.011368299025644584,"32":-0.05688491522978922,"33":0.048872304148099295,"34":0.04677072945776604,"35":0.1562492883546379,"36":-0.04413618355105055,"37":-0.0019833092151195593,"38":0.04667891817182572,"39":-0.009009826235422732,"40":0.02478344681415429,"41":-0.016032967043173356,"42":0.07380969289264336,"43":0.05698062140594445,"44":0.02297487650307189,"45":-0.09251408479707735,"46":-0.02213992088932064,"47":0.0341167688510977,"48":0.047796052076877156,"49":0.09540300944500935,"50":0.01371521334142008,"51":-0.04073146713003502,"52":0.15535407481919294,"53":-0.014138213503775974,"54":0.024421254483088843,"55":-0.08557455323797628,"56":-0.004383169630839877,"57":0.11603269172469101,"58":0.010260830908742104,"59":0.10120256397051634,"60":0.05062339780826592,"61":-0.05099024255967666,"62":-0.021328798688741053,"63":0.14122049207646253,"64":-0.09857639050370558,"65":0.014809219432911264,"66":-0.04509041714110346,"67":0.07371617257507718,"68":-0.01576706615166529,"69":-0.07432392141140687,"70":-0.05684819160724912,"71":-0.13722215411552444,"72":-0.08999041519122579,"73":0.05231121242611994,"74":0.09587727427896402,"75":0.015523037577938782,"76":-0.023799515461949847,"77":-0.047029823234165116,"78":0.009623467370893458,"79":0.062459536218225975,"80":-0.08432796011423749,"81":0.024560662793907086,"82":-0.025695397277206832,"83":-0.09985952655493979,"84":0.036482775702042176,"85":0.05610301944746041,"86":-0.15882304043837678,"87":-0.1655688625206393,"88":0.1617072801914758,"89":0.14223391386767303,"90":-0.10203142656523767,"91":0.013797535751169472,"92":0.07621778145344979,"93":-0.08491537488623813,"94":-0.19258397699643995,"95":-0.044523377502637684,"96":0.12382998703251664,"97":0.18826592464497505,"98":-0.019207947462801987,"99":-0.0036600959347842877,"100":-0.06858998967629237,"101":-0.26930881496991177,"102":-0.24742587799861293,"103":-0.2004300441946689,"104":0.047916920105666755,"105":0.08982475677338324,"106":0.2206416371033004,"107":-0.17465537129856767,"108":0.07065522090298591,"109":-0.14436643286196427,"110":-0.03782929232935479,"111":0.04356507053178612,"112":0.04881620247052246,"113":-0.09737867535454899,"114":0.006102071896302474,"115":0.20763552801408847,"116":-0.19755397889903814,"117":-0.03799301525516345,"118":-0.04477141039592004,"119":0.024117561371552142,"120":-0.12212504056470214,"121":0.003499359442210002,"122":0.018525656882593267,"123":0.0026710538056453664,"124":-0.06678639777247074,"125":0.015770652306820985}},{"sx":1,"sy":1,"depth":126,"w":{"0":0.02342346989145693,"1":0.10889116209375106,"2":-0.044458542646343926,"3":-0.008187209020004067,"4":-0.06481986231443287,"5":-0.029137937183656176,"6":-0.073356138988228,"7":-0.01525295727844566,"8":0.010963393625143024,"9":0.09102862981647446,"10":0.05626845588877253,"11":0.10144406241404806,"12":0.029030467032985053,"13":0.040926064946035706,"14":0.03189242570497755,"15":-0.04488589709490227,"16":0.034004457262248364,"17":-0.0762613571720644,"18":0.007737531005815904,"19":-0.14661462962876373,"20":-0.03015769329040155,"21":-0.0642234607693149,"22":0.0905518224051289,"23":0.09647148890649149,"24":-0.13543711488876878,"25":-0.06269400904489071,"26":0.07719767051021566,"27":-0.015596796813997895,"28":-0.03667195060129846,"29":-0.12690615009118636,"30":0.052070093917406086,"31":-0.01831261754249721,"32":-0.1432258502544131,"33":0.00831373337618697,"34":-0.13151407288608918,"35":0.05636489261510875,"36":0.1929377542151851,"37":-0.03145691970987152,"38":-0.054608850747422145,"39":0.09589035390521976,"40":0.12196812076977637,"41":-0.027247717522957182,"42":0.05130957672103649,"43":0.06469308201828762,"44":-0.09445257681322265,"45":0.07454294520678909,"46":0.02581040720761742,"47":-0.18545328395429045,"48":0.03674257642642907,"49":0.016389576731154393,"50":0.00592675539602081,"51":-0.09458456214827177,"52":-0.06317030317704313,"53":-0.04352356630666583,"54":-0.16528907123635767,"55":0.036249672202653044,"56":-0.0570251585978552,"57":0.04316203558629035,"58":-0.10844827949307756,"59":-0.005994465216813249,"60":0.08831494533939899,"61":0.057219038085788876,"62":-0.05016482543976194,"63":0.1052956910354518,"64":0.1420491815608353,"65":0.02437525740708162,"66":0.08549627809079687,"67":0.08465473372166271,"68":-0.03739532087473452,"69":-0.0996594325946194,"70":0.1291657347350114,"71":-0.003232526593676185,"72":0.09261953619883963,"73":-0.04534912572496218,"74":-0.12280500702944075,"75":-0.022301461298725993,"76":-0.019511126321938705,"77":-0.006877490970591378,"78":-0.0009517085759834919,"79":0.14499798534384364,"80":0.021816591023877334,"81":-0.02495069830707669,"82":-0.1179549549447874,"83":-0.11315319930104395,"84":-0.1750204855599106,"85":-0.060088184070009716,"86":-0.051919297345912004,"87":-0.19993363044605383,"88":0.1233409724318056,"89":0.2171357036066555,"90":-0.09667027499896805,"91":-0.042936199236213314,"92":0.08951892212237539,"93":-0.0011951073134707248,"94":-0.06865211494771854,"95":-0.12028265785101035,"96":0.0912013026746931,"97":0.0917114592445417,"98":0.05467388406198722,"99":0.044777712596277996,"100":0.22970893395077147,"101":0.04408518824482235,"102":0.07978662434584388,"103":-0.13818534136263289,"104":-0.08091254122957617,"105":0.1344686104659647,"106":0.1643203915953728,"107":0.15600952039193497,"108":-0.17684231734990236,"109":-0.10989211717572187,"110":0.0695603537417576,"111":-0.058296921333527055,"112":0.009945585191646856,"113":0.022914350077183916,"114":0.11411169647728604,"115":0.03986697875494661,"116":-0.1468455139732545,"117":-0.13326168418427597,"118":-0.0977718577444089,"119":-0.18072781976668173,"120":-0.02592687836790256,"121":-0.14651286089747875,"122":0.15400696415192514,"123":0.05154568225694428,"124":-0.0604367650656936,"125":-0.04902018382112287}},{"sx":1,"sy":1,"depth":126,"w":{"0":0.03332844862614239,"1":-0.005008920989751613,"2":0.016680921652113448,"3":0.1466172272869332,"4":0.03207367591041669,"5":0.05107591144874004,"6":-0.07791240878611569,"7":-0.0604614306100826,"8":0.023439131982887742,"9":-0.0015735417783702874,"10":0.16218099071625477,"11":0.01733198538486478,"12":-0.03346013428955738,"13":-0.12886430969893065,"14":-0.0731715284195952,"15":-0.0329337395226525,"16":-0.03537225808516384,"17":0.09277047324397833,"18":0.20626113858961187,"19":0.11042864661023696,"20":0.06064297089280034,"21":-0.051601176494892244,"22":0.024336460426172934,"23":0.017725114528323708,"24":-0.020948374258842873,"25":0.22390282545172718,"26":-0.05137048758828671,"27":0.07041496490735566,"28":-0.10168961221017848,"29":-0.05029179313980668,"30":0.25468229857695474,"31":0.07926558475326842,"32":0.06353368533361876,"33":0.010686778016769835,"34":-0.05029430783583181,"35":0.0194994748642461,"36":-0.010321115570879228,"37":0.101171933141785,"38":0.1294284390656511,"39":0.11353288588497676,"40":-0.08901114125552059,"41":-0.09841402328106574,"42":-0.07740377333735932,"43":0.051642206027360874,"44":0.11711310110903192,"45":0.08730752943899722,"46":0.019495291145426828,"47":-0.1322745024853531,"48":-0.04651787908343501,"49":0.0014028755715731684,"50":0.16109677093207253,"51":-0.21101448326859223,"52":0.04701615477726039,"53":0.03261432722246516,"54":0.0802165090129087,"55":-0.060830673729315644,"56":-0.10613019923303152,"57":-0.034679300449287735,"58":0.03967810653081347,"59":0.20215491473038533,"60":-0.02690405131919694,"61":-0.10554464175379674,"62":-0.0012794057823039267,"63":0.016448390196686005,"64":-0.007524757059336684,"65":0.15508195434848068,"66":0.09501517174218935,"67":0.1881404591930968,"68":0.14371919001639308,"69":-0.09416596179823633,"70":-0.10586986005399902,"71":-0.03195150251913847,"72":0.16464424111729276,"73":0.034122762084571094,"74":0.10854401299782997,"75":0.058995479107040595,"76":0.013422354454298102,"77":0.01439020309693717,"78":0.03470777122879792,"79":-0.07850194116703527,"80":0.44093160910659235,"81":-0.015703230308126592,"82":0.03094715739534516,"83":-0.013991850258100484,"84":0.011980835846105244,"85":-0.009180656743296536,"86":0.0006578416511524267,"87":0.39403434377743246,"88":0.07190525038209489,"89":-0.037502266055800475,"90":-0.07344463620224435,"91":0.0045615744931320375,"92":-0.02516133957175424,"93":0.028184981260953375,"94":0.3002724442249347,"95":-0.019427424159510168,"96":-0.002821423112594137,"97":-0.0006985039058687179,"98":-0.03430951413610693,"99":-0.2143260661270349,"100":-0.1664452540597659,"101":0.3755559888058718,"102":0.06084193224366149,"103":0.09749696444098192,"104":-0.09454274170288934,"105":0.03813440493977275,"106":-0.17889319061149273,"107":0.07031416794692674,"108":-0.17022238090432007,"109":0.06818023249924472,"110":-0.1883752863709279,"111":-0.09232740312981103,"112":0.17697310213257975,"113":-0.066902189054451,"114":-0.03202023744518302,"115":-0.17419646962048965,"116":0.1636959229940452,"117":-0.012443588034147846,"118":0.010660641609269125,"119":-0.019314778028664225,"120":0.1617451085192662,"121":-0.0344054185364767,"122":-0.0937878552530926,"123":0.13373916956853307,"124":-0.031025876446016204,"125":0.006893783002707133}},{"sx":1,"sy":1,"depth":126,"w":{"0":-0.0756890762016095,"1":0.032572182390657234,"2":0.08795964019432044,"3":0.05676116997567463,"4":0.17116533032419096,"5":0.06225752250361166,"6":0.01498307715622278,"7":-0.015705665583184154,"8":-0.11608658972615997,"9":-0.06886157146187828,"10":0.08033727516700075,"11":0.013566250300301601,"12":-0.05192404459236952,"13":0.05245025798011569,"14":0.05269649698681322,"15":-0.11236418527615222,"16":0.020843721438960613,"17":0.08280420132999977,"18":0.12079584178889313,"19":-0.11639007939312149,"20":-0.05342701622359175,"21":-0.02939174051644073,"22":-0.14964738848841178,"23":0.07523585778068023,"24":-0.16253200014107302,"25":-0.004913810289680275,"26":-0.05852307412234686,"27":0.004097738527118107,"28":0.023896893540065342,"29":0.0431764475534462,"30":-0.19903051592225693,"31":-0.030528347064531548,"32":0.04988721838513632,"33":0.07305783621623331,"34":0.11028104525393197,"35":0.008114376522890755,"36":-0.01308977181234371,"37":0.04721546060936477,"38":-0.025610149231666827,"39":-0.04471466936308076,"40":-0.14230247939383966,"41":0.09615548868253382,"42":0.10465009941278004,"43":0.09233515629485561,"44":-0.03876204564022856,"45":0.049084623883738056,"46":0.09823305268326868,"47":-0.06197339648681549,"48":-0.06351456950377042,"49":-0.14974508644346074,"50":-0.030598658208787103,"51":0.056352661734535306,"52":-0.03642719879705078,"53":0.0925756381467393,"54":-0.02003886749058725,"55":-0.048502917916745124,"56":0.017917825052141997,"57":0.0972368788983775,"58":-0.07862962732437685,"59":-0.004458009696629533,"60":0.037063169998456075,"61":0.16279541483790363,"62":0.04130222064959791,"63":-0.076905973280205,"64":-0.015882777105008777,"65":0.06548301615268634,"66":-0.08325181252201179,"67":0.07316721150971797,"68":0.0464870483340228,"69":-0.06657383520132162,"70":0.04950283299711497,"71":-0.12436545085940368,"72":-0.029370172959759074,"73":-0.06133848628091972,"74":0.13594195540836057,"75":0.0773834383990249,"76":-0.010985941756592928,"77":-0.05327689829495275,"78":0.05873945648812137,"79":0.07349690399059788,"80":0.10471420105177597,"81":0.03727238287196868,"82":-0.1914893413878166,"83":0.035733170998895884,"84":0.02233261639156791,"85":-0.042860362709465034,"86":-0.0076134863663786705,"87":-0.13859028910537058,"88":0.22781354750349345,"89":0.12779367282493356,"90":0.13624124232952772,"91":-0.018766914430191097,"92":-0.05221342503299884,"93":0.06760261684061356,"94":-0.03735062388201707,"95":0.09705299804491084,"96":0.06320364685471758,"97":0.19710215903068318,"98":-0.11195905615796334,"99":-0.15704293643566083,"100":-0.12255561542582959,"101":0.03187828206212815,"102":0.03050044806439678,"103":-0.09635071193868146,"104":-0.0339576180470097,"105":-0.08560341508833613,"106":-0.07861276790568648,"107":-0.19257118720034028,"108":-0.1709496861551073,"109":0.13717386622750136,"110":-0.010167510040931516,"111":0.06435052417995604,"112":-0.055528257975391404,"113":-0.05286722557975116,"114":-0.016953480644163462,"115":-0.08719386284755593,"116":0.1964079085620781,"117":0.16637089506536495,"118":0.08728969964697589,"119":-0.017426132566299952,"120":-0.049746384187654154,"121":-0.11745939609368052,"122":0.11992451136786339,"123":0.32127270269398833,"124":-0.0373614028625158,"125":0.022805127055419292}},{"sx":1,"sy":1,"depth":126,"w":{"0":0.03655975561115564,"1":-0.04712277566849596,"2":-0.1713923812727596,"3":-0.11437483048380355,"4":0.06138961045949124,"5":0.09159928076235481,"6":-0.14097001773527695,"7":0.15599901773668667,"8":-0.027067067137283282,"9":-0.017158733903158706,"10":0.09761486935234859,"11":-0.12385342273204661,"12":-0.09134115759346315,"13":-0.05439102010274515,"14":0.09882803921454268,"15":-0.1628465308304697,"16":-0.13402524445392616,"17":0.1119124616242698,"18":-0.06535191179441038,"19":-0.11479669565829463,"20":0.07876440317167638,"21":-0.06545516963263828,"22":0.05884971013741784,"23":-0.09363089584255409,"24":-0.01726912837605822,"25":0.1298752407870772,"26":-0.04734668214572669,"27":-0.14376195267444541,"28":0.07960925342042316,"29":-0.0061297254065023525,"30":-0.04990577387487111,"31":0.05941044924277308,"32":-0.20099608862841717,"33":0.22274343897435023,"34":-0.03123648232333786,"35":0.048563022618071015,"36":0.007566057397893006,"37":-0.029257694096022982,"38":-0.0029901108333315303,"39":-0.018037321852173077,"40":0.19136584504812373,"41":0.11436291933802711,"42":-0.0890754873312533,"43":-0.01103391651310082,"44":-0.0671052237114233,"45":0.09566832754800345,"46":-0.01414416452492055,"47":0.051980046824197726,"48":-0.020430153024287627,"49":-0.053727415119336853,"50":0.09175473249283686,"51":0.03662928214681343,"52":0.01218077275027384,"53":0.07505098839573993,"54":0.04137454698984667,"55":0.026003402908666116,"56":0.14421660768913186,"57":-0.02599710713986355,"58":-0.05657819507259254,"59":0.01139536246615583,"60":-0.07474833539206782,"61":-0.07266122728405006,"62":-0.10243067674422332,"63":-0.056939808943014265,"64":-0.0716568867386484,"65":0.03244545120027464,"66":0.07562342992568039,"67":0.0909167364616236,"68":0.14372612692660655,"69":0.009851282668032549,"70":-0.031766022937392537,"71":0.013377364186395098,"72":0.13633004410251243,"73":0.1139752996706273,"74":-0.026401770313079123,"75":-0.0022237123315312873,"76":-0.045653805490006034,"77":0.10289489428599981,"78":0.016331326577929624,"79":0.22274241853631338,"80":0.04232024822027494,"81":-0.07587837109857416,"82":0.07677905113551574,"83":0.01982469248323493,"84":-0.006905914530590914,"85":-0.07043514381832841,"86":0.03014157598079629,"87":-0.09553199773086476,"88":-0.0066195292205371336,"89":0.16247179814503537,"90":-0.11695376036698059,"91":-0.08100294929578326,"92":-0.07161184665350355,"93":-0.05114503469078554,"94":-0.014991731010482656,"95":0.14139267665664643,"96":-0.05250985330817102,"97":-0.019440668166623192,"98":0.05335737197191344,"99":0.12334713031781673,"100":-0.1210283702363095,"101":-0.045686774690333026,"102":0.014367226377066852,"103":0.05107449643847492,"104":0.035735496853112225,"105":0.18608427659714358,"106":0.08590299227939922,"107":-0.04948467684741912,"108":-0.09206154895039978,"109":-0.023081998215781937,"110":0.03187343586913588,"111":-0.06633105595919347,"112":0.017568310626168773,"113":-0.04389907463621272,"114":-0.13228730210599965,"115":0.12407955515777064,"116":-0.0002124157440297464,"117":-0.03768996903193545,"118":-0.05738568479624979,"119":0.03929601960424671,"120":0.1068033932453543,"121":-0.043463238474114124,"122":-0.12578376874424174,"123":-0.19238264896817364,"124":-0.0697513372817499,"125":0.0338425857863088}},{"sx":1,"sy":1,"depth":126,"w":{"0":0.16225800545867183,"1":-0.1662130386822802,"2":-0.07403166146101235,"3":-0.03691667349168134,"4":0.05169827912965887,"5":0.011806343980444903,"6":0.1903168869188707,"7":0.16416109290882924,"8":0.10807938522412508,"9":-0.03701768844806079,"10":-0.019840656204313935,"11":-0.026172534289080753,"12":-0.008437019752142191,"13":0.15470493144097122,"14":-0.03058513509494,"15":0.03594333378804052,"16":-0.004564670179504296,"17":0.03270484572144563,"18":0.11650204521159284,"19":0.1010818205320636,"20":-0.05345792414524837,"21":-0.08765248728921708,"22":0.07351595933397347,"23":0.08577966687997622,"24":0.07500766035244977,"25":0.02415691792361443,"26":0.009028043469038256,"27":-0.1160281403457334,"28":0.012846479573212088,"29":-0.04434274503344083,"30":-0.03810219669716257,"31":0.10067215731396645,"32":-0.11384991518458985,"33":-0.05269659164567079,"34":-0.0600691665933528,"35":0.06943234598424744,"36":0.045798276473549566,"37":0.009854979717266048,"38":-0.006249540274637729,"39":0.14312815473568774,"40":0.11403985762484334,"41":0.08301120011941641,"42":0.0845352276567419,"43":0.19134223118487356,"44":-0.07564269951704079,"45":0.11952066479750126,"46":-0.11767290986597732,"47":-0.20537885244464885,"48":0.11476608112437572,"49":0.11056690225795973,"50":0.046572958232751004,"51":0.01643897933601144,"52":0.12775473203930382,"53":-0.010337854410379235,"54":-0.04476157539786495,"55":-0.0000310976580643419,"56":-0.05616820087076501,"57":0.04013926340006332,"58":-0.07476222284100086,"59":0.02573876575554899,"60":-0.14374037192946487,"61":0.058588040316476055,"62":-0.04133421515628063,"63":0.10684187802136727,"64":0.11035333589629429,"65":0.11876463725246379,"66":-0.025820477921744207,"67":0.01889724251349428,"68":-0.01717365490944219,"69":-0.08147309234966887,"70":-0.01955936124992459,"71":0.08417994628652953,"72":-0.017459078816305176,"73":0.12244674007004812,"74":0.11821097588080212,"75":-0.17248901579169124,"76":-0.029620925456827332,"77":-0.13027625911127558,"78":-0.0012234124749821084,"79":0.06058740796322845,"80":-0.13743714356428402,"81":-0.022831532675418424,"82":0.03287203000755813,"83":0.12900202249916937,"84":0.05603066217313256,"85":0.004548437377621408,"86":-0.25337378646413855,"87":0.006055310559185214,"88":-0.025352493849731823,"89":-0.13871049256879323,"90":0.03897086849244349,"91":-0.10698734463642125,"92":-0.018321951524997323,"93":-0.00022897828573666983,"94":0.1566793749059728,"95":-0.16385449873492644,"96":0.07253809726689481,"97":-0.016360187991305546,"98":0.09398350220072405,"99":-0.06694586582888365,"100":0.005766960575317133,"101":0.06053895654877321,"102":0.006340032768318909,"103":-0.04365534707081159,"104":0.16038342219262056,"105":0.04725676847307292,"106":-0.062129268463086765,"107":-0.025773249950008615,"108":0.07782692593414267,"109":0.01699414700595638,"110":0.11540680032051598,"111":0.10617498075081301,"112":-0.046186625961176876,"113":0.06050064726963996,"114":-0.026621210358699705,"115":0.24262469876859288,"116":0.03312760330986576,"117":0.053779582868834545,"118":-0.005743238938492054,"119":-0.06125468424138476,"120":0.11789538000696886,"121":-0.20913032436719328,"122":0.007476123614503831,"123":0.016961395694719203,"124":-0.10242523052199029,"125":0.15376793590291052}},{"sx":1,"sy":1,"depth":126,"w":{"0":0.1377198934215167,"1":0.00888113147100599,"2":-0.08601507446612115,"3":0.04085935725914231,"4":0.13989233077814586,"5":-0.0006764619359320793,"6":0.03923589976086679,"7":0.015726192844246773,"8":0.13270063350048802,"9":0.1960004997205379,"10":-0.07653682896610922,"11":0.13766054425615332,"12":-0.06408914433824378,"13":0.15658818605217673,"14":-0.009468765945646449,"15":0.01908662364525305,"16":-0.08231765503033685,"17":-0.05194474141428885,"18":-0.0078040888811664755,"19":0.16632921416531748,"20":0.08999612264076744,"21":-0.15340800917206793,"22":0.013541050260046317,"23":0.037384039917626996,"24":0.051545745518115395,"25":0.12290773179009368,"26":0.09603438804605467,"27":-0.09278583829262492,"28":-0.024999655347222857,"29":0.07377038096287263,"30":-0.01304775671700023,"31":-0.026923031647975635,"32":0.24544169854161343,"33":-0.0002615986396439222,"34":0.023058807522379102,"35":-0.094559556248572,"36":-0.06168397157348988,"37":0.01476293499317477,"38":0.1141674270897568,"39":-0.1839935658703651,"40":0.1553572097490989,"41":0.06011429620218342,"42":-0.010919435125657852,"43":0.015252359965206746,"44":-0.033474264997936924,"45":0.09421696010066873,"46":0.19334612556787523,"47":-0.17944256262272826,"48":-0.015041268174686814,"49":0.005314503023580084,"50":0.02326507424360382,"51":-0.08299767235229909,"52":0.22664131195839213,"53":0.05627471509104405,"54":-0.02991117772765859,"55":0.1369627074800457,"56":-0.012911596370857025,"57":0.01995422932045273,"58":0.020295962906595962,"59":0.1147679509509683,"60":0.07655085946437175,"61":0.056003917793999484,"62":0.03585409273552131,"63":0.08517395862327595,"64":0.05078229177654933,"65":0.045702431460916806,"66":0.09424176627392117,"67":0.048832743781018956,"68":-0.047336096153371914,"69":0.05996097713014217,"70":-0.07154494239993704,"71":-0.1369975990194647,"72":-0.07043541961539494,"73":0.015057763791375037,"74":0.014426889579019631,"75":-0.041700187703143266,"76":-0.00017010887062695443,"77":-0.057895574125541624,"78":0.10265410931600748,"79":-0.10400738947710217,"80":0.16810750352998557,"81":-0.1329535945264544,"82":0.06232110250628752,"83":-0.07981013794942513,"84":0.05959277616681268,"85":-0.012046033621184777,"86":0.004883708052970437,"87":0.18378873046267846,"88":-0.007348170797350596,"89":0.0006334239893796986,"90":0.03832968605448306,"91":-0.001252936912873686,"92":-0.01707298569807519,"93":-0.10813120435111179,"94":0.21048800699543063,"95":0.21443858629747817,"96":-0.18229599561549945,"97":0.045949266584489806,"98":-0.06880692012942999,"99":0.06819159396666133,"100":0.07831427464759454,"101":0.12965234598202427,"102":-0.03972025143613018,"103":0.08361437620705583,"104":0.06921824935533183,"105":-0.0863061537687138,"106":0.08069844229055724,"107":-0.11161685294051017,"108":0.061613810917172024,"109":0.20650309849066317,"110":-0.0506077482816912,"111":-0.05073508655431311,"112":0.015241227693258926,"113":-0.17108734142814652,"114":0.02337319873457247,"115":-0.06821263717423778,"116":0.20896909762694044,"117":0.05070898012085694,"118":-0.12034210681965195,"119":0.015960245642488442,"120":-0.09880543313706183,"121":-0.11706331939547139,"122":-0.12278943082547163,"123":0.12143020519466473,"124":-0.005551616610517725,"125":-0.06999310531189164}},{"sx":1,"sy":1,"depth":126,"w":{"0":0.04227924456773749,"1":-0.02971416432163125,"2":-0.0741198302253755,"3":0.13429482092142017,"4":0.02958270890887809,"5":-0.027266555974900453,"6":-0.029480164091205248,"7":0.08538930616557008,"8":0.1652822509434801,"9":-0.1370578608884473,"10":0.10607208859708292,"11":0.031196551586348435,"12":0.009573344945029654,"13":0.10980413068298184,"14":0.14297567902863295,"15":0.04270503023622136,"16":-0.07597517484578296,"17":0.17553143523455347,"18":0.06399101778269256,"19":-0.19346517912299166,"20":-0.010325994662317374,"21":0.06259166402474423,"22":-0.25494642880000057,"23":-0.07586900980446676,"24":0.1361959776440008,"25":0.12069752014123504,"26":-0.024706708385971183,"27":-0.10581077843759924,"28":-0.007685975705797604,"29":-0.06420703585483026,"30":-0.04096110176276399,"31":0.2262832271232194,"32":0.004739494057043021,"33":0.06557270019670494,"34":0.04742664244957665,"35":0.07418143229877312,"36":0.027374216992702864,"37":0.06158997720397015,"38":0.15130680189881543,"39":0.07225389982797348,"40":-0.027384271176709003,"41":0.029524232796649612,"42":-0.0682018478636261,"43":-0.11105722553014884,"44":-0.0473597082783257,"45":0.0036223876298149813,"46":0.24283933665891771,"47":-0.023944333040230675,"48":-0.06989646138451734,"49":-0.07306261051051256,"50":-0.002112260362586969,"51":-0.08093436169418974,"52":0.01743996017395971,"53":0.07631011057481762,"54":-0.1046602436518786,"55":-0.08625863942369569,"56":0.03631947662247659,"57":-0.03789767231690376,"58":0.017654147740844766,"59":0.09277546566251811,"60":-0.19600435317320794,"61":0.0715796410868154,"62":-0.021440242340258386,"63":-0.05214090030823699,"64":-0.17504357010414145,"65":0.05932818728616978,"66":0.09236106599557849,"67":-0.022133644499524995,"68":-0.15015095043319282,"69":-0.07111764124078322,"70":-0.11114727526012723,"71":0.1167335630760986,"72":0.026059776156763192,"73":0.21766322930776388,"74":0.0461991278518783,"75":-0.033122175787119665,"76":0.053975889524903266,"77":0.10688388880111262,"78":0.02786642525225871,"79":-0.14143696221068838,"80":0.3382770996259695,"81":-0.13876604256487732,"82":0.003913782862809364,"83":0.1316428646692827,"84":0.08179220080079799,"85":0.011459933387634456,"86":-0.0674229818195099,"87":0.14862120357403646,"88":0.04955003600020203,"89":-0.0635752061644901,"90":-0.18088136506263738,"91":0.013629201379784893,"92":0.05356424947186949,"93":-0.061532362767802204,"94":0.13078551824492926,"95":0.009155878311881208,"96":-0.014877720245366646,"97":0.049584081174579554,"98":-0.038607413986026,"99":-0.031951374226124554,"100":-0.006890639984315083,"101":0.2839607302806182,"102":-0.07977488102497557,"103":-0.09707699398302537,"104":0.007942446719968865,"105":0.11394876993110604,"106":0.022965902547693384,"107":0.1049691188044006,"108":-0.054143949278695654,"109":-0.07307087120994243,"110":0.005371268044005167,"111":0.08963171187093961,"112":-0.24617620327623813,"113":-0.05804370745893122,"114":0.018845787373986737,"115":-0.10016652421145121,"116":0.03358962043988509,"117":0.1099816683459827,"118":0.1600747012770731,"119":-0.060870221705310625,"120":0.08169593822620379,"121":-0.04893843868887585,"122":-0.25203954502541454,"123":-0.10036235131354455,"124":-0.02249817383714439,"125":0.027961615111268573}},{"sx":1,"sy":1,"depth":126,"w":{"0":-0.12015262423234922,"1":0.05988889330800618,"2":0.0126954584270938,"3":0.006582071192283582,"4":-0.028063925822750663,"5":-0.20731663587630839,"6":-0.02860802756280028,"7":-0.04008142744335441,"8":-0.05332775865115635,"9":0.08868709463555034,"10":0.1229435458853322,"11":0.025872852294455975,"12":-0.1671378164677085,"13":0.062336976832547034,"14":0.13499772745543356,"15":0.0705109576135904,"16":-0.03706579304082519,"17":0.05038339718497211,"18":0.1475291113993622,"19":-0.02638414166171599,"20":0.032600604703619494,"21":-0.07429964588564446,"22":0.023337424116143698,"23":0.15813104866534242,"24":0.13035941544216642,"25":-0.04686866409665421,"26":0.09866644209321021,"27":0.14327750217037521,"28":-0.04701426677211282,"29":0.02227762466019355,"30":-0.11930575838185645,"31":0.16700994407518577,"32":0.03238986142155525,"33":0.09320497572299785,"34":0.006339089077375689,"35":-0.03214734844649656,"36":0.08824353625622695,"37":-0.06516759749844073,"38":0.10533686551291759,"39":0.029265468529930987,"40":0.12378151280857336,"41":-0.09010009996336221,"42":0.03972687983095785,"43":-0.12468140433585091,"44":-0.007372266459886226,"45":0.006147977135157293,"46":-0.10942742134657334,"47":-0.027751143334604076,"48":0.0006048688310232427,"49":-0.020263403848298923,"50":0.19644394091436765,"51":-0.031265165550491025,"52":0.3103342236092147,"53":-0.1792920732616555,"54":0.022928852600889206,"55":-0.10379834522336437,"56":-0.01460049814054213,"57":0.015172822331667862,"58":-0.014885770230598611,"59":0.27092078773822725,"60":0.06515431203093947,"61":-0.03955996201700743,"62":0.03957598547796201,"63":-0.13455612789216684,"64":0.00009419557996962582,"65":-0.03843446785145948,"66":0.16784440923738916,"67":0.05275723252110703,"68":0.006105710692619444,"69":0.14191618869116598,"70":0.03515291308328893,"71":-0.08334646935798432,"72":0.03314864158357738,"73":0.12531900775782298,"74":0.15930357810702966,"75":-0.029567117088658276,"76":0.10352036275772901,"77":-0.12441332110363186,"78":-0.08934101140930746,"79":-0.0613043182076915,"80":0.36281093936243963,"81":0.05372999900388336,"82":-0.021772195491078377,"83":-0.029026685390012442,"84":0.06698333702994794,"85":0.16580439805957572,"86":0.022043672424704362,"87":0.3386750134319909,"88":0.2088829057776262,"89":0.14255829389417018,"90":0.1778700200415097,"91":0.03227980984594597,"92":0.16830101119223995,"93":-0.0860586411618979,"94":0.30269176373503437,"95":-0.13121642157898666,"96":-0.0625280532099257,"97":-0.13967583744121995,"98":-0.06948881937872341,"99":-0.14392530149979257,"100":0.046629794102314256,"101":0.08402465162467479,"102":-0.14995317342959313,"103":0.16276131484059125,"104":0.03879768204996963,"105":0.06289858561320724,"106":0.02623971599703541,"107":-0.04481419706334879,"108":-0.2572027866244129,"109":-0.04072594627196008,"110":-0.0018134708408319843,"111":0.12141055340787,"112":-0.08499612842583859,"113":0.0646304051257575,"114":-0.029628081679488882,"115":-0.1559365279678265,"116":0.002089194544677219,"117":-0.007790025820347939,"118":-0.028858436859589796,"119":-0.012108517355029082,