
//<![CDATA[

// a few things don't have var in front of them - they update already existing variables the game needs
lanesSide = 3;
patchesAhead = 18;
patchesBehind = 0;
trainIterations = 50000;

// the number of other autonomous vehicles controlled by your network
otherAgents = 0; // max of 10

var num_inputs = (lanesSide * 2 + 1) * (patchesAhead + patchesBehind);
var num_actions = 5;
var temporal_window = 0;
var network_size = num_inputs * temporal_window + num_actions * temporal_window + num_inputs;

var layer_defs = [];
layer_defs.push({
    type: 'input',
    out_sx: 1,
    out_sy: 1,
    out_depth: network_size
});
layer_defs.push({
    type: 'fc',
    num_neurons: 120,
    activation: 'relu'
});
layer_defs.push({
    type: 'regression',
    num_neurons: num_actions
});

var tdtrainer_options = {
    learning_rate: 0.001,
    momentum: 0.0,
    batch_size: 64,
    l2_decay: 0.01
};

var opt = {};
opt.temporal_window = temporal_window;
opt.experience_size = 3000;
opt.start_learn_threshold = 500;
opt.gamma = 0.90;
opt.learning_steps_total = 10000;
opt.learning_steps_burnin = 1000;
opt.epsilon_min = 0.0;
opt.epsilon_test_time = 0.0;
opt.layer_defs = layer_defs;
opt.tdtrainer_options = tdtrainer_options;

brain = new deepqlearn.Brain(num_inputs, num_actions, opt);

learn = function (state, lastReward) {
brain.backward(lastReward);
var action = brain.forward(state);

draw_net();
draw_stats();

return action;
}

//]]>

/*###########*/
if (brain) {
brain.value_net.fromJSON({"layers":[{"out_depth":126,"out_sx":1,"out_sy":1,"layer_type":"input"},{"out_depth":120,"out_sx":1,"out_sy":1,"layer_type":"fc","num_inputs":126,"l1_decay_mul":0,"l2_decay_mul":1,"filters":[{"sx":1,"sy":1,"depth":126,"w":{"0":0.02587896827899665,"1":0.0315623527490829,"2":0.18298862452899697,"3":-0.12758282499507168,"4":-0.0052813910173498,"5":-0.06494556075427982,"6":-0.09429917651861072,"7":0.03293059233369923,"8":0.02718611947949731,"9":0.12771590805945235,"10":0.03610186296909306,"11":-0.042474702125553716,"12":-0.11479713486068213,"13":-0.06944558015342822,"14":-0.10527260974561749,"15":0.11566756202087285,"16":0.07731918135881151,"17":-0.1886404850233035,"18":-0.14255532579740154,"19":-0.08290318997882005,"20":-0.15706828277231352,"21":0.04257732684600859,"22":-0.03380999550076651,"23":-0.056747564363515,"24":-0.034918477634862215,"25":-0.055685370365816785,"26":-0.17545435759973205,"27":0.031272514526223476,"28":-0.0375738267525991,"29":0.06594999322899528,"30":0.19330035977759444,"31":-0.08652700554011004,"32":0.02271689163733541,"33":-0.13652674443718454,"34":0.02771080529247692,"35":0.0011192156548022096,"36":0.05722959884628087,"37":-0.04175448583896568,"38":0.1910246200750147,"39":-0.010491139771182148,"40":0.022299251050155927,"41":0.21795368285288058,"42":0.12807813016521796,"43":0.05244789602540041,"44":0.049420252269332755,"45":-0.02872674385680147,"46":0.03833972835808333,"47":-0.024956012744225767,"48":0.020772115252313057,"49":-0.1329025620247357,"50":0.07572047549051877,"51":0.07968102947352307,"52":0.07372393939017632,"53":0.10256832551756738,"54":0.01664653814646082,"55":-0.011347687919802186,"56":0.16060006750492126,"57":0.1765054992793599,"58":-0.045720267351963516,"59":0.15530165049858813,"60":0.10342474242077972,"61":0.06453184246081739,"62":-0.07337623888611657,"63":0.0051093999950136285,"64":0.1196771430263353,"65":-0.0765620243856644,"66":-0.04095174586935313,"67":-0.059674986763572316,"68":-0.01442681384681413,"69":0.15479914150680762,"70":-0.09668350142922778,"71":0.031107711539998313,"72":0.007305947043407294,"73":-0.08144253614230638,"74":-0.023495685039566352,"75":-0.04146289368270128,"76":-0.17510850557729707,"77":0.14171095714272755,"78":-0.02957676126471186,"79":0.13644527662476072,"80":0.08444997165097387,"81":-0.10867573994077054,"82":0.05863107599784675,"83":-0.16146506437091152,"84":-0.10434077855578908,"85":0.05710507718406267,"86":0.18226767783847886,"87":-0.08098231041937683,"88":0.019080442846176212,"89":0.0030452532271668807,"90":-0.2643910238490619,"91":0.035529570497072754,"92":0.07016653467921692,"93":0.24099345847741283,"94":0.07767529381336447,"95":0.021375396589863815,"96":-0.06440659279322528,"97":-0.03505349599907164,"98":0.060218142316216375,"99":0.021430001233845957,"100":0.006631342103787759,"101":-0.018759314415897822,"102":0.08865402245646833,"103":0.056083867187348,"104":-0.09538811260928369,"105":0.09068180584552965,"106":-0.10775873607681512,"107":0.14446109548693664,"108":0.047327402296022586,"109":-0.014982156802041097,"110":-0.10097197668105964,"111":-0.008497151513863701,"112":-0.02820083169110463,"113":0.13030709722118497,"114":0.20282711612023144,"115":-0.08313896327052654,"116":-0.05341609455942011,"117":-0.00750358113980377,"118":0.11199930913003166,"119":-0.05997854837411371,"120":0.04840838894575403,"121":0.37510823183508785,"122":0.0324491294912527,"123":-0.016320832223128738,"124":0.057094993682113064,"125":-0.011241108789505853}},{"sx":1,"sy":1,"depth":126,"w":{"0":0.02028075078285053,"1":-0.05550821807063742,"2":-0.0019409932342602902,"3":0.09438714771350491,"4":0.051363406503964815,"5":0.14038942604554377,"6":-0.15601586057359604,"7":-0.019195011441673564,"8":-0.0516314267741994,"9":-0.0031650559527962455,"10":0.03362930381474839,"11":-0.05251047392980776,"12":-0.057446565481214996,"13":-0.018967242228794128,"14":0.010913610003446183,"15":-0.1894123618121326,"16":0.09902437407125866,"17":-0.02326755303840306,"18":0.12760224911031318,"19":0.0178768211348116,"20":-0.0654397309211875,"21":-0.047949858386882975,"22":0.043105676680280154,"23":-0.05648064054215894,"24":0.1479880292973399,"25":-0.1627025125798857,"26":-0.08755256502469091,"27":-0.12461333212703447,"28":0.024833023457350018,"29":0.026872691359943076,"30":0.08901747413928818,"31":0.1541540280356542,"32":0.03341896411139905,"33":-0.03874591711558276,"34":0.019768818007950318,"35":0.018735371263557656,"36":0.006808051154598614,"37":-0.12696562909714984,"38":0.09166881345299445,"39":0.19006244227001903,"40":0.045819531794917455,"41":0.10429210852142268,"42":-0.06624051442947954,"43":0.12534671902650035,"44":0.07255745731099573,"45":0.05459274046999613,"46":0.07589666188586276,"47":0.07259817121902902,"48":-0.08949055478436388,"49":0.1662316089712856,"50":0.006856880721811495,"51":-0.011811353227679601,"52":0.3482372345877017,"53":-0.12354565634086485,"54":-0.09266145364221094,"55":-0.22474748255603383,"56":-0.09195122128206246,"57":0.07040972336318074,"58":-0.13597987467329736,"59":0.10113591169850912,"60":0.09745254500926627,"61":-0.09056420576047271,"62":-0.0400662214530608,"63":-0.16917691702952303,"64":-0.0766689215960072,"65":0.2520315699114557,"66":0.18876185019169484,"67":-0.07252112969528078,"68":-0.09276647083365211,"69":-0.004308216322032689,"70":0.0036937103591693178,"71":-0.01066781218101674,"72":-0.13498065658275818,"73":-0.05037484150199433,"74":0.08190707465039666,"75":-0.025977537826597605,"76":0.08093482735119907,"77":0.07930166708423174,"78":0.0005207338157355943,"79":-0.039389008317100176,"80":0.20810556649473977,"81":0.02098407105960649,"82":-0.1721146339117063,"83":0.20814185526945722,"84":-0.06754180910737284,"85":0.03030420074072964,"86":-0.12031790877924782,"87":0.18075791359294685,"88":-0.13798344692352085,"89":-0.009904690315574586,"90":0.1455917957962495,"91":0.050967764263854125,"92":0.14712039907471577,"93":-0.06981268598644266,"94":0.12704517556468284,"95":0.024317397321941398,"96":-0.0008355146492304678,"97":-0.12904662372080805,"98":-0.14315686969316477,"99":0.01658827071254864,"100":0.04802525292313525,"101":0.17842768873529236,"102":0.013615590260781288,"103":0.08687738753165533,"104":0.03869733962524252,"105":0.07422886614629187,"106":0.019290916916068896,"107":0.01591387128756863,"108":-0.03641665159958406,"109":-0.3000091394789194,"110":-0.021899979224790107,"111":-0.07420770680190825,"112":-0.16190250148613042,"113":-0.05596029294106691,"114":-0.0815261962253175,"115":-0.2001866818433994,"116":-0.009439269092764097,"117":-0.05020874223551057,"118":0.04898734659713368,"119":0.04915979165789704,"120":0.02864812701072749,"121":-0.14275972261516054,"122":0.014753607284157842,"123":-0.14429439575642974,"124":-0.07284442511202222,"125":0.09428073975208241}},{"sx":1,"sy":1,"depth":126,"w":{"0":-0.07785432828614894,"1":-0.10376628389543745,"2":-0.06977871392474866,"3":0.14565808061570962,"4":-0.030960059231208245,"5":-0.05667784651331153,"6":0.09314098401603729,"7":-0.06948575414679659,"8":0.04963795786872317,"9":-0.10186804038909655,"10":0.06413136712636193,"11":0.062102257427511805,"12":0.039983912929950835,"13":-0.1358763677156298,"14":-0.026561571590759506,"15":0.0065450128864134195,"16":0.019001915523432295,"17":0.05064907492611387,"18":-0.0860578223738583,"19":0.04056503320898696,"20":0.20465079406178882,"21":-0.09494437623297676,"22":0.039979725263759765,"23":0.0014718127164844,"24":-0.01014630459184266,"25":-0.03861883278359764,"26":-0.007317916923145391,"27":-0.08545543721423167,"28":0.04081675388268486,"29":-0.08254332702531512,"30":0.12107675367075958,"31":-0.023192327359270362,"32":0.023452428393661132,"33":-0.024591278068401695,"34":0.021796181337871937,"35":0.0723331734214776,"36":-0.018777414463905025,"37":-0.06596140272676268,"38":-0.08084662296519399,"39":0.14742655764831936,"40":-0.06755113782040634,"41":-0.06429294689679949,"42":0.05726774044012632,"43":-0.09568038479823122,"44":-0.014558861559299049,"45":0.22392334184580878,"46":0.08018554163379947,"47":0.024528020169997132,"48":0.07721664769114116,"49":-0.05623863946781041,"50":-0.03320667317197468,"51":-0.00420497233681615,"52":0.11453866993614142,"53":0.027762634110256656,"54":-0.07277921227641442,"55":0.09037943900732373,"56":0.12917022380989854,"57":0.07158516225362427,"58":-0.18102344330469888,"59":0.0797422676884424,"60":-0.05066078789453123,"61":0.03125364057364395,"62":-0.13213273629198147,"63":-0.03088944916429747,"64":-0.10018724416489264,"65":-0.021125443250103612,"66":0.018426428446302327,"67":0.0875860137182474,"68":0.05577638274042257,"69":0.09985005932233149,"70":-0.0026226342249480233,"71":-0.044994796488624866,"72":0.04832408965393626,"73":0.2501951844317176,"74":0.034247352924800946,"75":0.11689137589131987,"76":-0.07021519664766636,"77":0.00538301474396354,"78":-0.04941656134122767,"79":0.02540188485451198,"80":0.27827789366250033,"81":0.0054400247840669744,"82":-0.08652750532897661,"83":0.07049922348220689,"84":-0.09781532494209201,"85":-0.06384802628348471,"86":-0.12283595386082842,"87":0.14499779763015755,"88":-0.027808781891258547,"89":-0.11796913046481691,"90":-0.01423793829873809,"91":-0.002719777900291145,"92":0.14794011429510714,"93":-0.17920897093232424,"94":0.17320959665433017,"95":0.09537148832693632,"96":0.024804968482814247,"97":0.021497187944055016,"98":0.24745568976905846,"99":-0.017643288819871837,"100":-0.12376378498562171,"101":-0.008629754603351096,"102":0.022725064369793106,"103":0.07194478236179769,"104":-0.04756288648708063,"105":0.1492041063703969,"106":-0.004376336229950993,"107":-0.08255085341736754,"108":0.0786242069018393,"109":0.022140187585238898,"110":0.10009838625366314,"111":0.030541782729813675,"112":-0.05402596366861777,"113":0.05797476005021638,"114":-0.15892639812723022,"115":0.0042719954187587185,"116":-0.19712503466929343,"117":0.06532987725696689,"118":0.09700404278985177,"119":0.12009185854127234,"120":0.0571505371885029,"121":-0.0009032964416581889,"122":-0.011567483835284397,"123":0.14276595380241708,"124":0.16115089052258838,"125":-0.08118577886679358}},{"sx":1,"sy":1,"depth":126,"w":{"0":-0.04799908552552943,"1":-0.027894589920340933,"2":-0.03521087880158274,"3":0.05038434469832359,"4":0.08492444593350276,"5":0.1159137622940658,"6":-0.02111770143814788,"7":-0.09773323384160097,"8":-0.18022450085897268,"9":0.10419226777174984,"10":-0.04848335832962733,"11":-0.12548062393780743,"12":0.07964116563882362,"13":-0.11943085126656708,"14":-0.146207018091258,"15":0.04899807806037893,"16":-0.08575568050790228,"17":-0.015349913562419907,"18":-0.12794247403380202,"19":0.13918970924894153,"20":-0.1722753963696364,"21":0.1987085655206526,"22":0.13284998750091817,"23":-0.1256167246856867,"24":-0.1975866236494561,"25":-0.012338214751451334,"26":-0.08125065684232599,"27":-0.0799281888990518,"28":0.04661124339882331,"29":-0.1471760884743869,"30":0.012496175076602454,"31":0.07989711590014069,"32":-0.031843611229131735,"33":-0.15157694433885874,"34":-0.04711445876399769,"35":0.08759158931864286,"36":-0.1388859204829134,"37":0.008969756602343082,"38":0.08646000533735891,"39":0.1785274352001739,"40":0.1363479995465551,"41":0.1844994046354818,"42":-0.07668400407529127,"43":0.03639941665787854,"44":-0.10616861079561689,"45":-0.1125361057714486,"46":0.15229999883771833,"47":-0.02968002982362645,"48":0.020825185188909866,"49":0.11444829827840608,"50":-0.15944165448289668,"51":-0.13055225116960636,"52":0.14849533246879332,"53":-0.07378082138461378,"54":0.09206357224102628,"55":0.08264996971962688,"56":-0.016682569317059283,"57":-0.08638390106503535,"58":-0.0858145043326235,"59":0.028871345498596813,"60":0.013388336297576794,"61":-0.015383621734664137,"62":-0.1920562254645546,"63":-0.00459413481163543,"64":0.027922161151203308,"65":0.16913944910369696,"66":-0.06948300492296151,"67":0.11524207280900717,"68":0.1527675487774572,"69":0.03825035481546738,"70":-0.0031408681840288583,"71":-0.04520678589560163,"72":0.000472325919888658,"73":0.0735272687219015,"74":0.13164465791835278,"75":0.05573985163715725,"76":0.0530505515076234,"77":0.008053054094049892,"78":-0.047042661608801245,"79":-0.21189403125673378,"80":-0.0010541803663236323,"81":0.021768592249917573,"82":0.11449141916054256,"83":0.2060209963792507,"84":0.016505833001357724,"85":-0.07878166169892778,"86":-0.058951396472231576,"87":0.2155692079282735,"88":0.021981146417500916,"89":0.09375691811406202,"90":0.11709428123449155,"91":0.05890967276558747,"92":-0.06611708854724418,"93":-0.05430330897464368,"94":0.15313523472191365,"95":0.12623949721039324,"96":0.15604885550741196,"97":-0.02908164127582952,"98":0.09577216104241247,"99":-0.09075035584675312,"100":0.029784061025502625,"101":0.11767970687619483,"102":0.08281029745345325,"103":-0.004232543725940104,"104":-0.1129627095468636,"105":-0.08312933913062008,"106":0.07777684266302629,"107":-0.015927309034809278,"108":-0.028616835169131404,"109":0.05932994665561438,"110":-0.10401374466873843,"111":0.1283929907785987,"112":-0.1904953119918524,"113":0.11562745740657461,"114":-0.021042384406446187,"115":0.01628455542966791,"116":0.18931271602457383,"117":0.12570143622879626,"118":-0.034911451909322815,"119":0.04681603174395816,"120":0.06107202572448064,"121":-0.09175949635697171,"122":0.017832461344086278,"123":0.2935762067256303,"124":0.05637747903350762,"125":0.0062841756919342065}},{"sx":1,"sy":1,"depth":126,"w":{"0":-0.07203615415900406,"1":-0.17308305713353006,"2":-0.1154271268889661,"3":0.045060964567532474,"4":0.022010569268167923,"5":-0.037455641342827924,"6":0.09312192538373931,"7":0.07621169479510459,"8":-0.05877889187128813,"9":-0.06127273988127224,"10":0.16564973494456264,"11":-0.022901571973219424,"12":-0.08548976035666495,"13":-0.17586825114559096,"14":-0.04639193472682257,"15":0.0793111884054043,"16":0.03519206621710787,"17":0.041045456004376285,"18":0.01351650727256106,"19":-0.01462989418526572,"20":0.021192205567367575,"21":0.006745392068694154,"22":0.12615024768454358,"23":0.012476273444753987,"24":0.05178038994338274,"25":-0.10401578808479478,"26":0.04200905507444858,"27":0.03768625652027117,"28":-0.10271352242662653,"29":-0.018559624689822717,"30":0.04230513591242363,"31":-0.009396087571141794,"32":0.11206817759709525,"33":0.0059709232304729866,"34":-0.07831944566853216,"35":0.11423851211637166,"36":0.15644514110789062,"37":0.0635109541588192,"38":0.0440843434030487,"39":-0.07871597807091124,"40":-0.06542663549372664,"41":0.07669191357977725,"42":0.17300576950061144,"43":0.030370705819931256,"44":0.0826524942824617,"45":-0.11183779942677999,"46":0.15137653643546856,"47":-0.027436671531071356,"48":0.09434824028352672,"49":-0.15653552152909492,"50":0.005041582124838177,"51":0.11352790635038748,"52":0.13440964565110755,"53":0.039487798411110775,"54":-0.006746898867408139,"55":0.13283641387752865,"56":-0.059446425479805616,"57":-0.08302390426459907,"58":-0.12818223136964166,"59":0.04619005468120253,"60":0.06113742618723385,"61":-0.00817157200591558,"62":0.13502314767862628,"63":-0.021213150704605204,"64":0.012731078638427592,"65":0.08488777823430091,"66":0.044457232599082006,"67":0.021713505669123303,"68":0.17882593022342855,"69":-0.0636116630619064,"70":0.10875599754733821,"71":-0.07829992361951267,"72":0.09928071141084473,"73":0.23118139483135206,"74":0.0010692126148203929,"75":-0.03332743870407031,"76":0.0011455121075226145,"77":-0.00614270586305558,"78":-0.03261268621463999,"79":0.09042201210473201,"80":0.3796329412646478,"81":0.02986322648456603,"82":0.12796745353778924,"83":-0.025493782028462204,"84":0.13827447338984736,"85":0.04093876245980928,"86":0.03894366191093227,"87":0.23434151472533382,"88":0.08875019921157758,"89":0.003967540039899651,"90":0.06627041380285324,"91":0.09617834027069545,"92":0.024187355015431573,"93":0.1738884290969384,"94":0.1467415441655725,"95":0.12326890586853392,"96":0.10651128134415662,"97":-0.09339077590198094,"98":-0.02305773969416106,"99":-0.038377867261551776,"100":0.003827266962201161,"101":0.09239009043823297,"102":-0.07761592439177623,"103":0.14942502003352995,"104":-0.09219526776090949,"105":-0.12726907278247876,"106":0.22662410749774822,"107":-0.11386501459910031,"108":-0.22980513124943153,"109":0.28098045785207165,"110":-0.07997621579430188,"111":0.04041085779017532,"112":-0.008137540212881149,"113":-0.047362726019949807,"114":0.07127656075123918,"115":-0.29336453614672464,"116":0.00583265704781632,"117":-0.10038498531251909,"118":-0.053160934873930095,"119":0.08827675056458005,"120":-0.0631556679936365,"121":0.017448721784450456,"122":0.030621453294143956,"123":0.1277971938205738,"124":0.17819319068401346,"125":-0.10406693413486523}},{"sx":1,"sy":1,"depth":126,"w":{"0":-0.08073990877269924,"1":-0.05129263525205537,"2":0.07671689500448836,"3":-0.04743632978690856,"4":0.06014459619445442,"5":0.10256735855082835,"6":-0.07444542030622747,"7":0.010033352921795581,"8":-0.02459445495782843,"9":0.053226324870280804,"10":-0.24166405586738915,"11":-0.13972504184888634,"12":-0.1345781492104589,"13":0.019443353790788064,"14":-0.05814550958462909,"15":0.07966475560359304,"16":-0.1118115850009251,"17":-0.09790899689819792,"18":-0.02565980605080721,"19":-0.002719706853067522,"20":0.042019893238799254,"21":-0.04502996259001144,"22":0.06183080034247965,"23":-0.07774465373813183,"24":-0.05125085982739344,"25":0.10604811869582038,"26":0.058399069099897456,"27":0.051414658985538736,"28":-0.11336618444873026,"29":0.03258041480028006,"30":-0.09694816081735949,"31":-0.010686639844701242,"32":-0.07482175207201176,"33":-0.07639831907132281,"34":-0.023626507079264794,"35":0.0872309472158659,"36":0.1504386694172424,"37":0.054006767530034354,"38":-0.019840065706586352,"39":-0.011175120517227674,"40":0.04638050826719427,"41":0.13478117563269876,"42":-0.08720795689784425,"43":0.1266063919738613,"44":-0.05099741546887452,"45":-0.12896809237814083,"46":-0.1333709255312002,"47":0.016813460922751128,"48":-0.024006892624475296,"49":-0.06797479855336552,"50":-0.1624054044409343,"51":-0.04619936996525546,"52":-0.1106267456146395,"53":0.06079248747049822,"54":0.07949965731005666,"55":-0.06838839670178311,"56":0.13076124644468018,"57":0.031843306543007016,"58":-0.0536006864072621,"59":0.05625302761958684,"60":0.002957890335978146,"61":-0.015542020246278076,"62":-0.088438352680427,"63":0.00044538204680681496,"64":-0.04079956116391665,"65":-0.07812436242346006,"66":-0.203226010049728,"67":0.051458388447936335,"68":-0.22567980983607033,"69":0.0024175219382197195,"70":-0.0371179909702238,"71":-0.061985347896084536,"72":-0.02600200845230433,"73":-0.14832368844181887,"74":0.004354010193778514,"75":-0.061701095618720954,"76":-0.12064099371814467,"77":0.23586211670692422,"78":0.004803835998863917,"79":-0.1929646742367711,"80":0.2027318916141526,"81":0.15847618008508796,"82":-0.02768566714990326,"83":0.015476990396520823,"84":0.0810079321227803,"85":-0.009574781695829484,"86":0.07084323921313918,"87":0.20521926874079444,"88":-0.06421619805481979,"89":-0.10052773006965435,"90":-0.10340924697017237,"91":-0.05990168776713002,"92":-0.08988777442323297,"93":0.06382757397363167,"94":0.023126286680419838,"95":0.0064594625626960365,"96":0.10808376631175341,"97":-0.0035587774135311715,"98":-0.03620903371591754,"99":-0.07297541404498865,"100":0.1612792245881126,"101":0.14381398821186325,"102":-0.02010133596510574,"103":0.08748847238038933,"104":-0.08170839098718764,"105":-0.05872014522185626,"106":-0.12069129870568356,"107":0.18207713356571242,"108":0.028207275867380477,"109":0.054459653727448806,"110":-0.0825076376334761,"111":-0.042312475334487856,"112":0.013182817849634626,"113":0.011292542360966992,"114":0.04382992796888787,"115":0.039925052692502974,"116":0.13666149604954336,"117":-0.03416524597057499,"118":-0.08399222647255307,"119":-0.07812824799464904,"120":0.02887624634508558,"121":0.17914207771496282,"122":0.18368848796436033,"123":0.0952334661253792,"124":0.06352014257726739,"125":0.10732299473263582}},{"sx":1,"sy":1,"depth":126,"w":{"0":0.07033966662885154,"1":-0.03432287695502385,"2":-0.09127221543018992,"3":-0.12358826757336773,"4":-0.19926353058989119,"5":0.12254593060570138,"6":0.05841798844151586,"7":-0.2369769134836599,"8":0.1125137762955805,"9":-0.06792745166469366,"10":0.052277103293050166,"11":0.11743583641664344,"12":0.05740871580859334,"13":0.09492174544416936,"14":0.04698475931550064,"15":0.03558033164098357,"16":-0.026441920296639,"17":-0.06702613550343495,"18":0.06104348274653574,"19":-0.08459839641316147,"20":0.04449401725264999,"21":-0.060930923016871086,"22":0.08595804371735878,"23":-0.06803337066323989,"24":0.13895002434786644,"25":0.14167558788336185,"26":-0.017853804211449577,"27":-0.008795152590743083,"28":0.07814788341482531,"29":-0.1426594699062805,"30":-0.08991850214997466,"31":0.1645992286866343,"32":0.04827505940833161,"33":-0.06753521146886222,"34":0.06946659596077347,"35":-0.053236338313745094,"36":0.005589858225781507,"37":-0.07297144767023538,"38":0.047528080784667234,"39":0.01011739892851039,"40":-0.13150174289364147,"41":0.055027920492865944,"42":0.10385959351560708,"43":-0.10973181255664485,"44":-0.05995340686802309,"45":-0.020753615705952633,"46":0.051221314133238334,"47":-0.04815190880741417,"48":0.002602448322728217,"49":0.09682937201199188,"50":0.0006370421511311777,"51":-0.07057571429953624,"52":0.07929600478160667,"53":0.2251233073847054,"54":-0.06440383029717305,"55":-0.07094525367140511,"56":-0.02899847811952171,"57":-0.16504291555550446,"58":-0.13109727916594974,"59":-0.13224468213172594,"60":0.020656656480331225,"61":-0.11390853576343017,"62":-0.05090293014582728,"63":-0.033701708529342934,"64":0.026117679141068138,"65":0.08333976569740703,"66":-0.13890802911782274,"67":0.10812566576316725,"68":0.008499483406975778,"69":0.01962771460732233,"70":-0.06944214117847076,"71":0.06793008351885306,"72":0.02223091418301259,"73":-0.032145053501171084,"74":0.05317184604282515,"75":0.010472450673130485,"76":-0.19763682988770623,"77":-0.13318880564262364,"78":-0.16770202081360022,"79":-0.2507789043615556,"80":-0.00886762092986584,"81":0.05092197486608427,"82":0.07010246102207704,"83":-0.08604811483304486,"84":0.031048563471414936,"85":-0.1427632656768244,"86":-0.20324826594830417,"87":0.1832743170295766,"88":-0.026035704110113383,"89":0.017930978795394924,"90":-0.13156827333364826,"91":-0.08490631515324505,"92":-0.10613280499932445,"93":-0.002812390487528129,"94":0.1346955305259532,"95":-0.09728523550571158,"96":-0.14968591736527298,"97":-0.11118917005801669,"98":-0.1717347797277178,"99":0.04397916531688025,"100":-0.1255398749491887,"101":0.05472518896957526,"102":-0.015301687348277583,"103":0.021117022660859075,"104":0.061467045388700854,"105":-0.041026433982696196,"106":0.07403114776857073,"107":-0.10384310717195719,"108":0.04888487367444081,"109":-0.035095893307366566,"110":0.10792112599341737,"111":-0.013997113500867913,"112":-0.0026181252896315178,"113":0.02102428934947817,"114":0.07595055137572686,"115":0.04489803102235775,"116":-0.010955651955909721,"117":-0.09253848044518966,"118":0.03789819123756412,"119":0.07849886703416435,"120":0.09251862355441612,"121":-0.0938669314050959,"122":-0.004742305280139498,"123":-0.11260428808741371,"124":0.10110435726400717,"125":0.11718295897439941}},{"sx":1,"sy":1,"depth":126,"w":{"0":-0.2786414194212466,"1":0.0024485917314508807,"2":0.03743165160451351,"3":-0.07934183892151711,"4":0.11405549504594996,"5":0.05307386643369315,"6":-0.07470774758706061,"7":0.22045708431206001,"8":-0.00029877729516443317,"9":0.12149991606278307,"10":0.0891726013368004,"11":-0.027138089548625257,"12":0.023758679368451913,"13":0.0735844685112048,"14":-0.04205021295884702,"15":0.050755879502108234,"16":0.005538729664508723,"17":0.15111540705148355,"18":-0.0753766690556532,"19":-0.10494023346972504,"20":-0.06634812955811385,"21":-0.1863587248643957,"22":0.06386948971182961,"23":0.075668336107631,"24":0.016386304623784105,"25":0.08788608345403753,"26":-0.11006914158642413,"27":0.03093034428904747,"28":-0.09167441371935445,"29":-0.02620356486479096,"30":-0.026123139275685988,"31":-0.04229525105317366,"32":-0.033088495149391335,"33":0.13954649519458887,"34":-0.021546064405510577,"35":0.0225508420674381,"36":0.03867428190725461,"37":-0.018677979191160474,"38":-0.01170890065542279,"39":0.1884277883715038,"40":-0.032072659540928666,"41":0.07048149319771706,"42":-0.02907316768812936,"43":-0.14930168999076604,"44":-0.05943630102437325,"45":-0.04093983001267546,"46":0.07135534417392567,"47":-0.02758849168475227,"48":0.08161168385531126,"49":-0.02554497322511198,"50":-0.033229640630132236,"51":0.22320785203659022,"52":-0.25796780763958094,"53":-0.053865599558044035,"54":0.10144083178984298,"55":0.1723012852584765,"56":0.02764518449162543,"57":0.006530997129354427,"58":0.08043920326856217,"59":0.0014539168233920431,"60":-0.11325763372491365,"61":-0.02043839997379305,"62":0.03513745991613635,"63":-0.14265890599220665,"64":-0.004138524850776202,"65":0.16251897375273583,"66":-0.15834289590631798,"67":0.1404225057307143,"68":0.04963380410478205,"69":-0.13807092329690127,"70":-0.031793603886336126,"71":-0.03295293894943767,"72":0.0569852325853329,"73":0.07464810666262572,"74":0.10679153581158626,"75":0.006244909711033644,"76":-0.04670232097449893,"77":-0.01959369989646102,"78":0.14896281896493113,"79":0.13420223827660047,"80":-0.0524080540031578,"81":-0.04917820116026069,"82":0.06400011289210814,"83":0.008050600736651372,"84":-0.08224212613811842,"85":0.11112728438524484,"86":0.08031698395747847,"87":-0.12032107277121588,"88":0.051424454922947886,"89":-0.09243457057424714,"90":0.18488909997635283,"91":-0.03615479272318317,"92":-0.08178791419477689,"93":0.16985366661700438,"94":-0.12272010091586759,"95":-0.057264544510282483,"96":-0.014728119358649289,"97":0.005194575627402921,"98":-0.10792654357128108,"99":0.07667802141552979,"100":0.23607460647439812,"101":-0.029863798727586866,"102":-0.11279290407556722,"103":0.008735999920743313,"104":-0.04794536843315314,"105":0.01635915451413458,"106":0.046657497760377954,"107":0.10172191640252913,"108":-0.08386960855841992,"109":0.013392477646332585,"110":0.005893439986951837,"111":-0.004931871839635621,"112":-0.1266367655830021,"113":0.09399055148925198,"114":0.2537464422626482,"115":-0.10614069521453953,"116":0.015084030648956954,"117":-0.045448174537229664,"118":-0.04102150957815125,"119":-0.13030080089850268,"120":-0.021468495367839308,"121":0.1968268796652357,"122":0.09652682452852475,"123":-0.05704625869629702,"124":-0.012934060725716916,"125":0.026720463371791833}},{"sx":1,"sy":1,"depth":126,"w":{"0":-0.04451626847125509,"1":-0.03680789562788854,"2":0.16111162550604893,"3":0.20580422707603832,"4":0.07645544186888899,"5":-0.005264486490261611,"6":-0.04273645013165719,"7":0.004914455604311537,"8":-0.022110346880195305,"9":0.03265361735721676,"10":0.1295229135035105,"11":-0.012176143435894078,"12":-0.03251146446992971,"13":0.09776526350695479,"14":0.17419368980991698,"15":-0.038486526456003284,"16":0.2117689587609769,"17":0.019405695646878447,"18":0.265309058958409,"19":0.041759921056070085,"20":-0.07563123133332303,"21":0.0637450200865578,"22":-0.15181819067901955,"23":0.002615413940064384,"24":0.08730828129060471,"25":0.0368112631702379,"26":0.04549840971004503,"27":0.06245705227526411,"28":0.12073565886182562,"29":0.025837180282774343,"30":-0.06698680342533105,"31":0.14572625609830525,"32":-0.049530411547793016,"33":-0.02516757659355605,"34":0.09902340623592631,"35":-0.03755541836613273,"36":-0.0036830872750368048,"37":-0.07881338648910433,"38":-0.006491510436183645,"39":0.1709341601884783,"40":0.044708026914741635,"41":-0.013852876462414395,"42":0.0038376568471741577,"43":0.09247102304484343,"44":-0.00015320027895357062,"45":0.03032104201696667,"46":0.08914528061975006,"47":-0.07934979834921796,"48":0.052658899492562604,"49":0.04900292426636602,"50":-0.015665871969582194,"51":-0.09743601451239184,"52":0.1353474885535191,"53":0.05694255076088881,"54":-0.022272180315032305,"55":0.05369290247552684,"56":0.15221022888256577,"57":-0.028555389274946063,"58":0.1469204531696161,"59":0.11446781672774087,"60":-0.007629439478797303,"61":0.04283475767009419,"62":-0.03629981493936758,"63":-0.1952675449720924,"64":-0.041499845898543615,"65":-0.004696093356813734,"66":-0.04869587808818494,"67":0.02075313280196377,"68":-0.008532538750955538,"69":0.014707965592993656,"70":-0.13997362970050506,"71":-0.02284879801321594,"72":0.09884336017424557,"73":0.0934964318692,"74":-0.1558457810913326,"75":-0.1230105638964449,"76":-0.020930211897216635,"77":0.007374972935710048,"78":-0.07553329539261641,"79":-0.07917340354154301,"80":0.19192146838566868,"81":-0.0600651435809017,"82":0.03210059980347172,"83":0.010507386582374182,"84":0.034304225128335045,"85":0.06809204756794542,"86":-0.13039088628573117,"87":0.20687768416537777,"88":0.10300718334173127,"89":0.09406877161997339,"90":-0.17511767638249137,"91":-0.07339611797100327,"92":0.0821628004256587,"93":0.009564482279941063,"94":0.07119418427473719,"95":0.25260281727264783,"96":0.11593489193903392,"97":0.07047829808155513,"98":-0.02736266658980021,"99":0.04914053860918907,"100":-0.21782340341491616,"101":0.307409818653046,"102":0.0659780102525099,"103":0.041655799270147204,"104":-0.11958536296962535,"105":0.07895621466761399,"106":-0.117898780577816,"107":0.053745528027408764,"108":0.038234390730470066,"109":0.01876405257214777,"110":-0.2311394791081069,"111":0.04974455662348945,"112":-0.020872326391956936,"113":-0.0035040999572121183,"114":-0.11356319403139041,"115":-0.00548044342636137,"116":0.21658939359234275,"117":0.05650265029643789,"118":0.12915527027037335,"119":-0.04847229133532889,"120":-0.16663801888266985,"121":-0.0662957191784747,"122":-0.05058403897984905,"123":0.2758862021926312,"124":-0.1379079828542321,"125":0.007266675594857357}},{"sx":1,"sy":1,"depth":126,"w":{"0":0.06391217007141238,"1":0.07327385003433247,"2":-0.0498846106312101,"3":-0.036434423434982106,"4":0.1370660697125729,"5":0.019958011059830368,"6":0.025735422617093127,"7":0.002002737005952562,"8":-0.14715064335161035,"9":0.0729148677319032,"10":-0.04404262311610762,"11":-0.06425072479938866,"12":0.05291312798311528,"13":0.08468156027000952,"14":-0.11209106624704004,"15":0.02170058421601446,"16":0.08089479936235029,"17":0.13302090453425702,"18":0.022388097351444168,"19":-0.25902257619243885,"20":-0.1431329940073874,"21":-0.001036010814610035,"22":0.07743351873564353,"23":0.02481181447377631,"24":-0.04936455410614548,"25":0.02615166546101107,"26":-0.01913719539681218,"27":0.01453722946065845,"28":-0.10457843746745556,"29":0.10171757611681055,"30":0.0590065974313453,"31":-0.07790771732637321,"32":-0.020051820423598935,"33":0.01998510296169079,"34":0.006983309197849397,"35":0.07952384997347912,"36":0.032900235047111565,"37":0.022939745766850015,"38":0.08409432514478407,"39":-0.13313599142878052,"40":-0.1510375175908455,"41":-0.14345226074601305,"42":0.03447943283103906,"43":-0.006739986033198478,"44":0.036065797414759175,"45":0.006932531644940241,"46":-0.03106403993164593,"47":-0.061373710918665204,"48":0.019254478351529488,"49":0.1405189369584755,"50":-0.07885543503471291,"51":0.056930556130666936,"52":0.06323498261534696,"53":0.0019182577160223174,"54":0.035508711383563214,"55":0.05654114383944327,"56":0.014640417231741578,"57":0.006159342023955072,"58":0.07437839057692136,"59":0.07668938808763241,"60":-0.08226192462459668,"61":-0.07467743554124077,"62":-0.05811578863045645,"63":-0.09025249515179494,"64":0.01582478290439517,"65":0.1586974859715208,"66":-0.11971912918312871,"67":-0.04448690076001234,"68":-0.010216400023253379,"69":0.22778336116680026,"70":-0.09184309316743497,"71":0.07842256865211668,"72":0.058354626524525575,"73":-0.022593931793257863,"74":0.033875486367188186,"75":-0.01582577392222921,"76":-0.10437166195147016,"77":-0.11233779418258993,"78":-0.05062424708611953,"79":0.05924846838658209,"80":0.07547800836147296,"81":-0.06953970422708587,"82":-0.028518902990371135,"83":-0.0625003318864051,"84":0.03207516386992624,"85":0.005130457500341974,"86":-0.010746254798749,"87":-0.028678106598980034,"88":-0.17484930256202413,"89":0.07360230974831972,"90":0.10533259075684076,"91":-0.14238302541631115,"92":0.20214527595067328,"93":0.07521257187862646,"94":0.12791594644567186,"95":-0.09224880470878061,"96":0.006696307797851513,"97":0.0899574293931669,"98":-0.021671656427549455,"99":-0.05444829865477628,"100":0.006123379414568917,"101":0.11985941841774844,"102":0.02551364768036002,"103":0.018148971280058383,"104":-0.05729666821123592,"105":-0.04056971172443012,"106":-0.11323861247051699,"107":0.11345967613896395,"108":-0.18968640415998153,"109":-0.0005827211204649026,"110":-0.2507998918182577,"111":-0.04956621809749776,"112":0.06467104343993622,"113":-0.04492776698506981,"114":0.12478306710805541,"115":0.08909550239293537,"116":-0.09233345294452862,"117":0.10628114401707353,"118":0.06196197739276687,"119":-0.1576313956340706,"120":0.11955873381278187,"121":0.0972003950962794,"122":-0.008257069017030785,"123":-0.03635657880773731,"124":0.005978595227151815,"125":0.0075418371257643425}},{"sx":1,"sy":1,"depth":126,"w":{"0":0.08323507051428813,"1":-0.07568805152075975,"2":-0.10486658851372423,"3":-0.0016175471479079034,"4":0.1027182767943512,"5":0.09387964017846726,"6":0.04963024083595232,"7":0.03985348963415867,"8":0.1021364806107026,"9":0.061637291721255934,"10":-0.01980511213767483,"11":0.028341683000645185,"12":-0.04363948960022608,"13":0.0038198990138058647,"14":0.05685836655018435,"15":0.03827900193204997,"16":0.0805112733195713,"17":0.017696570511620678,"18":-0.038519404588853216,"19":-0.028305186699470707,"20":-0.04731740200623968,"21":0.07251383749820645,"22":-0.02718367944325928,"23":-0.07033645733709389,"24":0.029247720074268835,"25":-0.05924720279800336,"26":0.16143715776451983,"27":-0.037801895451504655,"28":-0.1736938071747142,"29":0.11685468668775242,"30":0.01243995537976481,"31":0.02060062930991945,"32":-0.057797836865373195,"33":-0.033225806536295484,"34":0.0390877558285693,"35":0.015824391524398372,"36":0.1166954724350146,"37":-0.06163468692552221,"38":-0.06764259924162293,"39":-0.10827405734961902,"40":0.04189669855269428,"41":0.1130413954312584,"42":-0.0612016262240253,"43":-0.09413963917315932,"44":-0.0032416382494683976,"45":0.0461523170422531,"46":-0.024881619278630064,"47":-0.015248087075093683,"48":0.04688056796628953,"49":0.16581928986064817,"50":0.1560882274345507,"51":-0.031045028236507614,"52":-0.18422142884893541,"53":-0.07224144806186389,"54":0.009446878657588418,"55":0.046752684554959595,"56":0.09929256572669647,"57":-0.11909722207213981,"58":-0.03767687792185967,"59":0.07582153986264571,"60":-0.1020890272457009,"61":0.003950037070542874,"62":0.08874939625985855,"63":-0.06356553126870948,"64":-0.13332176525078684,"65":-0.05600720344119377,"66":0.04235049452166636,"67":-0.10198885906800263,"68":0.010038021489742706,"69":0.0632465430335844,"70":0.041091896072265606,"71":-0.10603054034323496,"72":0.07537315560251476,"73":0.015160969008625383,"74":-0.10090104776622753,"75":0.03263566908321392,"76":0.039468212793957326,"77":-0.18751750536278697,"78":-0.09762918751108908,"79":-0.023099671893696497,"80":-0.06393784608783536,"81":-0.04519036570434205,"82":0.04551345254333062,"83":0.08304886414665325,"84":-0.0763203879139985,"85":0.0019431637698986673,"86":-0.14733897488904574,"87":0.03703957511982513,"88":0.018924928833986807,"89":-0.05347118710039179,"90":0.020776480590681552,"91":-0.20248810447238355,"92":0.03352158875816305,"93":-0.20454786042428763,"94":0.04262114205938078,"95":-0.01319515386766683,"96":0.0833322039667311,"97":-0.04592114115838818,"98":0.06094933110859198,"99":0.05260427826734154,"100":0.052653083016975716,"101":0.09715434053307552,"102":0.061365748065676046,"103":0.07930761547545635,"104":0.007391493977179609,"105":0.027231151603419136,"106":0.09150085958953537,"107":0.12305670574186338,"108":-0.057352357339609285,"109":-0.12933431369096282,"110":0.1215896189761483,"111":-0.010058015727673586,"112":-0.180506648801524,"113":-0.2772752241271219,"114":0.13904814099755378,"115":0.039171504784656294,"116":-0.02693427879636956,"117":0.06420010940992499,"118":0.0474177395753151,"119":0.09162551990484905,"120":-0.017230472876589697,"121":0.09280684263252223,"122":0.07716785941314337,"123":-0.07189505592285982,"124":0.09349671403612177,"125":-0.07257339066762357}},{"sx":1,"sy":1,"depth":126,"w":{"0":0.13902803824427343,"1":-0.030331468048442185,"2":-0.013201743734549553,"3":0.04019213428990485,"4":-0.005632436847041211,"5":0.05384958562757583,"6":-0.04646628725237243,"7":0.12842165467090313,"8":-0.03915487098545,"9":-0.03820394455697704,"10":0.06073564390853639,"11":-0.12761632793132052,"12":0.06410036168587077,"13":0.01768847211623351,"14":-0.018397790341990523,"15":-0.08666249820002246,"16":-0.16538958212082738,"17":0.12301866206417696,"18":-0.04647139630922606,"19":-0.024754213711188053,"20":0.12445957217777755,"21":0.12084206253997938,"22":0.12909021535388543,"23":-0.12048138940137236,"24":0.11404586095397962,"25":0.0075122198386101974,"26":0.05560819217845151,"27":0.033614338729288665,"28":0.11879684207447182,"29":-0.05260913703282105,"30":0.04269895407629403,"31":0.03630128766653621,"32":0.04620588932654619,"33":-0.09100215368923453,"34":-0.04218924710326,"35":-0.009073531791986883,"36":-0.14839429710598293,"37":-0.23202582430946758,"38":0.06759247146322056,"39":0.04222203630555702,"40":0.10325935976701198,"41":0.010190774081990546,"42":0.03223069143525101,"43":-0.18835073971083727,"44":-0.0381465473441156,"45":0.047232578988331074,"46":-0.03735014006859755,"47":-0.1276351483415479,"48":-0.03969608367117383,"49":-0.06227810454094421,"50":0.03770530886487379,"51":0.05311652182733953,"52":0.14147059407622695,"53":-0.061337161222725874,"54":0.04815902613778238,"55":-0.034477231767381725,"56":0.10715988094122338,"57":-0.06289139851717152,"58":-0.17845626906010262,"59":-0.03801037621874597,"60":0.11315021032122063,"61":-0.11596417060871902,"62":0.1188153612338122,"63":-0.03870699748742842,"64":0.006076557339355389,"65":-0.04107000998960688,"66":0.1510397121873232,"67":-0.02385181572997197,"68":-0.10645119057873245,"69":0.09333133095667025,"70":0.12829999007545995,"71":0.0927617729095503,"72":0.06562678410702488,"73":0.03296295387006433,"74":-0.06784882960758094,"75":0.10121008979409801,"76":-0.07340771551186787,"77":-0.09697406191901813,"78":0.09732743045497644,"79":0.04423138199387797,"80":0.20257723915586823,"81":0.16381068134193894,"82":0.05865588908587693,"83":0.06993244695214494,"84":-0.13514179185912428,"85":0.036771911949393644,"86":-0.05520118896375788,"87":0.20384348365981883,"88":-0.09909377847978958,"89":-0.03886701357440667,"90":0.036920331112729486,"91":0.011343656977836422,"92":-0.013230970131681704,"93":-0.037188207294248814,"94":0.2649105259996357,"95":-0.04500246659739849,"96":-0.045416487418021456,"97":-0.0818184463272531,"98":0.03924958424570708,"99":-0.10386771861392607,"100":-0.15181557065152962,"101":0.26556588418214516,"102":0.00647776670578293,"103":-0.01930627252420405,"104":-0.15097292902949472,"105":0.014501945127728856,"106":-0.07530120019737556,"107":-0.17932764568302512,"108":-0.07194687292509352,"109":0.04745019180046369,"110":0.02672074777946564,"111":-0.055525668890846744,"112":-0.10806500112936694,"113":-0.05588722468847278,"114":0.003291690417303216,"115":-0.13298736573778602,"116":-0.034070746701238795,"117":-0.15884885402182086,"118":0.07375845320996531,"119":-0.023112604105007425,"120":0.2324534992070777,"121":-0.030881767744028493,"122":-0.18164936971565093,"123":0.17411432783334227,"124":-0.006900739157756395,"125":-0.04523186963057385}},{"sx":1,"sy":1,"depth":126,"w":{"0":-0.028316692921904432,"1":-0.07197072551297541,"2":-0.10573610276280929,"3":0.07798520241891468,"4":-0.07505037350866642,"5":0.03972916659069065,"6":-0.06515480756876245,"7":-0.030536549560469885,"8":-0.05201754593014249,"9":0.017444402328482652,"10":-0.13467413129765826,"11":0.14303154889480502,"12":-0.04177889324409256,"13":0.0641909038157986,"14":0.045093697382623026,"15":0.02827393491374689,"16":-0.013329496734129592,"17":-0.06970919958091251,"18":0.034438127015785705,"19":-0.11294072674173025,"20":0.02082559430104298,"21":0.30892627046827303,"22":-0.06449401039366019,"23":-0.17376397323915335,"24":0.03126492551859287,"25":-0.011088885437013696,"26":-0.06389057969216393,"27":-0.032902369564997085,"28":-0.014870533932678572,"29":-0.045360119533039214,"30":0.09218338961988609,"31":-0.195162935452265,"32":0.12225141795546308,"33":-0.006929248520648307,"34":0.15503517304143316,"35":0.10485962156384687,"36":-0.030944642265904657,"37":-0.048870562251067756,"38":-0.01701051877825904,"39":0.13330470455883295,"40":0.08174552485167833,"41":0.10068316538739717,"42":0.08743444225833165,"43":0.04899258100652186,"44":-0.045520127567153956,"45":-0.05504782216422443,"46":-0.061823949718764086,"47":-0.015866193725441555,"48":-0.08100187698251424,"49":0.08030541523493191,"50":-0.0020154829848507316,"51":0.1363682088066518,"52":-0.09687896028543894,"53":0.06940529108481017,"54":0.038515869220099405,"55":0.055942672097255376,"56":0.12977219812293514,"57":-0.04674427985926128,"58":0.07351946970965514,"59":0.016293938954238665,"60":0.1333883218254352,"61":0.09078577952623386,"62":0.1159391322656994,"63":0.06934879794364554,"64":-0.1423122605736169,"65":-0.11205161796614219,"66":-0.1493291865655672,"67":0.07386101145002764,"68":-0.0446739687687513,"69":-0.02865396488801139,"70":-0.02603955200397071,"71":0.07764654150079656,"72":-0.08329527140066499,"73":-0.026731921713466462,"74":0.07336891252809077,"75":-0.07411022376275749,"76":-0.017469277361564707,"77":0.03902250981974313,"78":0.04575693422538077,"79":0.03361354485602104,"80":-0.11878744086873806,"81":-0.1590296276022131,"82":0.03486700697099232,"83":-0.11564177606886836,"84":0.00007717304075313142,"85":-0.095035057278703,"86":-0.139261235424404,"87":0.000746792744538539,"88":0.02016259637523738,"89":0.06514170154861257,"90":0.19700839318840527,"91":-0.042503772021366466,"92":-0.1228218300291997,"93":-0.17108652572565858,"94":-0.14793615014103853,"95":0.04163850019148342,"96":-0.04213806053802235,"97":-0.09555864379092684,"98":-0.009498794855883744,"99":-0.0490582526186798,"100":-0.04503077119137629,"101":-0.10478447582702406,"102":0.016337709331667578,"103":0.12440027226926303,"104":0.052807884802532574,"105":-0.0038935716136692224,"106":0.05118523745740902,"107":-0.04287167294912224,"108":-0.016389137156545677,"109":-0.060795907237729166,"110":0.049429454935587876,"111":0.00829505828450984,"112":0.006674104722377804,"113":0.06245601017468695,"114":0.06184947776883391,"115":-0.0059957000170342695,"116":-0.0674281441787757,"117":-0.025132272285745473,"118":-0.11177372640916941,"119":0.028697984447607933,"120":0.09829705535350071,"121":0.05322779113827598,"122":-0.021395947730007702,"123":0.11695467522346176,"124":0.01056611303067015,"125":-0.16634921581025122}},{"sx":1,"sy":1,"depth":126,"w":{"0":-0.005972301956890959,"1":0.09580719759262726,"2":0.07842589523296496,"3":0.08882234699821409,"4":0.06725183704595893,"5":0.043961138371697885,"6":0.1162609625950734,"7":0.070180545204429,"8":0.03738584896201058,"9":-0.13535079438624495,"10":0.04874015552826181,"11":-0.02966574575068413,"12":0.052642923573510025,"13":-0.08027296378260712,"14":0.02043279759107499,"15":0.031843659906604004,"16":0.02868156073714166,"17":-0.028471871305235638,"18":0.02982938699750686,"19":0.021936844898972657,"20":0.10397995808167604,"21":0.10788939537529327,"22":-0.09178244634681196,"23":0.06454281200365967,"24":-0.04471537943194449,"25":-0.011599762987930102,"26":0.06638140816189708,"27":-0.005720819682588184,"28":-0.2055730937533323,"29":0.13034444209363227,"30":-0.1293946241940627,"31":0.10445199194981823,"32":-0.11210081434367025,"33":0.21069179427908988,"34":-0.029454913275302197,"35":0.06875300977384122,"36":-0.12890508132213702,"37":-0.057003727615889156,"38":-0.08881968562913527,"39":0.10593738515076816,"40":0.1270908662036049,"41":-0.036448791889920645,"42":-0.03526890154153677,"43":0.07916413622725528,"44":-0.16691251091207096,"45":0.05013813990245747,"46":0.05213806777865529,"47":0.02247325064338168,"48":0.046660415633736574,"49":-0.045504084279828785,"50":0.0992123564388927,"51":0.10335506056427825,"52":-0.01315292650356964,"53":-0.0066399186122627065,"54":0.00558961303047744,"55":0.024235704448059562,"56":0.15503489098351014,"57":-0.01853707435448467,"58":-0.03265631246125909,"59":0.07744857289660136,"60":0.2135448729038255,"61":-0.2289988741294505,"62":0.05322654881629096,"63":-0.19863477021169362,"64":0.02534394863109729,"65":0.01667540777481206,"66":0.02946706905016716,"67":-0.053377592686548805,"68":-0.030766120876920225,"69":-0.025414667349599296,"70":0.08881798794556942,"71":0.018112057159163183,"72":-0.18803071859097156,"73":-0.025219151801820328,"74":-0.010785897823137635,"75":-0.07027761122203156,"76":-0.006942479814282084,"77":-0.04460993007943925,"78":0.029434967218458005,"79":-0.08176987314062593,"80":0.09936476885273156,"81":0.020625109633655575,"82":-0.09652680011685164,"83":0.03936462271585096,"84":-0.020013730576457025,"85":-0.0703090321428004,"86":-0.17541164220130623,"87":0.07325492414838032,"88":0.07751558437756378,"89":-0.015401811932331777,"90":0.023698426378094068,"91":0.18148377740685798,"92":-0.08751197171459406,"93":-0.17098023251438968,"94":-0.047250313420183016,"95":0.0443864895092404,"96":0.07278953973293538,"97":0.037461053109902505,"98":0.12720809900299043,"99":0.02929923075896347,"100":-0.009691586911730155,"101":0.08145872133144628,"102":-0.1476388002602649,"103":-0.07764736491273062,"104":-0.08848201947331634,"105":0.12232907833727914,"106":0.11587260539867279,"107":0.10882876118332856,"108":-0.08017475931809638,"109":0.16870524204502757,"110":0.03871477829062047,"111":0.2059796582472322,"112":0.13764920080813542,"113":-0.0926974356653249,"114":0.0948184738710436,"115":0.08216504231283536,"116":0.14526476689692808,"117":0.013348076114228856,"118":0.0956549399515782,"119":-0.02522455075415697,"120":-0.011521121533201608,"121":-0.04623102737870709,"122":0.017938632420800044,"123":0.20827543867494006,"124":-0.02817205292199486,"125":-0.0007914270354362932}},{"sx":1,"sy":1,"depth":126,"w":{"0":0.012727016944318522,"1":-0.002638627721352905,"2":-0.06588273429280277,"3":-0.07900697984528547,"4":-0.10027595879407207,"5":-0.016595947507008085,"6":0.05608237952428,"7":-0.0564689974068578,"8":-0.06685412596558273,"9":-0.09405296427457628,"10":0.049110768512242546,"11":-0.024169463953932557,"12":-0.017881883621573443,"13":-0.055257999113247164,"14":-0.007834196076087173,"15":0.008627322247864088,"16":-0.008686656460747648,"17":-0.023219954423196083,"18":-0.06269991180772078,"19":0.12910348050750553,"20":0.20386349063135353,"21":0.03816926221054617,"22":-0.08669263614869437,"23":-0.06004309859983151,"24":0.07316963437939271,"25":0.04483178248290184,"26":-0.020502884930466776,"27":0.06253307768692642,"28":-0.047331655357742676,"29":-0.11832171258279112,"30":-0.0227342314308758,"31":-0.015456950534967194,"32":0.006744142271948441,"33":0.06030350698099318,"34":-0.016745991358576576,"35":-0.044661472518302006,"36":-0.05208685434600752,"37":-0.08152841563863789,"38":0.0027120233388656114,"39":-0.003068894809282833,"40":0.23684866371978133,"41":-0.019465248692586305,"42":-0.016128954078348103,"43":-0.15931825994242593,"44":-0.03963054739160769,"45":0.0023869758772311796,"46":-0.12704204792817303,"47":0.08718196521632092,"48":-0.00012890791541956664,"49":0.06457545394031544,"50":0.06507955204483964,"51":-0.08211181840884209,"52":-0.10443728384841916,"53":-0.021602035164583897,"54":0.02412714836227924,"55":0.2694169720065199,"56":-0.005615395643695103,"57":0.14138693655962412,"58":0.004547954130116062,"59":0.0560844404554177,"60":-0.09534532669075402,"61":0.21039262877511294,"62":-0.09281614623217811,"63":-0.21120659845530335,"64":-0.04481760273318685,"65":0.027274752247675584,"66":0.036075098762418656,"67":-0.1012704870615062,"68":0.14568778733608645,"69":0.12000970056602174,"70":-0.14191208630484375,"71":0.01144957105548441,"72":0.11730198910676685,"73":0.007601953087997711,"74":0.06293552855047406,"75":0.12770253348475594,"76":-0.09274451649837939,"77":-0.014712748278781227,"78":-0.11732813504092611,"79":0.1532515239927437,"80":-0.1354612674584989,"81":-0.13850472849633605,"82":0.0018575939123590076,"83":-0.014980139600135787,"84":-0.204810585182696,"85":-0.02191656146537115,"86":0.09805122137344378,"87":-0.015134911948443571,"88":0.24308775940093597,"89":0.03336142652220004,"90":0.1290278910097896,"91":0.12905223082525655,"92":0.010414269945203319,"93":0.05134381361356167,"94":-0.07536811097574472,"95":-0.02697246112808849,"96":-0.061152080754838536,"97":0.025862474654092298,"98":-0.05362858180541014,"99":0.0009898393200872837,"100":0.1430407991382151,"101":-0.09147814613456268,"102":-0.029765810291464998,"103":-0.058031130529546116,"104":0.015221826727790882,"105":-0.024399137175031612,"106":0.0741354687437869,"107":0.0934999319983159,"108":0.12106417210754872,"109":-0.03796997931764047,"110":0.010614259931029697,"111":-0.0474916884650726,"112":-0.09450514119000492,"113":-0.10136187895639026,"114":0.03004837610510918,"115":0.24178579904026923,"116":0.06698044125754747,"117":0.04673051228920855,"118":-0.020618675300172196,"119":-0.05191107390778686,"120":-0.1349301902525372,"121":0.16262156257327506,"122":0.013367890708217152,"123":-0.07413296005079711,"124":-0.038148743212229046,"125":-0.1370163798741532}},{"sx":1,"sy":1,"depth":126,"w":{"0":-0.11321164775261561,"1":-0.04324682177014869,"2":0.03777779566346046,"3":0.19529686886930142,"4":0.10367987515330981,"5":0.0009244620773320599,"6":0.07322709461204048,"7":-0.04432340254986081,"8":-0.11400742486469854,"9":0.05096743307056161,"10":-0.01489698268885168,"11":-0.012964013905877923,"12":-0.04019182880456341,"13":-0.08525159251942607,"14":0.01913817072011901,"15":0.06668415954191277,"16":0.06700381035223656,"17":0.01091116407443961,"18":-0.07586476232792795,"19":-0.1350248030963391,"20":-0.0907227248349175,"21":0.012606751756624034,"22":0.04103851651844118,"23":0.02791212705192105,"24":0.07198369215590593,"25":-0.09585611670900394,"26":-0.055194424414268355,"27":-0.09333718896819158,"28":-0.06544993607622701,"29":0.018166998846590374,"30":-0.07527838928622754,"31":0.0885884392378643,"32":-0.017867237034287865,"33":-0.2638807835250505,"34":0.012385831771134047,"35":-0.1328220706154226,"36":0.010974900938890088,"37":0.17214292294771275,"38":0.14247412515620902,"39":0.10616744645367743,"40":-0.010865334701736408,"41":-0.17209020867898156,"42":-0.003188938004745541,"43":0.16327151073572949,"44":0.03232565961013091,"45":0.07847007699729829,"46":0.01308435580816322,"47":0.06533562110103194,"48":0.03124645651391942,"49":0.08901860924067562,"50":-0.13499778467046827,"51":0.1463635417946496,"52":0.21980644199174898,"53":-0.06078231814841369,"54":0.011216628287765868,"55":0.07816616018242409,"56":-0.1904228119833601,"57":0.06910414216750516,"58":-0.09806890781024534,"59":0.2328901036284523,"60":0.012308509147334862,"61":0.22979873475791307,"62":0.004676600124578166,"63":0.017104614155383883,"64":0.22464888240506556,"65":-0.022554278752464067,"66":0.3377034093062237,"67":0.2216966454559194,"68":0.08815881853096197,"69":0.11754006983323592,"70":-0.138372384898946,"71":-0.07290913874096339,"72":0.01154033940212743,"73":-0.19500584894027487,"74":0.01251338584846146,"75":-0.11354929764097495,"76":-0.039374821876930484,"77":-0.030256680357438656,"78":-0.03162908734467499,"79":0.03414450745525601,"80":0.13124943042099463,"81":-0.114057131561414,"82":0.08441245170173226,"83":0.09194206497647926,"84":0.12434801099430536,"85":0.10209907394862021,"86":0.17083216271058482,"87":0.09505761455518978,"88":0.1541368057105995,"89":-0.024656345288823663,"90":0.0714336320924239,"91":0.08427401630428222,"92":-0.09154728274929318,"93":0.00896871119658648,"94":0.19313474350909254,"95":0.024202831338560434,"96":-0.04288380134188456,"97":0.0054139486608517605,"98":0.181379347877455,"99":0.1128380353057697,"100":0.0993182673429168,"101":0.19076887449891713,"102":0.05872618000129316,"103":0.03770604450307096,"104":-0.10811371165181079,"105":0.0290881303149887,"106":-0.11272112280802983,"107":0.22578398769304467,"108":-0.2656918643764214,"109":-0.04204199225430768,"110":-0.03672883682490913,"111":-0.07659580651890113,"112":0.04343680145379156,"113":0.04330919397761927,"114":0.11469137403911969,"115":-0.2188638178980353,"116":-0.012579162625767776,"117":-0.23429113870871415,"118":0.08015695753850453,"119":-0.18099991478551986,"120":-0.14695985701237413,"121":0.10160596933285762,"122":-0.27176761498569274,"123":0.16062509579936712,"124":0.04761919482859763,"125":-0.06088427971895735}},{"sx":1,"sy":1,"depth":126,"w":{"0":0.01704883446762975,"1":0.016057028752544375,"2":0.16049371113053712,"3":-0.015735070545197773,"4":-0.10220596542071658,"5":0.07262091648329289,"6":-0.11820798352545078,"7":-0.009148688872771387,"8":-0.013300037636535951,"9":0.15817341494520878,"10":-0.013150129062345955,"11":-0.010232450437916634,"12":-0.06494996061573631,"13":-0.009788271561790705,"14":0.019945855606107295,"15":-0.12105726817812591,"16":0.05898818040958809,"17":0.07041100720584284,"18":-0.013969608116683336,"19":-0.02624587887464708,"20":0.03697554180042602,"21":-0.040061719742315136,"22":0.013781442553025785,"23":-0.0027494452361978916,"24":0.26180857338904134,"25":0.011237981187794231,"26":0.06736272069659555,"27":-0.03704020243235659,"28":0.11935784779456217,"29":0.039594156686871676,"30":0.04404716901122076,"31":0.002306491361732411,"32":-0.1485457925933844,"33":-0.1741619556327899,"34":0.04120226313815921,"35":-0.11435276904139363,"36":0.07339844153518542,"37":-0.03844471728223363,"38":0.10582313547151852,"39":-0.04783000584108376,"40":-0.005055800161654551,"41":0.011682232648941124,"42":0.13351605535841377,"43":0.10236020090100792,"44":-0.03206900253431045,"45":0.07412332657472191,"46":-0.034903433201180195,"47":0.023018927093710922,"48":0.17201001017801332,"49":0.029752906450783597,"50":-0.011105718183381205,"51":0.11134497239427257,"52":0.14918221342911991,"53":-0.17535232466622422,"54":-0.022224495351744,"55":-0.10365111667407849,"56":-0.06365370936938922,"57":0.09706338421499086,"58":-0.03874563256309639,"59":0.31524738393269053,"60":0.13940681760228096,"61":-0.05802103205900405,"62":0.2151303073457728,"63":-0.012324064578435802,"64":-0.005342994492621954,"65":0.1473247952253952,"66":0.186970053900328,"67":0.01616324850781455,"68":-0.06525161146393818,"69":0.0043422162598758685,"70":-0.11594258129838439,"71":0.2533693882702117,"72":-0.005880691750425573,"73":0.06680501419912337,"74":-0.006773160789014497,"75":0.20360834621655408,"76":0.0446145151729947,"77":0.08711199221914187,"78":-0.1886544970326563,"79":0.1562730848796451,"80":0.3069277961858702,"81":0.10285363926758119,"82":-0.0950267514817207,"83":0.029116049945621083,"84":-0.02867409753223069,"85":0.09291421808058525,"86":0.18677705797569644,"87":0.32689625408648854,"88":-0.18794442602220454,"89":-0.07121960293519199,"90":-0.1314707583576757,"91":0.0732313617205452,"92":0.023751077182996228,"93":0.18950011636127248,"94":0.1166881891228081,"95":-0.18047494263633426,"96":0.03195767498088192,"97":-0.18024432431315002,"98":0.06812791214978973,"99":0.01604351016289193,"100":0.13771980114280966,"101":0.3170585059579988,"102":-0.258799937646013,"103":0.11218287875930064,"104":0.07879633488059765,"105":-0.02428561428968416,"106":-0.04017164897340314,"107":0.09907668490836306,"108":-0.10902910189293277,"109":-0.10690180642168452,"110":0.01765477090174255,"111":0.11280656053136943,"112":0.046819638253928104,"113":-0.01307692787739365,"114":0.11664792418579818,"115":-0.16172538012333323,"116":-0.09792942902131344,"117":0.17119257862753035,"118":-0.13904802112366074,"119":0.05674362817467426,"120":0.04590276124928907,"121":0.27396439164964675,"122":0.028161772845990567,"123":-0.11624655329974606,"124":0.10277772543560018,"125":-0.03059581490197827}},{"sx":1,"sy":1,"depth":126,"w":{"0":-0.08715798296135394,"1":-0.03064247040446383,"2":0.03032796275909836,"3":-0.009271684374865866,"4":-0.09449720594920029,"5":-0.008282218964870676,"6":-0.16803842113351855,"7":-0.0218931296056352,"8":0.09725864285796956,"9":0.06946007492333804,"10":-0.06245136923567106,"11":-0.18358646642311885,"12":0.09309061873173584,"13":-0.07808887437309657,"14":0.06475108437377998,"15":-0.055692661337245715,"16":-0.049948743066717274,"17":0.15169957477263216,"18":0.254661466751909,"19":-0.009721127544254861,"20":-0.08556143217872532,"21":-0.11022853192784542,"22":-0.07276374004066108,"23":0.01666978143988404,"24":0.06794032016766072,"25":0.037108683665486794,"26":-0.04562272460005748,"27":-0.08083188088475125,"28":0.005813856645746268,"29":-0.05286804736556358,"30":0.07529799333816363,"31":0.05086418461564286,"32":-0.17870229733809329,"33":0.10248583452528871,"34":0.11603811252454768,"35":-0.01781640077926242,"36":-0.029489630885970355,"37":0.008135032572417884,"38":0.03337847230994082,"39":0.037190645334487904,"40":-0.26491119303102467,"41":0.0779137110484435,"42":0.07415718709986006,"43":-0.041886956914759375,"44":-0.13468155805548576,"45":-0.02723736732783891,"46":0.08895605173093764,"47":0.13227298440065888,"48":-0.052966667830044445,"49":-0.14529951813466432,"50":-0.025242564889745425,"51":-0.027525610753269023,"52":0.09187504178069644,"53":-0.05606420665579121,"54":0.08841988223540449,"55":0.07282102292836298,"56":-0.08482479166047369,"57":0.021082809528270303,"58":0.007379215663465821,"59":0.08256067500507192,"60":0.019765132277631006,"61":-0.09100325504654122,"62":0.04066605164865961,"63":0.07389575680407355,"64":0.09232195966888296,"65":0.09883785960617912,"66":0.06733343951930854,"67":-0.06285909961759548,"68":-0.062063075131212536,"69":0.03562748851813371,"70":-0.011644671219126662,"71":-0.04620792407223155,"72":0.046791739692563936,"73":0.0370287845870635,"74":-0.02365216878968015,"75":-0.10512437095067606,"76":-0.1527392275462386,"77":0.08206755007942573,"78":0.004177063695623119,"79":0.05005367358764744,"80":0.11480899664482623,"81":-0.047396865058576654,"82":-0.08939103576792906,"83":0.21635572427720073,"84":-0.025728125410009302,"85":0.02935144164835224,"86":-0.08234732896658357,"87":0.08538401916584684,"88":0.15725611884059115,"89":0.06559056799950759,"90":-0.018376411737234748,"91":-0.04430381943620334,"92":-0.011375562550199801,"93":0.012335393920689228,"94":0.06515210545611842,"95":0.16951926967127928,"96":-0.0509660314938736,"97":-0.06705782681417263,"98":0.11371382062110504,"99":0.13049610013804555,"100":-0.11285726486913536,"101":0.15214121333162162,"102":0.11237283049479684,"103":0.12764364031373504,"104":0.010314923371934943,"105":0.024978602132818113,"106":-0.08979333866353284,"107":-0.042114253491149785,"108":-0.031194522255763812,"109":0.19120202556000948,"110":-0.03951970562210742,"111":0.03229009196173097,"112":-0.06351229323913428,"113":0.1116120764541244,"114":-0.001131296954358346,"115":0.030448662197627843,"116":-0.03185343068442221,"117":0.03669808203074148,"118":-0.01874416676398611,"119":0.048161411678160154,"120":-0.14177860398971862,"121":-0.11179379106373839,"122":-0.0004967831953023834,"123":0.32505766269398906,"124":0.1491604388406552,"125":0.04433732759543679}},{"sx":1,"sy":1,"depth":126,"w":{"0":0.06892807542463404,"1":-0.08926822090905269,"2":0.06000773062339554,"3":-0.07729637428642035,"4":0.051916864406498404,"5":-0.09516884049032752,"6":-0.005257451132778156,"7":-0.08690042242121412,"8":-0.12789221087764022,"9":0.013791249835380357,"10":-0.08654957533519161,"11":-0.16037909285794896,"12":-0.16541792386549242,"13":0.12254865657791553,"14":0.09769281846115878,"15":-0.08800900523217846,"16":0.021498831902999446,"17":0.16304228875217888,"18":-0.11589709057854015,"19":0.04088036530432966,"20":-0.11370968452243113,"21":-0.06886387428641573,"22":-0.0403295713757056,"23":-0.10163215000238839,"24":-0.017184770959824257,"25":0.08036972351548602,"26":0.045720620691772955,"27":-0.028583966567267013,"28":0.089032634545357,"29":0.1954856347119653,"30":0.09617276140390377,"31":0.161557924341648,"32":-0.11776296505695942,"33":0.06621604564316133,"34":-0.09299951614869086,"35":-0.022280606017894108,"36":0.0004736114838733701,"37":0.11897041436392922,"38":-0.014153231021708913,"39":-0.01094659524902882,"40":-0.06396550086351926,"41":0.0937614993464691,"42":-0.06823861512486029,"43":0.0028241164493550937,"44":0.00949512486862575,"45":0.12642710597014256,"46":-0.04622408554546939,"47":0.03073081527852326,"48":0.14510727810382248,"49":0.12864881487315602,"50":0.0752102635409427,"51":-0.009060924572459791,"52":-0.0025586152232079957,"53":-0.15996407994433734,"54":-0.10805389708735885,"55":-0.008661162008903496,"56":-0.023022285174910992,"57":0.007264725943188774,"58":0.07500234350484367,"59":-0.09620150221569225,"60":-0.15958761064426966,"61":-0.02432541630601902,"62":0.01877000416718508,"63":0.040888189548421376,"64":0.0011443370824797338,"65":0.11801386814618556,"66":-0.014552240977418699,"67":0.0005379041919511044,"68":-0.11231590559405097,"69":-0.1630411988927424,"70":-0.12207472273141075,"71":-0.015251266609131084,"72":0.12132373784788227,"73":0.021114501102578082,"74":-0.008052132271075898,"75":-0.029060399727504467,"76":0.1560247083695781,"77":0.008438792794510723,"78":0.07367849327623494,"79":-0.10456940271571079,"80":0.031032441159138148,"81":0.06542490022039993,"82":-0.13388020616551705,"83":-0.07459446731801404,"84":0.0051986870900278355,"85":0.021434336219384943,"86":-0.021896593900845012,"87":-0.04851053898466978,"88":-0.015825291678480468,"89":0.016937442233739327,"90":-0.07885857787589201,"91":0.11359960641688134,"92":0.2258279330987649,"93":0.013803023127886949,"94":0.04874804256241755,"95":0.07177798706459787,"96":-0.09250423147303674,"97":0.06240468683603648,"98":0.0852814508386526,"99":-0.030266075431815427,"100":0.023724729695707582,"101":0.1717228624243529,"102":0.08630716634784055,"103":0.05657260825378716,"104":0.0024124909064104543,"105":0.0018848393547755543,"106":-0.12213371800822934,"107":-0.0372445156702544,"108":0.10936375333444075,"109":0.05776610718253626,"110":-0.06167841572383465,"111":-0.18211856126150855,"112":-0.016891791154041817,"113":0.18198636250628716,"114":-0.1615301771204167,"115":-0.13957343424162613,"116":-0.043404954732671974,"117":0.00571001015229512,"118":-0.08214448232777181,"119":0.08328680363881022,"120":-0.08058591188192431,"121":-0.10266719976794914,"122":-0.06744984530402671,"123":-0.04702731453959638,"124":-0.02559822541440889,"125":-0.1351523949777934}},{"sx":1,"sy":1,"depth":126,"w":{"0":0.12304095013130496,"1":-0.041233129516093314,"2":-0.07259156096760229,"3":0.06086674192923331,"4":0.2012627243938685,"5":-0.018149585993258117,"6":0.05222452242118071,"7":0.032127520250769044,"8":-0.15379042135342122,"9":-0.09259015001959259,"10":0.10736286819365078,"11":0.12193263313018267,"12":-0.06683789289299967,"13":0.03526183641683149,"14":-0.05905746361590078,"15":0.09568850667145677,"16":0.07420875799426327,"17":0.06971707387370436,"18":0.10096971095160405,"19":-0.03587087274198186,"20":-0.2137127300023637,"21":0.03711667453519313,"22":-0.03922701411524926,"23":0.015143564415824057,"24":0.03868870171046545,"25":0.13942141810453026,"26":0.02706080568376557,"27":-0.027206462924252647,"28":0.018633267235615373,"29":0.059686106651499336,"30":0.07886070105214907,"31":-0.028862488317973188,"32":0.10611512413900033,"33":-0.018415243557216156,"34":0.11544343960217632,"35":0.0953242791826867,"36":0.0796302422908389,"37":0.03747232633030302,"38":-0.1205945292240034,"39":-0.06322129574580984,"40":-0.2507013019444605,"41":0.027993582022358764,"42":0.024546524071380308,"43":-0.1525337828676651,"44":0.06361608795086506,"45":0.0983607627684845,"46":0.1489415593187217,"47":0.00021351154242353916,"48":0.027283805766022722,"49":0.06313064068851094,"50":0.035287715814083076,"51":0.021838536777455484,"52":-0.1670002700120873,"53":-0.006435947712869012,"54":0.04397716174327046,"55":0.10096836241550332,"56":-0.09301261884748467,"57":-0.036376022109400705,"58":-0.10279430056199555,"59":0.1405202289127656,"60":0.009010127170553394,"61":0.09390600417558596,"62":0.09843611798439199,"63":0.026592104631529626,"64":0.05375082956559899,"65":-0.2086947561409826,"66":-0.022584281230365835,"67":0.10937038061256643,"68":-0.06505303315279662,"69":0.15650577838280583,"70":-0.18590889297476182,"71":-0.16218814223946926,"72":-0.10734075006823593,"73":0.1802329976529009,"74":-0.011949253060381831,"75":-0.04510189432645176,"76":0.05831635885715933,"77":-0.11002700474189687,"78":0.0853348001223711,"79":0.13456491803225326,"80":-0.10414926991784527,"81":-0.03701599473811598,"82":-0.1895147705584936,"83":-0.01358554403832798,"84":-0.05567546636411457,"85":-0.07043295664609228,"86":0.017856066685960736,"87":-0.05995133455648649,"88":0.05824856153108161,"89":0.05891151527771282,"90":-0.12803773773875252,"91":-0.07282665346420619,"92":0.1519840748137618,"93":-0.16588511123367755,"94":-0.23882850071116724,"95":-0.12900065944035954,"96":-0.07326665584647546,"97":-0.021601218246538777,"98":0.0407316420238843,"99":0.04638494488836716,"100":-0.07380106097366029,"101":-0.08113099613472567,"102":-0.03301852631583823,"103":-0.07671782793896564,"104":0.0930978121379894,"105":-0.009650077846978843,"106":-0.031437779742138704,"107":0.11600438145834369,"108":0.01208801589313758,"109":-0.1673342508035655,"110":-0.14779195272668044,"111":-0.08000135020774483,"112":0.010432046241402527,"113":0.00859277406766177,"114":-0.07288337212642605,"115":0.017640987826388236,"116":-0.0309209453704173,"117":-0.11021186354605403,"118":0.11811816605342954,"119":-0.23595394280484439,"120":0.10256428211985677,"121":0.11931003449014961,"122":0.014400326346317532,"123":0.05194396692934284,"124":-0.17678201748484632,"125":-0.04650168051075526}},{"sx":1,"sy":1,"depth":126,"w":{"0":0.10421678354895411,"1":0.17719415493771187,"2":-0.1322342204360765,"3":0.07678408582006975,"4":-0.09367830486254934,"5":-0.03314805312558643,"6":0.015111620376289128,"7":-0.016865910110974727,"8":-0.12603140364859855,"9":0.01153706905009564,"10":0.04426031870364688,"11":0.1120338913757805,"12":-0.20819050231931494,"13":-0.16263693117524336,"14":-0.06919152945588347,"15":0.08941836701838529,"16":0.008767211881100282,"17":-0.07102981984329367,"18":0.12468772933297771,"19":0.18395507055948432,"20":-0.047611870384427886,"21":-0.03288904557932298,"22":-0.05278786836326439,"23":0.11355427872891127,"24":-0.06903774913897238,"25":0.0034793069444169905,"26":-0.07306523742955391,"27":0.06342291785954597,"28":0.02097354950275601,"29":-0.05142964187922363,"30":-0.18917462476094474,"31":-0.13887909432589637,"32":0.035655113450710714,"33":-0.007511202675328962,"34":0.042576628611346236,"35":-0.07808450841187947,"36":0.05548735280363481,"37":0.09892982864752203,"38":-0.027305015613607368,"39":0.16222678851710612,"40":0.1078105949399958,"41":-0.04074354540040591,"42":-0.09843962670893132,"43":-0.016336474292629275,"44":-0.07894267536481853,"45":0.005110634716761897,"46":-0.052842506838481546,"47":0.1839523849848667,"48":-0.13005007975209357,"49":-0.09863287168954414,"50":-0.023905055052346556,"51":-0.12038754355961498,"52":0.06400917715414592,"53":-0.13393496184461498,"54":-0.005625908810652733,"55":0.09123536277472069,"56":-0.1172989717739528,"57":-0.0459082836556424,"58":0.04841614148394753,"59":0.02677734772827132,"60":-0.08792324355801705,"61":-0.043790241107699024,"62":-0.06405748189745107,"63":0.015042629752227756,"64":-0.13642286752453905,"65":-0.019067247089787378,"66":0.11484762492456246,"67":0.058869102264058254,"68":-0.0002075444715362684,"69":0.10430178010841083,"70":0.11454544135815019,"71":0.041821074973320146,"72":0.09329627919033184,"73":0.01738906022777718,"74":0.10451003023493859,"75":0.03707620614723559,"76":-0.1364042038316099,"77":0.047570513688964755,"78":0.018597772659195405,"79":-0.17255348252878108,"80":-0.041103836683755335,"81":0.04698430247806353,"82":0.0067207670006195356,"83":0.06628234518931606,"84":-0.005523149216422195,"85":-0.02730741970014965,"86":0.11686267253612218,"87":-0.09567493857777876,"88":-0.08834668721786204,"89":-0.03516691694296241,"90":-0.1347338031251453,"91":0.06894325286441912,"92":0.008016154706540738,"93":-0.055305011703243936,"94":0.0015436708193455127,"95":0.13961802469389087,"96":-0.019982809543006297,"97":0.025318886513504828,"98":0.09041032736321246,"99":-0.0361436566639914,"100":0.05226258926169414,"101":0.049334925137127804,"102":0.0467940057458786,"103":0.03057102896068934,"104":-0.046976053128498056,"105":-0.01761372216618596,"106":0.12274403767271255,"107":-0.181156046422861,"108":-0.00391504773067655,"109":0.019677493452629598,"110":-0.14301823550049036,"111":0.09366453574743551,"112":0.14605126416885825,"113":-0.016222210838515872,"114":-0.08542750757678498,"115":-0.003221600998810755,"116":-0.11058197351583919,"117":-0.0764513102535042,"118":0.054322924895769745,"119":0.005413457016093973,"120":-0.053078474970388013,"121":0.1800932631458389,"122":-0.0093983364722036,"123":-0.08687005578181431,"124":0.05341872446372849,"125":0.08385753526546506}},{"sx":1,"sy":1,"depth":126,"w":{"0":0.0907173866040727,"1":-0.05899777826802493,"2":-0.05910735631599061,"3":0.08480485516157178,"4":0.06367576494955358,"5":0.0456750591005697,"6":-0.17732966054328422,"7":-0.08083377432607473,"8":0.10047475200502534,"9":-0.029988675852597246,"10":0.134980013628169,"11":0.03868588437700852,"12":0.10292980506203295,"13":-0.045944850322195814,"14":0.1431214452308656,"15":-0.08608707110819354,"16":-0.1117390235440397,"17":-0.12132782116103644,"18":-0.0108326652575998,"19":0.07265668123460228,"20":0.08855797790106482,"21":-0.04185434389091276,"22":0.03197740455919335,"23":-0.033542312322457836,"24":0.05642737873210001,"25":0.25678793830511465,"26":-0.1397899781364025,"27":0.010128305332679654,"28":-0.010811671965807356,"29":0.07332852315983797,"30":-0.06497413482994707,"31":-0.09771734303725405,"32":0.02549996662417408,"33":0.1712830022083868,"34":-0.03522003458036914,"35":-0.007244878184230951,"36":0.05851980722801784,"37":0.027893102344906516,"38":-0.14479658395864844,"39":0.10568299471328857,"40":-0.12289474987174813,"41":0.024893928827047954,"42":-0.025772901989092906,"43":-0.07007461035634381,"44":0.00007173617295753709,"45":0.045725158895810004,"46":0.16788331324458078,"47":0.12565695174845842,"48":0.05209141456549644,"49":0.07542921572142626,"50":0.04765122913240089,"51":0.06682640488742525,"52":-0.07099404506452212,"53":0.09409561574371889,"54":-0.20448865771953378,"55":0.06518321508138945,"56":-0.19821825671700685,"57":0.02713420891213121,"58":-0.02079882294523695,"59":-0.06237412207881626,"60":0.043547316659149723,"61":-0.018725226417892215,"62":0.03599441999369445,"63":0.1390759310579135,"64":0.07402523723197388,"65":0.017809970084703454,"66":0.09315503703218987,"67":0.02264569098215469,"68":0.1816431311930699,"69":0.0628072391639785,"70":0.05283862000899906,"71":0.12391198369655668,"72":-0.14967186354446954,"73":-0.09741695552679805,"74":0.141954776481228,"75":0.0027059760092661474,"76":-0.0025696497469765195,"77":-0.05847736246462681,"78":0.03768822457492171,"79":-0.0468048369062021,"80":-0.05795235408948292,"81":0.04192715726178867,"82":-0.04425751329431615,"83":0.019537498886993555,"84":-0.035973376403780455,"85":0.10880273748197887,"86":-0.046070194254858976,"87":0.013252951457687033,"88":0.34873074456313025,"89":0.032017724895996254,"90":0.060977605019570565,"91":0.0540679341451288,"92":-0.15320161875923516,"93":-0.003163968214470063,"94":-0.2133250390053127,"95":0.31230072859726166,"96":0.03482705808759801,"97":-0.017515953614585855,"98":0.046393447910075526,"99":-0.028516416739080695,"100":-0.02869667873504521,"101":0.024433930665205356,"102":0.3398650311574175,"103":-0.009946183233669866,"104":0.01959297831204291,"105":-0.026058651011136073,"106":0.013428177108710129,"107":0.06191723517706452,"108":-0.09821217428586765,"109":0.1538829046727305,"110":0.01860819024863975,"111":0.033832616337555965,"112":0.04336316892200217,"113":0.1160495279037099,"114":0.12148854247851272,"115":-0.05024250728178151,"116":0.1441442945458211,"117":-0.10344673813044618,"118":-0.027311406768861127,"119":0.19704074167250277,"120":0.06621639987588741,"121":0.09330499041683427,"122":-0.152309163580438,"123":0.29726614770039406,"124":-0.04183335461092288,"125":0.02370835098834359}},{"sx":1,"sy":1,"depth":126,"w":{"0":-0.10288214094664665,"1":-0.02564427293828263,"2":-0.0735459657646567,"3":0.019959404176377128,"4":0.04383421291798538,"5":0.04287663992512369,"6":0.05586441165178166,"7":-0.14087475777543854,"8":0.01831136160549643,"9":-0.01296449071009165,"10":-0.23979684817450114,"11":-0.04017919527136514,"12":-0.08500639871381556,"13":-0.051699111450095044,"14":-0.16562769004853087,"15":0.0571398677544576,"16":-0.17414843051353493,"17":0.1868406009912876,"18":-0.044435962843799755,"19":0.011489028542230651,"20":0.010562812418227516,"21":-0.11372152056767182,"22":0.0028176927803670627,"23":0.07847635281866817,"24":-0.016793165205953867,"25":-0.007488748861797258,"26":-0.14714091539880272,"27":0.022302611456398492,"28":0.20461848826715276,"29":-0.01621097692583831,"30":-0.07651491591133883,"31":-0.11686883656521141,"32":-0.32787116013179274,"33":-0.0575588584468921,"34":0.008551659890530606,"35":-0.020378658402885316,"36":-0.026086139822471398,"37":0.13185079263697944,"38":0.05359258538466913,"39":0.01706137991571778,"40":0.1247151653079879,"41":-0.10125332734539601,"42":0.0841631009590864,"43":-0.037710603188909515,"44":0.0454783659935807,"45":0.020526094802696578,"46":-0.0007499171342859622,"47":-0.09662246100172157,"48":0.014242015273065551,"49":0.11076251934242508,"50":0.17651819743156372,"51":-0.05302613856599735,"52":0.1506565340518285,"53":0.1632196223529354,"54":-0.1430551398293668,"55":0.026113948280278423,"56":0.02137025035482756,"57":0.06441029623806138,"58":0.003902813675659217,"59":0.038661560696674396,"60":-0.13773771655929387,"61":-0.015153655098270971,"62":-0.004893841177876335,"63":0.04410111187889494,"64":-0.0070231507870227835,"65":-0.024667811285879956,"66":-0.017832029125590933,"67":-0.11868673814666861,"68":-0.10049446712450619,"69":-0.05667394005070072,"70":0.03304111067943865,"71":-0.10943390407100562,"72":0.13381334006099987,"73":0.037278192212422206,"74":-0.14564638155425694,"75":-0.13990054676391275,"76":0.028547494112884524,"77":-0.0696482073299716,"78":-0.0197253907593627,"79":0.09140025757214063,"80":-0.00351803066327117,"81":-0.1050018618181069,"82":0.05017352289105148,"83":-0.06839295855729469,"84":-0.034033338380629614,"85":-0.06455631689013654,"86":-0.03204490351845942,"87":0.15331724201722532,"88":-0.04997045696804672,"89":-0.12079976161655857,"90":-0.05115419341176966,"91":0.01417236603828613,"92":0.024380297270247063,"93":-0.01797356832039156,"94":0.08655931159357338,"95":-0.10692906784434064,"96":-0.055976820103030636,"97":-0.10147721818006342,"98":0.041625286113186374,"99":-0.0334212768132987,"100":-0.08937497134375892,"101":-0.07269013105733314,"102":-0.07192416696498473,"103":-0.13423639138240728,"104":0.13251791831429383,"105":-0.018762930926199038,"106":0.006242479323611251,"107":-0.020914012349448185,"108":0.03164732274112217,"109":-0.06969584378720028,"110":-0.1558504018705412,"111":0.007852017999596348,"112":0.1383451597459366,"113":-0.07081217666263386,"114":0.05463161504616922,"115":-0.02874392886707927,"116":0.02593530396054961,"117":-0.10439734547529138,"118":-0.10978556804078518,"119":0.04601330722428482,"120":0.15981365804693892,"121":0.057645067341183645,"122":0.0858559095481822,"123":-0.022723282669926174,"124":-0.05330944152240791,"125":0.06522567128014545}},{"sx":1,"sy":1,"depth":126,"w":{"0":0.021055527762245018,"1":0.043144353294032566,"2":0.09125147315423923,"3":-0.07247704634488926,"4":-0.049570082355170214,"5":0.06603275221874791,"6":-0.13248960578034683,"7":0.002107369353175857,"8":-0.02335665854270427,"9":0.08620312576378698,"10":0.0007947906296033993,"11":-0.24479795084882747,"12":0.0975852641910546,"13":0.02848500373500839,"14":-0.028194760114010137,"15":0.07249513983019722,"16":0.01767479338222822,"17":0.056283897796732124,"18":-0.13245577153398036,"19":0.04569768308824662,"20":-0.0287533632951499,"21":-0.04573363018410813,"22":-0.012859013228166988,"23":0.032079991911357006,"24":-0.055271251426361655,"25":-0.13080959869443476,"26":-0.0715984985375854,"27":0.018448229583524232,"28":-0.06483975276205046,"29":0.2617898965100387,"30":0.09788892871100346,"31":-0.024082362075762063,"32":-0.0017584592822729157,"33":-0.16223205278247804,"34":0.02190639993338133,"35":0.0006374190407921231,"36":-0.0752074104670966,"37":0.07816593771443453,"38":-0.0632799116851042,"39":0.0060165254793661475,"40":-0.010126795936848211,"41":-0.12528566103721359,"42":0.1588477592601248,"43":0.1300033185509521,"44":0.10312367861208482,"45":-0.07859480853818601,"46":0.15853572245849892,"47":0.06810366140663748,"48":-0.15811938020807326,"49":-0.11319877589436675,"50":0.10974349052833794,"51":-0.011416475684441799,"52":0.00923668348284596,"53":0.00974677933815936,"54":-0.06842074165274943,"55":-0.008087185077822112,"56":0.06730115563301124,"57":0.03073258867132869,"58":0.0004956477497983494,"59":-0.13578152333263138,"60":0.10121091432625039,"61":-0.04692295945254949,"62":-0.10169550943663376,"63":0.011245677731861853,"64":0.12270812919537122,"65":-0.06715971241684454,"66":0.1185981059226658,"67":-0.034484174207560093,"68":-0.10785303761021584,"69":-0.011802142527510925,"70":0.02845790981930199,"71":0.15973288545841033,"72":-0.014473816896241972,"73":-0.0693795027886448,"74":-0.06012276865511463,"75":0.06234769971394079,"76":0.09976076350277208,"77":0.03523953714332605,"78":-0.10235266764864726,"79":0.08659676506936631,"80":0.07971045031375242,"81":0.03570322395149992,"82":-0.034859197811698786,"83":-0.16049190108901276,"84":-0.021557209147633406,"85":0.06456564476468599,"86":0.2457496246646479,"87":-0.05138578664231596,"88":0.045187408323547396,"89":0.030900568398373594,"90":-0.05576051041587321,"91":0.02271158046935302,"92":0.015121694833482639,"93":0.21688440964889794,"94":0.003195657287358481,"95":-0.02011263971532942,"96":-0.03084423421404049,"97":0.07992584893392639,"98":-0.04779255624345604,"99":0.11171102493258186,"100":0.17552208547683348,"101":0.1224186147218458,"102":0.04268838977976476,"103":0.07581202353727366,"104":-0.08328251348246266,"105":0.07330402921936363,"106":0.10859910646626433,"107":0.22689587718756982,"108":0.04645263144077307,"109":0.20481744716372904,"110":0.08097856675354936,"111":-0.020514279479533003,"112":0.1408069609298855,"113":0.10016979065396926,"114":0.2725430001590729,"115":-0.06350988007268697,"116":0.05220145482515568,"117":0.026917873844427634,"118":-0.0898209013094442,"119":0.022323693669026364,"120":-0.040610436662489945,"121":0.1476317230948263,"122":-0.1291300679475893,"123":-0.027737713530262505,"124":0.11765775600885121,"125":-0.04572382787750223}},{"sx":1,"sy":1,"depth":126,"w":{"0":0.05393644404422845,"1":0.04343099586187846,"2":-0.11379826023063801,"3":-0.06748150387982423,"4":0.11851088354514236,"5":-0.03746404155746663,"6":0.01260288387936182,"7":0.07816581095414699,"8":0.04322090663991211,"9":-0.12146537358646939,"10":-0.05448681231648951,"11":-0.028173601677391375,"12":-0.07196812485345584,"13":0.04065210929219606,"14":-0.06556251775571292,"15":0.06969820165750786,"16":-0.1381541364143101,"17":-0.07083844705605165,"18":0.092845266470194,"19":0.013046891959095076,"20":0.09798020179625963,"21":-0.06937142615464306,"22":-0.12116031918992554,"23":-0.1336989021963033,"24":0.12636865314021092,"25":0.10591953397363928,"26":0.03478543964703071,"27":0.11733391364780564,"28":0.01370966190549287,"29":0.03974273259038599,"30":0.017991306292931584,"31":0.10954598770942028,"32":0.04226944866995089,"33":0.01066591732845854,"34":-0.0585962323130008,"35":0.0674332891767085,"36":0.07576239609507854,"37":0.00782112180642296,"38":0.13178255774991465,"39":0.1275129289221318,"40":0.09478341411142069,"41":-0.1819742875568773,"42":0.004224013220520084,"43":-0.02148389396889173,"44":-0.013464236005791322,"45":0.16062891317546696,"46":-0.07565496500594686,"47":0.0773051060724083,"48":-0.16244518714000913,"49":0.1702278216607353,"50":-0.08087949333541859,"51":-0.005546583523284853,"52":0.06649134672539835,"53":0.004088195240888956,"54":-0.06231919114993351,"55":0.037722908842653606,"56":0.0272219294269204,"57":-0.014791309498498023,"58":0.02236709465918454,"59":0.04161438652467139,"60":0.10440473933799982,"61":0.05463004895670257,"62":-0.03538988194288478,"63":0.05098887690194829,"64":0.11382030478420638,"65":0.0018608274672001785,"66":0.06746478338855695,"67":0.0035079506307853932,"68":0.05618883652185929,"69":-0.10383039714601068,"70":0.168163681662852,"71":-0.10465588244941006,"72":-0.01444363321252124,"73":0.07384116403135878,"74":0.09616162789509873,"75":-0.12267706658523027,"76":-0.0835005082486712,"77":0.030431901766069344,"78":-0.1147009223437328,"79":0.04085583589552224,"80":0.3460321764868107,"81":0.025392823880445396,"82":-0.22460277219122232,"83":0.037756535744965077,"84":-0.06326741116759566,"85":-0.004446602314579565,"86":0.012040913580857125,"87":0.3643024974504857,"88":0.02923596903094416,"89":-0.1229249537465996,"90":-0.009420924966179392,"91":0.04108780468194959,"92":-0.11017776057509765,"93":0.012332969410997052,"94":0.09673139191360412,"95":0.06932210590943708,"96":-0.03315081405241906,"97":-0.044247768725425574,"98":0.19765271349241442,"99":-0.008683509970204117,"100":0.05706713974716473,"101":0.11749793855594057,"102":0.06967849591856616,"103":0.08670040403333176,"104":-0.12486022909761701,"105":-0.08821928867558636,"106":0.04065461106321244,"107":0.0613927044764814,"108":-0.0948084909140659,"109":0.08971848024676664,"110":-0.11467901954007725,"111":0.05873900490797963,"112":-0.09341309715282554,"113":-0.06024461030049506,"114":0.1253478050627415,"115":-0.10921580635383499,"116":-0.02179269195199859,"117":-0.0242218262120614,"118":0.059446854880699514,"119":-0.11599879237104545,"120":0.08311262548174392,"121":-0.046922478275593274,"122":-0.08350488316344092,"123":0.11762631640751142,"124":-0.035076239304555085,"125":-0.03589507747151031}},{"sx":1,"sy":1,"depth":126,"w":{"0":-0.04275352407589778,"1":0.15633221991735893,"2":-0.0470995187578057,"3":0.025761856493582348,"4":0.060160398992673364,"5":0.06313649983531626,"6":-0.07658295403990807,"7":-0.025989286125420608,"8":0.022201645178317575,"9":-0.0494822810411085,"10":0.06999935752416789,"11":0.1202152100425669,"12":0.16365250350445726,"13":0.10599574222997984,"14":0.0626932136376463,"15":0.008206607744651019,"16":-0.0119068648965547,"17":-0.004338035703958382,"18":-0.020976508630539077,"19":0.020774327224089048,"20":-0.07548311782519969,"21":0.23145246865404898,"22":-0.09162665756626444,"23":0.06325903291638607,"24":-0.1710841747343606,"25":0.08574951105975855,"26":-0.10045366213567884,"27":-0.07030356436005732,"28":0.08622519109906121,"29":-0.03295584519567722,"30":-0.17162839565103777,"31":-0.07532939766280741,"32":-0.048413184452989755,"33":-0.05332643704018854,"34":0.005051674423207716,"35":-0.034644118460867956,"36":-0.04097517040047139,"37":0.03774069589272739,"38":0.0932180786666814,"39":0.13784937793360863,"40":0.050102138875471276,"41":-0.18541263161034555,"42":0.02003564277844062,"43":-0.1580554660522457,"44":0.060322222277829345,"45":0.1404777633621643,"46":-0.037838212753480115,"47":0.004692993366034205,"48":0.004547832491204951,"49":-0.10606475488077893,"50":0.02086963825719062,"51":0.26339607637617163,"52":0.2088917215226108,"53":0.06270392186045158,"54":-0.07734357023698074,"55":0.2408152989645754,"56":0.020642809834707943,"57":-0.00021942050959458009,"58":-0.06646228695410576,"59":0.10451642838782395,"60":-0.13544503228017135,"61":0.1080217000192914,"62":-0.0019899284600184506,"63":-0.12999356284190108,"64":0.018497524270018655,"65":-0.007015909706539463,"66":0.08629251915143958,"67":-0.17440265004827923,"68":-0.1452602247462777,"69":-0.1382257469306399,"70":-0.06491502950530645,"71":-0.15717217973607148,"72":0.017159960400200437,"73":0.20705615186496112,"74":0.027848071201765214,"75":-0.039147301599452615,"76":-0.01223403508498268,"77":-0.019914364070467802,"78":-0.033936380256580405,"79":0.020662582378914236,"80":0.2128186923372047,"81":-0.11498721059799599,"82":0.08116931237842534,"83":-0.05166881299939527,"84":-0.0597224470642118,"85":0.07987010532473969,"86":0.01396404784187939,"87":0.21151465909451622,"88":0.012383896565976724,"89":-0.004594081534044053,"90":0.09590771799270564,"91":0.06090020979294157,"92":-0.0009235288423793207,"93":-0.04953569660151118,"94":0.14832221283928673,"95":-0.09499519015741953,"96":0.055720685818726697,"97":-0.05502001264092672,"98":-0.018481910102955683,"99":0.0768334186353873,"100":0.1288680359309462,"101":-0.02709384898360139,"102":-0.02956984323695209,"103":0.1225804009848602,"104":-0.06856706465468834,"105":0.06316385140822076,"106":-0.025629791764883378,"107":0.04713191982209871,"108":-0.09158417628975013,"109":0.09109352678872432,"110":0.04965853588812974,"111":0.031075571053776632,"112":0.1375916486554619,"113":0.09099399133526846,"114":0.2116597665600843,"115":0.0638438892499284,"116":-0.24513157898404878,"117":0.11435048464105334,"118":0.142021166055456,"119":-0.01828842688316047,"120":-0.13525498531506244,"121":0.1686912282503451,"122":-0.18747320800722828,"123":-0.030188733325293097,"124":-0.00851690308730816,"125":0.06258072641482124}},{"sx":1,"sy":1,"depth":126,"w":{"0":-0.13388948559094324,"1":-0.05109075031367959,"2":-0.1043654339783271,"3":0.1852166585307688,"4":0.030016279974289156,"5":0.014187248973687647,"6":-0.01870886027320307,"7":0.02044804162733403,"8":-0.030773032253659093,"9":0.009339493453130319,"10":0.030277511936943755,"11":-0.08097422779949438,"12":-0.03426369572938827,"13":-0.21409014994061654,"14":-0.02149967511831815,"15":-0.07569486097361536,"16":-0.07497799066161101,"17":0.05887341540603148,"18":-0.12128199506282909,"19":-0.0872244552103759,"20":-0.048325806707004135,"21":0.010436945782189833,"22":-0.08442348047461708,"23":-0.02556743943587221,"24":-0.04446267617068294,"25":-0.07688120663964032,"26":-0.04074344466325626,"27":-0.048998079758903204,"28":-0.05172641764935833,"29":0.049952361878804016,"30":0.0427425943417675,"31":0.030421717345726355,"32":-0.0901161513835821,"33":0.02431563702483876,"34":-0.053417050459217436,"35":0.14537935065023586,"36":0.11069669171079408,"37":0.014201949563278284,"38":0.11044217625949988,"39":0.013218868191352583,"40":0.1733229126913484,"41":-0.03329906513318138,"42":-0.032772969063289054,"43":-0.12502652611548795,"44":0.11359895707069298,"45":0.07348170298273642,"46":-0.10088538823569485,"47":-0.09188382437436274,"48":0.1461375775642886,"49":0.03771863410111209,"50":-0.027846697645396594,"51":-0.07194377234418801,"52":-0.05394297073732313,"53":0.04289548063655869,"54":-0.033299572896692,"55":-0.030705166479680038,"56":-0.004406730956620149,"57":0.058625992390797105,"58":0.08405583456717476,"59":-0.02885761926733617,"60":-0.024193499940921476,"61":-0.15464043021713783,"62":0.013393478958973587,"63":-0.08627534560699338,"64":-0.030962667181262487,"65":0.05618723893741425,"66":0.11521756838839771,"67":-0.01960772879493687,"68":-0.1349608770535776,"69":0.03746750657452279,"70":0.13831968931166408,"71":-0.11328372399815645,"72":-0.11529501392700878,"73":0.11892068882411319,"74":0.061090495307154956,"75":-0.0771507468247678,"76":0.14253244778129506,"77":-0.1321241832261964,"78":-0.022528126670590676,"79":0.12085522580063209,"80":0.06505083358900428,"81":-0.09597142774127748,"82":0.023698813851187772,"83":-0.09251437178153087,"84":-0.18733803120126982,"85":0.011294914791610267,"86":-0.007094339228095289,"87":0.14892089149868085,"88":-0.15902381534138593,"89":-0.10086896482874722,"90":-0.06147306021435891,"91":-0.26187424384194186,"92":0.12783545403155874,"93":-0.10343799314308948,"94":0.11585889113787758,"95":-0.041520049421693773,"96":-0.16920989707112147,"97":0.02232058019032968,"98":0.024521520960049857,"99":-0.009840287682469417,"100":0.005607522862255235,"101":0.06238689013563615,"102":0.004880916101257539,"103":0.054416258112985776,"104":0.10728495370269668,"105":0.05279246943290188,"106":0.03622728025165995,"107":0.07167683265585936,"108":0.1015698996160345,"109":-0.1607391264789207,"110":0.0016794926177917744,"111":-0.06152924721648596,"112":0.05960038851617005,"113":-0.018522656598479306,"114":0.04240569676915626,"115":0.06717073766933344,"116":-0.12582818886271496,"117":-0.06999426682402339,"118":0.04697015128184839,"119":-0.011100372432938502,"120":-0.017875651028125505,"121":-0.04652894874886232,"122":0.017241075899630292,"123":0.013695550522304202,"124":-0.07138911476209264,"125":-0.05515399134869695}},{"sx":1,"sy":1,"depth":126,"w":{"0":-0.06422334567884914,"1":0.07497865597826561,"2":0.08045735252667062,"3":0.1695876199404496,"4":0.10788189931376517,"5":-0.0559777988811368,"6":-0.09441155914672755,"7":-0.003452031955085304,"8":-0.025105213440668423,"9":-0.02323640163296942,"10":0.10856380357898157,"11":0.0019991901814001875,"12":0.05221760307883516,"13":0.04101601620462653,"14":0.13225755162920763,"15":0.06827475571691487,"16":0.04330409476643561,"17":-0.05967972413434652,"18":0.011224025811961013,"19":-0.07942427814064017,"20":-0.0755456725731771,"21":0.027075742000289445,"22":0.05455656704724132,"23":-0.16653054043559043,"24":0.12254279799382353,"25":-0.1425606360148001,"26":-0.08735397410435886,"27":-0.0060345391515035235,"28":0.07177413532003667,"29":0.052661318175549816,"30":0.1213153267899915,"31":0.06773252462123283,"32":0.043038433914178074,"33":-0.05275679588456823,"34":0.21324962611549492,"35":0.1707549180330481,"36":-0.07259924531525785,"37":0.0721662445791864,"38":-0.07603890662056294,"39":-0.03149684883986553,"40":0.20119977618218746,"41":0.03461468522420515,"42":0.04920434670957905,"43":-0.03539965338198855,"44":0.16044060411518185,"45":0.1640064483909599,"46":-0.1158129721329615,"47":0.05399191838468362,"48":0.21261013135464435,"49":0.0877121584427462,"50":-0.10926712015838173,"51":-0.0124027572586719,"52":0.201508936764155,"53":0.09018966818099149,"54":-0.06962336466384673,"55":0.024834554086037408,"56":-0.039737396000772036,"57":0.035157919858312174,"58":0.10014221318823192,"59":0.18801373836181887,"60":-0.033801619252679,"61":-0.0062913457234463725,"62":-0.09727409544405671,"63":-0.05993321528493062,"64":0.15689657093069279,"65":-0.0352997744617898,"66":0.17890457912218774,"67":0.011286698599270477,"68":0.02880018913965803,"69":0.057905170422343284,"70":0.09730130140860602,"71":0.08080618896533091,"72":-0.15646094081358217,"73":0.07529736327085149,"74":-0.06648116260075715,"75":-0.023218621391002208,"76":-0.011274257911453166,"77":0.15705707590437676,"78":0.09800101368127821,"79":-0.033763953952395585,"80":0.2538202375424482,"81":-0.2258710511021293,"82":-0.04808370577264446,"83":-0.10776352525069832,"84":0.09448587907921036,"85":0.13330202700277963,"86":0.10990615092930806,"87":0.24353484652148985,"88":-0.16768820173668697,"89":-0.064893212982601,"90":-0.022762534835485647,"91":-0.03334041467231128,"92":0.1523025994210807,"93":-0.08097063902580985,"94":0.01996272896973444,"95":-0.2843089503506415,"96":-0.11784455584388771,"97":0.018669680895262046,"98":-0.052972645696633514,"99":0.04567056426747491,"100":0.04459829305537071,"101":0.17828071345391117,"102":0.06993579245370107,"103":-0.13024935295090867,"104":-0.07416806629436747,"105":-0.07370070828941547,"106":0.14171994999521761,"107":-0.3114910169402385,"108":0.08978924884093743,"109":-0.14380170763307246,"110":0.10935516160086217,"111":0.0026815944465639137,"112":-0.04123171128626421,"113":-0.04241739381777663,"114":-0.038166791617439716,"115":0.035247939486288606,"116":-0.24920569139988363,"117":-0.007744074123328475,"118":0.11103122067585204,"119":0.03193341608589101,"120":-0.10616357344607781,"121":-0.031115471767283166,"122":-0.10388191263182227,"123":-0.24823551245604225,"124":0.0036247458017942794,"125":0.032017035151047285}},{"sx":1,"sy":1,"depth":126,"w":{"0":0.11680951889242604,"1":-0.0718568263309584,"2":-0.19119860031231775,"3":0.08756864013978453,"4":0.031250157542387004,"5":-0.04024535847836314,"6":0.07697036522302829,"7":-0.2217299711538465,"8":-0.07046821911188844,"9":-0.07944811184010529,"10":0.1667418266536202,"11":-0.013855344165018279,"12":0.13071667805134907,"13":0.008868388336153494,"14":-0.0031487137884755687,"15":0.09380397409269707,"16":-0.11681859058125263,"17":0.011725337843781134,"18":0.02228546176389974,"19":-0.08732214129826261,"20":-0.005376224020509874,"21":0.16857439185117806,"22":0.03914648661951627,"23":-0.047711592142741836,"24":-0.09854355248874028,"25":0.07266278579072635,"26":0.07871005381247528,"27":0.024452834882033016,"28":0.06258849783920549,"29":0.07592815775616645,"30":0.09692179869084262,"31":-0.0077179956722710445,"32":0.059879909651711166,"33":-0.09708758486893393,"34":0.00430999603427335,"35":0.010802958894793298,"36":0.030540030970656034,"37":0.217431052420482,"38":-0.17345387979103677,"39":-0.03143738273844938,"40":0.06012471081725844,"41":0.1644812718895531,"42":-0.06736190362258497,"43":-0.16567271307804574,"44":0.010890072085963097,"45":0.06309541308222119,"46":0.10355948857616998,"47":-0.023414393654036345,"48":0.02594591428751036,"49":-0.022549071564162998,"50":-0.18069202051362337,"51":-0.047560600204374054,"52":-0.0693871861792698,"53":-0.021611743283603626,"54":-0.00019823098252122348,"55":0.06506369038442884,"56":0.04576298343465451,"57":-0.13325855367018072,"58":-0.0457020894881479,"59":-0.0982602295774006,"60":-0.1689649135996501,"61":-0.016341897592970715,"62":0.09449378790377232,"63":-0.0423698698669534,"64":-0.09006765219542812,"65":-0.06508896440006214,"66":-0.06280792938115573,"67":-0.11498036255552208,"68":0.05451387416020037,"69":0.15608304213424723,"70":-0.08586006426156136,"71":-0.02223478582219173,"72":0.06638768403364127,"73":-0.04779999943294444,"74":-0.10694788598834948,"75":-0.03156344179743645,"76":-0.01206295941516949,"77":0.05488407157284815,"78":-0.06212495969146891,"79":-0.03681021252830058,"80":-0.06618662037791215,"81":-0.0686507601528082,"82":-0.16598106761010625,"83":0.11941747535898689,"84":-0.02304747688238037,"85":0.20986064684465872,"86":0.19675200075724672,"87":-0.12334524067026366,"88":-0.2714737220095941,"89":-0.06029731539813497,"90":0.007446882988569822,"91":-0.0785619256833552,"92":0.16299829701219887,"93":0.15560167865551347,"94":0.1123019498450969,"95":-0.14677792492893274,"96":-0.028586842200006454,"97":-0.06688797297032331,"98":-0.12588975100724004,"99":0.007751625351991601,"100":0.13246404665966865,"101":-0.03917666417354262,"102":-0.027936483527347726,"103":0.029900939603666483,"104":0.25267467871911775,"105":-0.11381938104514906,"106":-0.16941883027397756,"107":0.22546637020932514,"108":0.3711598541653705,"109":-0.02738726581185069,"110":0.054735785661337896,"111":0.023422097297591097,"112":-0.05136200572640915,"113":0.026918640099235332,"114":0.20719423766257394,"115":0.0717373476857961,"116":-0.07229758639741937,"117":-0.05254846906844216,"118":-0.01548890119820432,"119":0.02351896392162421,"120":-0.015568773533293239,"121":0.3599220802742477,"122":0.04790325686239519,"123":-0.21741596151019052,"124":-0.13003769786090535,"125":0.011437665833018758}},{"sx":1,"sy":1,"depth":126,"w":{"0":0.02477388853312684,"1":0.064342671311497,"2":-0.040293790865745895,"3":-0.09167643206333986,"4":-0.15053032816180872,"5":0.0706810411929593,"6":-0.06463895259578956,"7":0.11739123360013629,"8":0.038348477870812005,"9":0.02523480686038158,"10":-0.13688839539790948,"11":-0.20485558287805883,"12":-0.003317564165346758,"13":0.06580304574143317,"14":0.22165845915771237,"15":0.14642455450071573,"16":-0.03882128704709952,"17":0.20020515379594037,"18":-0.06333250640075047,"19":0.06036595059666399,"20":0.02161888964055851,"21":0.0583742595753662,"22":0.003412824634001782,"23":0.020205032795273442,"24":0.06295756381630273,"25":-0.09457320296044029,"26":-0.054114798103532175,"27":-0.01950053256525207,"28":-0.043415652904633464,"29":0.13618870807139885,"30":0.04689447552837606,"31":0.03157797335349162,"32":-0.03414195747752016,"33":0.024407262185544763,"34":-0.02977777701885255,"35":0.16889487930930436,"36":-0.09303106794859976,"37":0.002752983434820697,"38":0.04416660289850196,"39":-0.05701412393829804,"40":0.10371135339514143,"41":0.04605426356902962,"42":0.0021336916987094536,"43":-0.04476791581420815,"44":0.04888327026192463,"45":0.06693155459993137,"46":-0.11865584122575847,"47":-0.023240435267189996,"48":0.17656856470778443,"49":0.08117120838594402,"50":0.08076260234379463,"51":0.13037362165826463,"52":-0.06525113411953158,"53":-0.08796423180765786,"54":0.03578072641465458,"55":0.16273406992170084,"56":-0.03019556632214322,"57":0.04880774666996887,"58":0.08043305396694982,"59":0.09596994782517375,"60":-0.1828037192387354,"61":-0.08316620965866371,"62":0.0026008567845265482,"63":-0.06386672676451641,"64":-0.005260548834689507,"65":0.12621125030417035,"66":0.1590563588682869,"67":-0.058967950465449594,"68":0.09163098791514605,"69":0.055896924632374764,"70":-0.09570407874923459,"71":0.14078391661995704,"72":-0.0370253292514065,"73":0.1908898681704646,"74":-0.09791014442564135,"75":-0.12715931022848562,"76":-0.016215359459031898,"77":-0.050447995369078916,"78":0.018131633250220904,"79":-0.02872178751740296,"80":0.23395864999659907,"81":-0.0331177883595251,"82":-0.012137091722897255,"83":0.06722355372448333,"84":0.1370933852250201,"85":0.03120761137084241,"86":-0.0809811334517688,"87":-0.019230275699569085,"88":-0.18088250960332083,"89":-0.12989199099405754,"90":0.018669041563864588,"91":0.095826197265246,"92":-0.15163042855675773,"93":0.036271328419740366,"94":0.17362202446025005,"95":0.10707140852960445,"96":-0.17462664139252218,"97":-0.001513357008306743,"98":-0.009345816611165148,"99":0.01843524252883288,"100":0.092476299083195,"101":0.13708632976869092,"102":-0.101721682323596,"103":-0.10674520534865094,"104":0.09167209929612537,"105":0.11156599762137728,"106":-0.07070715274679748,"107":-0.05197091916875931,"108":0.005924585689298293,"109":-0.10014499540010484,"110":-0.1166740667317925,"111":-0.09579988580982118,"112":-0.12744108409825627,"113":0.13071121510931435,"114":-0.03868085740606792,"115":-0.14573990294543487,"116":0.07610645310060117,"117":0.015851540156033975,"118":-0.03637516088083354,"119":0.15626894442221678,"120":-0.11761172445286855,"121":0.01592771858102428,"122":-0.018702344913118344,"123":-0.1404824832944684,