
//<![CDATA[

// a few things don't have var in front of them - they update already existing variables the game needs
lanesSide = 2;
patchesAhead = 15;
patchesBehind = 0;
trainIterations = 50000;

// the number of other autonomous vehicles controlled by your network
otherAgents = 0; // max of 10

var num_inputs = (lanesSide * 2 + 1) * (patchesAhead + patchesBehind);
var num_actions = 5;
var temporal_window = 0;
var network_size = num_inputs * temporal_window + num_actions * temporal_window + num_inputs;

var layer_defs = [];
layer_defs.push({
    type: 'input',
    out_sx: 1,
    out_sy: 1,
    out_depth: network_size
});
layer_defs.push({
    type: 'fc',
    num_neurons: 120,
    activation: 'relu'
});
layer_defs.push({
    type: 'regression',
    num_neurons: num_actions
});

var tdtrainer_options = {
    learning_rate: 0.001,
    momentum: 0.0,
    batch_size: 64,
    l2_decay: 0.01
};

var opt = {};
opt.temporal_window = temporal_window;
opt.experience_size = 3000;
opt.start_learn_threshold = 500;
opt.gamma = 0.90;
opt.learning_steps_total = 10000;
opt.learning_steps_burnin = 1000;
opt.epsilon_min = 0.0;
opt.epsilon_test_time = 0.0;
opt.layer_defs = layer_defs;
opt.tdtrainer_options = tdtrainer_options;

brain = new deepqlearn.Brain(num_inputs, num_actions, opt);

learn = function (state, lastReward) {
brain.backward(lastReward);
var action = brain.forward(state);

draw_net();
draw_stats();

return action;
}

//]]>

/*###########*/
if (brain) {
brain.value_net.fromJSON({"layers":[{"out_depth":75,"out_sx":1,"out_sy":1,"layer_type":"input"},{"out_depth":120,"out_sx":1,"out_sy":1,"layer_type":"fc","num_inputs":75,"l1_decay_mul":0,"l2_decay_mul":1,"filters":[{"sx":1,"sy":1,"depth":75,"w":{"0":0.13169288370987864,"1":0.21308037276883562,"2":0.07316584166584644,"3":0.05202009430087039,"4":0.18802532605950714,"5":0.067333728829127,"6":0.14323714060161186,"7":0.13634147409687797,"8":-0.018647540454519215,"9":-0.2032174772745984,"10":0.0549712110722047,"11":0.08213958548331374,"12":-0.18470247488982197,"13":0.001424175704936985,"14":-0.12146719173799403,"15":-0.07166726735134188,"16":-0.010944684089459053,"17":0.021352963263426523,"18":0.02102440096345961,"19":0.12140567356314322,"20":-0.04301635332702002,"21":0.1004809101381633,"22":0.20795321991692278,"23":0.23433375728183228,"24":-0.057817496211583726,"25":-0.007181082121521415,"26":-0.10911961705451986,"27":0.18809485670791123,"28":0.02315860715474641,"29":0.10391841579604691,"30":-0.07642371393759226,"31":-0.03369733169490871,"32":-0.018970528257870788,"33":0.00043990689980490203,"34":0.12343539389334883,"35":-0.07604027989555,"36":-0.0762919783721935,"37":0.11385505207849328,"38":0.06508214623453186,"39":-0.16993553410458204,"40":-0.09730043840302247,"41":0.277841907721702,"42":0.09973731441954523,"43":0.007602570420884116,"44":0.09304583007600509,"45":0.12236448907408264,"46":0.03292332502476128,"47":0.04873960322714738,"48":-0.029749048514491026,"49":-0.10408943295244617,"50":-0.19193311492169363,"51":-0.1621279627234923,"52":0.22547264711959986,"53":-0.11877526726092077,"54":0.03205784355841458,"55":0.04391861176511963,"56":0.04336956079184043,"57":0.07372654619915579,"58":0.20263909724489704,"59":0.06371082895712739,"60":0.13906959218441922,"61":0.05693196777473206,"62":-0.06802856134648644,"63":-0.026333149243440063,"64":-0.10966634223432861,"65":0.2672381958721356,"66":0.09491070422363172,"67":0.09168851957720113,"68":-0.0209705825263197,"69":0.13579198448996826,"70":0.09821308164770358,"71":0.17945898835484098,"72":0.10260659477124182,"73":0.1273397359231494,"74":-0.01942182975563551}},{"sx":1,"sy":1,"depth":75,"w":{"0":-0.012759337860798994,"1":-0.0009213857571614226,"2":0.23409639613563968,"3":-0.004974368565872586,"4":-0.10525080737998592,"5":-0.0165938010099474,"6":0.013085855774014535,"7":-0.06898121547128902,"8":0.021743305260094343,"9":-0.17919611168586783,"10":-0.08430520282259751,"11":0.036361658715108346,"12":0.043087061036531996,"13":0.09585331214480511,"14":0.09375443454036159,"15":-0.07519047587077156,"16":-0.09897725013016916,"17":-0.3380416732114272,"18":0.1146120912995283,"19":0.23875382671793763,"20":-0.10166855560248712,"21":0.03156812785268792,"22":0.42231525735545566,"23":0.12038705790306609,"24":0.1498607816145913,"25":-0.17359357152244825,"26":-0.0422039111648385,"27":0.07584891883797265,"28":0.013230443590296303,"29":-0.07463313500193888,"30":-0.036270614669414815,"31":0.040987480311871764,"32":-0.0037851651572355545,"33":0.11521279739960358,"34":-0.06105275631682234,"35":0.17287993165704835,"36":0.026803048376043307,"37":0.13689608130145467,"38":0.1655817885458596,"39":-0.008033734218125487,"40":0.045426548438759665,"41":-0.13470207732566544,"42":0.46288958269393266,"43":0.0732414514027248,"44":-0.15290249678760967,"45":-0.022353216078418562,"46":-0.08612654133116537,"47":0.27846117093974165,"48":0.4542441233539364,"49":-0.010828291104455032,"50":-0.009533170412156823,"51":-0.05219881142840967,"52":0.2924592450548313,"53":0.27903592391086013,"54":0.011087596154471649,"55":-0.16319689157771478,"56":-0.3001779764214752,"57":0.3142359059689431,"58":0.3205059791315194,"59":-0.0024654970573800327,"60":-0.20638455972928516,"61":0.006184187227750569,"62":0.01935126552018831,"63":0.16770428323454917,"64":0.013150330812868044,"65":0.03828500422030644,"66":-0.060353657949411096,"67":0.13595396146721303,"68":0.2940631777609852,"69":-0.25264744054945604,"70":0.19777006237374314,"71":-0.042497562714042356,"72":0.22152823124534196,"73":0.6319326317726608,"74":-0.23791363810317462}},{"sx":1,"sy":1,"depth":75,"w":{"0":-0.06775662309766015,"1":-0.19475496682619894,"2":0.23132614287812334,"3":-0.13274573212738366,"4":-0.007429837587155218,"5":-0.009551044989077,"6":0.12805373830060557,"7":0.053410273344675505,"8":-0.025213795130492146,"9":0.06841640055718871,"10":-0.010687109852806544,"11":-0.09492674408730672,"12":0.07116726244187227,"13":0.18621531928374313,"14":0.04032227064533723,"15":-0.08516479181577778,"16":-0.05282086214527688,"17":0.11734687172640944,"18":0.07702978384963541,"19":0.15520131050170297,"20":0.06851846118579612,"21":0.02267207398400331,"22":0.1749988486128495,"23":0.21141951634095957,"24":-0.04347396786707363,"25":0.18441331019973636,"26":-0.06080094987778518,"27":-0.15954330978700434,"28":0.15870688924984636,"29":-0.08409467557865963,"30":-0.15338839119316566,"31":0.14782989762610874,"32":0.013385019101316968,"33":-0.15141488270212136,"34":-0.11977687358765654,"35":-0.014727554658206186,"36":-0.06852251332850742,"37":0.0670762300662777,"38":0.09788234401941896,"39":-0.021377191295496957,"40":-0.009458353231148412,"41":-0.1279615343175804,"42":-0.05278923397893123,"43":0.144470279356808,"44":0.014350926130416162,"45":0.039787408595073424,"46":0.1304240792992986,"47":0.07584058172735568,"48":-0.09967066641288023,"49":0.06735954107804758,"50":0.06600605136981884,"51":0.01907742775206418,"52":0.005326264128593716,"53":0.0018594339698916153,"54":-0.06322424108213164,"55":0.16276106552878555,"56":0.07421359038210988,"57":-0.10495531606356133,"58":-0.21807830552281088,"59":-0.052414724050569496,"60":-0.043800675349704776,"61":0.12796970611526715,"62":-0.14622589509573977,"63":-0.019942295729607745,"64":0.03342314956102613,"65":0.09219358144645552,"66":0.05494419713505696,"67":-0.09609593738992166,"68":-0.03857593694040397,"69":0.06253127439508528,"70":0.07724850171446888,"71":-0.1368441248262426,"72":0.017761175121982706,"73":0.1417716985399377,"74":0.17045593041980972}},{"sx":1,"sy":1,"depth":75,"w":{"0":0.12284058969007465,"1":-0.14276391329528085,"2":-0.10494633158230697,"3":-0.00870443699271135,"4":-0.19012105848663832,"5":0.15751260515262164,"6":0.08226987917174594,"7":-0.043554587844748964,"8":-0.042464512484744435,"9":0.07723604510721012,"10":-0.05373090021684021,"11":-0.19891865557477456,"12":0.21141939417630404,"13":0.12561605276614513,"14":0.0681542262892244,"15":0.02565809471079742,"16":-0.059033366789163114,"17":-0.17476981102395725,"18":-0.07818390575152252,"19":-0.0751011686283216,"20":0.015625938324502417,"21":0.10568546547619857,"22":-0.10914373079365447,"23":0.1073156093686173,"24":0.021721339330707443,"25":-0.019519195165362036,"26":0.021652289339008778,"27":-0.20728967179467006,"28":0.2653833825719908,"29":-0.0655791285183058,"30":-0.0974901816193015,"31":0.00786706224526156,"32":-0.02301138185628518,"33":0.17562896666364783,"34":-0.009695715070156537,"35":0.040737496653154175,"36":-0.16302540018448552,"37":0.10520037322538939,"38":0.144751126659073,"39":0.1502641370896769,"40":0.07383126032070389,"41":0.06977767104720368,"42":-0.13520802891013706,"43":-0.07180124408709554,"44":0.27797417751174014,"45":0.07955710405492439,"46":0.006262293790497466,"47":-0.12807494804288252,"48":0.20769689288323911,"49":0.1207606979189057,"50":-0.05039106987722238,"51":0.295209821942563,"52":-0.2235158189547431,"53":0.10918822016621632,"54":0.14630974435575203,"55":0.09849012821982384,"56":0.07340627634825374,"57":-0.01111489453411344,"58":0.01444465755693915,"59":-0.08665124632106835,"60":0.0375116458665053,"61":-0.027326851717863185,"62":0.188082155710708,"63":0.17765088647576455,"64":-0.1761455192335213,"65":0.11742812414636765,"66":0.0006665453033597361,"67":-0.01677558829723757,"68":0.2334530268531654,"69":0.04354170706041761,"70":-0.03445543824113228,"71":-0.11354604762306922,"72":0.15648949963760328,"73":0.2718806184834832,"74":-0.027610185428487047}},{"sx":1,"sy":1,"depth":75,"w":{"0":0.08315086279767345,"1":-0.0274688369787912,"2":-0.024936228642741188,"3":-0.061683308362122165,"4":-0.16185910261556588,"5":-0.062253491426724636,"6":-0.17995573644783386,"7":0.06309032449537019,"8":0.0071486716458971835,"9":-0.12251766712541595,"10":0.0347113010665489,"11":-0.1628940686256241,"12":0.03576285557667395,"13":-0.013160415801695254,"14":-0.054442941792283435,"15":0.04364099939975472,"16":-0.12408688624229113,"17":0.0983070038701623,"18":0.08837009570730626,"19":-0.0315794050857239,"20":0.2187735416446439,"21":-0.0036081230701730995,"22":0.003180675632462439,"23":-0.05266842566882781,"24":0.11882794652311064,"25":-0.14898101053477272,"26":-0.028353717641866318,"27":0.022840174385799456,"28":-0.002158183748976333,"29":0.09495626418929706,"30":-0.15806056604726307,"31":-0.09420749183386151,"32":-0.07639898073595774,"33":-0.0909132284740327,"34":-0.07187323106133037,"35":0.16092783014917247,"36":-0.14533395130439478,"37":-0.037799724013862696,"38":-0.012134234206657582,"39":0.04199938961923386,"40":-0.0705901879918276,"41":0.054523951617172085,"42":-0.12765271228524655,"43":0.11703253909848756,"44":0.015479156228423215,"45":-0.05158156741391445,"46":-0.1576663152118175,"47":0.03152795865088391,"48":-0.0624110605805636,"49":-0.09658481035672821,"50":0.09406201311185076,"51":-0.11255416647570096,"52":-0.019352543602801156,"53":-0.044577018926128545,"54":0.07914913506468968,"55":0.11165632862816326,"56":0.013792397066642073,"57":0.0068349048806879455,"58":0.11088342789000692,"59":0.08459013969666528,"60":0.022421726310365212,"61":-0.04904575154315658,"62":0.02200743985601442,"63":0.03229073905886661,"64":0.008539909284837265,"65":-0.16744039073671946,"66":-0.1427066454846188,"67":0.03488035673325064,"68":0.021304243508611403,"69":0.11634591821096046,"70":-0.18595969056177972,"71":-0.05218464192627131,"72":0.0609429797909651,"73":0.15607549533955317,"74":0.19418981710143798}},{"sx":1,"sy":1,"depth":75,"w":{"0":0.04023862530229865,"1":0.13534041672478955,"2":0.14947126110442813,"3":0.21028205941302952,"4":0.18829071118780097,"5":0.012211524359878717,"6":0.0478011969322297,"7":0.03330515491660394,"8":0.15978028411376005,"9":-0.15732438689098172,"10":0.051028490867242156,"11":0.030614509404524422,"12":0.04999273107088159,"13":-0.25218987681494265,"14":-0.032723986339307225,"15":-0.08599652014570443,"16":0.0019416051559498757,"17":-0.04457345296738587,"18":-0.09955359982370128,"19":-0.013075201151354035,"20":0.001042154634262805,"21":0.1511353590900402,"22":0.21603322920728774,"23":-0.03274740489325183,"24":-0.3600832135486445,"25":0.1279986591840321,"26":0.01815243976148313,"27":-0.002658306666695358,"28":0.039986834111636706,"29":0.035740156614041,"30":-0.18454875642802945,"31":-0.27481764952859,"32":0.26718115552115324,"33":0.062404569188312255,"34":-0.17002198947376873,"35":0.32701826954686286,"36":0.12834677232210964,"37":0.009961099809276956,"38":0.020328424631678773,"39":0.14312781385425957,"40":0.08901780653076784,"41":-0.16401823494481885,"42":0.11415598124742833,"43":0.09676841743063484,"44":0.025396338063900875,"45":-0.18992024171857033,"46":-0.006275564227060674,"47":0.22802110213006782,"48":0.04710303276034103,"49":-0.169371308818062,"50":0.05410276197639413,"51":0.2169194929564116,"52":0.02945068483758793,"53":0.1268533690966786,"54":-0.11140561677833763,"55":0.07696209256652958,"56":0.017972542362433713,"57":-0.030884519902571916,"58":0.08616406098019533,"59":0.07300729860785805,"60":0.011070803300807725,"61":0.08953522251145846,"62":0.2194535639880023,"63":0.1711396193353087,"64":0.02417255983262059,"65":-0.26716941458380283,"66":0.10944767463363533,"67":-0.08121030961766679,"68":-0.01839635421055226,"69":0.043049531880833984,"70":-0.14084097753199074,"71":0.06668072724268209,"72":0.24532131601028098,"73":0.13041180079630524,"74":0.0009050890386497368}},{"sx":1,"sy":1,"depth":75,"w":{"0":0.08887750793087579,"1":0.08228891729957476,"2":-0.08717597889204008,"3":0.0420976947022119,"4":0.013247276193842436,"5":-0.18001053568125683,"6":-0.09648901300112492,"7":-0.052170914222477605,"8":0.04464439086213942,"9":-0.11253388065621062,"10":0.07095877526827211,"11":0.21684977352731705,"12":-0.2586049991217572,"13":-0.020119296690295316,"14":-0.024604210945972184,"15":-0.006412917283837583,"16":0.14015973347731656,"17":-0.12554331122340043,"18":0.11490725279506527,"19":0.09545041877928478,"20":-0.009039367337320574,"21":-0.23803758885993476,"22":-0.0812425710096798,"23":-0.043224745648883664,"24":0.046655368872192154,"25":0.14408155475134674,"26":0.12115233287823084,"27":-0.04924898865460352,"28":-0.11015251822122205,"29":0.16670027287010664,"30":0.05050477935115941,"31":0.127848799610462,"32":-0.07955850836469486,"33":0.24383495437523978,"34":0.15084627719937269,"35":-0.331687624151145,"36":-0.013963765440014857,"37":-0.08954240390479389,"38":-0.2457907070910652,"39":-0.03209915959484925,"40":-0.05125073643442039,"41":-0.19210257290813554,"42":0.043916788192553645,"43":-0.004348955519933619,"44":-0.038627495379961636,"45":-0.10794330517008252,"46":-0.3017512091560332,"47":0.08354582013944324,"48":-0.06515519689995039,"49":-0.027195660391195694,"50":-0.08804676734914296,"51":0.1436533946655995,"52":-0.13625870319527386,"53":-0.0391043310801827,"54":0.016685150981654802,"55":-0.02141640542278574,"56":0.0034387933370081036,"57":0.04575102277445783,"58":-0.03336537389111467,"59":0.07890623533303047,"60":-0.056716920817450875,"61":0.03661032863790772,"62":-0.11994052879664278,"63":-0.017975286060593624,"64":-0.03218291298265343,"65":-0.1420666971805881,"66":0.272620634810842,"67":-0.061525570313261266,"68":0.15126957966588703,"69":-0.04243857841508031,"70":-0.22473385107325136,"71":0.014899277464722999,"72":0.1564980819711651,"73":-0.03771335887934042,"74":-0.3043369763124078}},{"sx":1,"sy":1,"depth":75,"w":{"0":-0.11003867522326204,"1":0.11876175129733756,"2":0.0555492408882762,"3":-0.0743476729992128,"4":-0.05612095481370304,"5":0.018918762410719943,"6":0.12948346860317603,"7":0.012295618899496102,"8":0.17196978113680014,"9":-0.052412052600368186,"10":-0.22260845237673504,"11":-0.010659079460010473,"12":0.10094807189650286,"13":0.010951265107112288,"14":0.11281364081261375,"15":-0.09402913380915272,"16":-0.068333609130522,"17":0.030702018621953913,"18":0.032897380675241464,"19":-0.20594412041177218,"20":0.208165621297017,"21":0.10953404483454421,"22":0.08028286864012218,"23":-0.07568175726740752,"24":0.1420930610637349,"25":-0.1504175241249128,"26":-0.06599693554120081,"27":0.1587587783772358,"28":-0.013502669493151926,"29":0.1426747352716088,"30":-0.19890881688918038,"31":-0.08325990688349064,"32":-0.1290187948801166,"33":0.08902895251257116,"34":-0.05944632504866022,"35":0.07354006228319403,"36":0.007561542330729361,"37":0.2115480941054294,"38":-0.041435064206798794,"39":-0.07851888582323789,"40":0.07196770928206317,"41":0.18188250774052447,"42":0.2052370748155777,"43":-0.2952295048710618,"44":0.11688245647904201,"45":-0.04473037870518969,"46":-0.06901557824243892,"47":-0.014455179359304812,"48":0.28944919359108273,"49":0.10017648462707678,"50":-0.03723268890343756,"51":0.12612230817049724,"52":0.1733951175915731,"53":0.10743278510423122,"54":-0.22428880897479866,"55":0.16094250735680893,"56":-0.2025615141859938,"57":-0.19705802685019858,"58":0.0005775675546489132,"59":-0.038345626198276556,"60":0.1428458300762693,"61":0.1258770823962869,"62":0.09285280779363995,"63":0.03733599708511387,"64":0.2270006241328524,"65":0.06744285211245538,"66":0.06418157370633729,"67":-0.18512761264795893,"68":0.15188927298102545,"69":-0.1442417825449467,"70":-0.14002020651735572,"71":-0.11908678843379945,"72":-0.0026553079885178084,"73":0.004488409846475374,"74":-0.10078926183774348}},{"sx":1,"sy":1,"depth":75,"w":{"0":-0.07210984598119237,"1":0.02888673071028038,"2":-0.0033652984272042694,"3":0.2436746442453796,"4":-0.016444755405641713,"5":-0.017220704706537474,"6":0.20021293056620354,"7":-0.04956455674853758,"8":0.08438991023489972,"9":0.06280631852809614,"10":-0.14202143740954304,"11":0.11239150226797985,"12":0.24715386194417086,"13":0.06807306404772319,"14":-0.08263848920981126,"15":0.11840341393294437,"16":-0.06360317941124224,"17":0.1330667111697937,"18":0.11482579652589305,"19":-0.12853783469211733,"20":-0.002282281080403515,"21":0.1057167376078282,"22":0.21669237506327857,"23":0.17170639187263648,"24":0.07571642718225992,"25":0.06687199989226242,"26":0.09847077563519735,"27":0.46376025634066387,"28":0.16474982542217653,"29":0.14219554491047104,"30":-0.12550867924639095,"31":0.02523611661750503,"32":0.13785225859077233,"33":0.011111159689002883,"34":-0.034883707602342065,"35":-0.08301071730704733,"36":0.0017894525369556852,"37":0.045213620482192775,"38":-0.05071992463736728,"39":0.019147314625158236,"40":0.2593829406848479,"41":0.20986839440581934,"42":0.25476208989113125,"43":-0.2121642910146577,"44":0.1808720267003842,"45":-0.26360813881018613,"46":-0.11497217848957882,"47":0.12239226136933283,"48":0.3265453485320266,"49":0.14656276314401442,"50":0.029178167993578846,"51":-0.1352417722194582,"52":0.21018768373292981,"53":-0.046424137791585114,"54":0.0341539475097175,"55":0.1812707500516954,"56":0.05095907460759906,"57":0.3472403651482238,"58":-0.08946582782788616,"59":-0.10230343639017699,"60":-0.09901432424579772,"61":-0.024657783219476825,"62":-0.007441721051042209,"63":0.013332870917221048,"64":0.0770063354108893,"65":-0.05063091331352302,"66":-0.10402076896958708,"67":0.1753600402708824,"68":0.1950772428386335,"69":0.06807916833141968,"70":-0.09797663227141871,"71":0.0066437954492642,"72":0.16158423495898858,"73":-0.10103478303898465,"74":-0.005148011193117455}},{"sx":1,"sy":1,"depth":75,"w":{"0":0.13791682356723908,"1":0.05286198376624738,"2":-0.006059610871972176,"3":0.09833751749083959,"4":-0.17250145548901066,"5":-0.012242943666135124,"6":-0.09267278888018617,"7":0.016817721896112952,"8":-0.10333847960276538,"9":0.09562859372203115,"10":-0.15336535163214798,"11":-0.02740462596032197,"12":0.04684479337525325,"13":-0.06863165030637258,"14":-0.011793125721821281,"15":-0.10878066937016952,"16":0.22548796473537583,"17":0.008071849659465594,"18":0.09866599212845908,"19":-0.24843850275016283,"20":-0.06110167036271968,"21":0.05415234284668008,"22":-0.15148251506093638,"23":0.06173653835942855,"24":0.18594056250224106,"25":-0.20296444075167752,"26":-0.012036517097782772,"27":-0.12042170327256067,"28":-0.021123397961693144,"29":-0.07891700501050336,"30":-0.009425568082430724,"31":-0.28899644977883093,"32":-0.16090905899452568,"33":-0.15732329402119022,"34":0.04878622814897068,"35":-0.016145229413448994,"36":-0.13667798097986616,"37":0.15421979736026162,"38":0.029131666874134723,"39":-0.1218414065427142,"40":0.11371572188126527,"41":0.08694009601671322,"42":0.2717840485904958,"43":-0.052941921374381695,"44":0.05767418504900251,"45":-0.05679840076801592,"46":0.08563537439639034,"47":0.06808115597994785,"48":-0.00444223727807393,"49":-0.0894871876929887,"50":-0.02598320658184531,"51":0.025689990768497564,"52":-0.13406052996314663,"53":-0.03777969336780905,"54":-0.18843686352126907,"55":0.020285081951406006,"56":-0.1662288483132694,"57":0.1268074591408731,"58":-0.17525026768314803,"59":-0.22364601877108548,"60":0.09856791493924026,"61":0.01892201771619842,"62":-0.014318732817172846,"63":-0.0317774022091637,"64":-0.0006580181681219885,"65":0.23439829955025762,"66":0.08675697709607394,"67":-0.21026667193870335,"68":-0.07938299453591338,"69":-0.1077623938484195,"70":-0.01999981720884041,"71":-0.14528917587452908,"72":-0.22899772522546658,"73":0.042266677862617105,"74":0.10331990635461086}},{"sx":1,"sy":1,"depth":75,"w":{"0":-0.19181758120887493,"1":0.18947219817858146,"2":0.257173349910372,"3":0.3731005128742899,"4":-0.030107314870923243,"5":0.055018882178986726,"6":-0.18441314232155115,"7":0.10243400026575476,"8":0.11833525460224885,"9":-0.08130082956978055,"10":0.060891636850769836,"11":0.09866664836848266,"12":0.22774273022810818,"13":0.176895310724596,"14":0.0655575948629243,"15":0.02397330215892208,"16":-0.0657449816314041,"17":0.0021058832216137233,"18":0.04632065244995127,"19":0.27919150516554553,"20":-0.07341080278527283,"21":0.15460705910031827,"22":0.2703841328852432,"23":0.045225733713449096,"24":-0.02438763045882602,"25":0.1374075702513233,"26":0.08138006034505128,"27":0.01673972876896859,"28":0.21692845717462964,"29":-0.0952984708876667,"30":0.17815095845446566,"31":0.011255160584397465,"32":0.1676992417536993,"33":0.07879675745069399,"34":-0.012417247405376298,"35":-0.001796449219803319,"36":0.23906011120120968,"37":-0.1126062924870647,"38":0.1487313031418767,"39":0.060179512882059354,"40":0.05281899272059587,"41":-0.06514195600437966,"42":0.014110713873430823,"43":0.07498762129203909,"44":-0.09968956129330073,"45":-0.12201677048471668,"46":0.2286793607041624,"47":0.13503673516370707,"48":0.31028127114971754,"49":-0.06050899942352379,"50":0.24229771714472165,"51":0.13991368728066536,"52":0.3068120699151195,"53":0.2575394093830504,"54":-0.1303345037569145,"55":0.13602647053352335,"56":0.005333032918002345,"57":0.07663898096302127,"58":0.15911114047792063,"59":-0.14629841797527793,"60":0.22982249527869883,"61":0.05264013368166954,"62":0.11289211464330158,"63":0.145206718792129,"64":-0.05383288306944147,"65":0.03760559880572444,"66":0.056472646343429786,"67":0.3508101023110067,"68":0.223417705429144,"69":0.049415982070451,"70":-0.15086144773703739,"71":0.07200860295060468,"72":0.19645656964813935,"73":0.12892900953520894,"74":0.08683201888048844}},{"sx":1,"sy":1,"depth":75,"w":{"0":-0.006483868013121957,"1":0.0887373997393883,"2":0.06870166802114193,"3":0.24123583282417188,"4":0.03162899412710015,"5":0.2588251755498367,"6":0.044735043112767756,"7":-0.05186444561108964,"8":-0.049393777324371495,"9":-0.0824392095533325,"10":-0.12780684501957784,"11":0.06862001449312048,"12":-0.11833232555152517,"13":0.16994692341445125,"14":-0.2254246307908765,"15":0.08205365736179993,"16":-0.059056732211398136,"17":0.017905502317355774,"18":-0.17274896037416987,"19":0.04111059787520761,"20":-0.0319405431094084,"21":-0.12871763999091546,"22":-0.07180799917754947,"23":-0.12871830702722792,"24":-0.08008984297865313,"25":-0.0953202512615347,"26":-0.13421681577562403,"27":0.06583409087480369,"28":0.0726063155059553,"29":0.08849233645260085,"30":-0.09657164119947596,"31":0.07389855579649794,"32":-0.16464324814493073,"33":-0.0036899775872503383,"34":0.04922552281998918,"35":0.17724364761129413,"36":0.12228433635930602,"37":0.16013696073898234,"38":-0.14898641730312354,"39":-0.03502496613602011,"40":-0.12621695388793702,"41":0.058180001458225675,"42":0.20912980552069668,"43":-0.140165705238642,"44":0.18935135971651113,"45":-0.09527765921030283,"46":-0.22177573626048,"47":0.15820259618798357,"48":0.06111620026106017,"49":0.17763936291191,"50":0.1526270540351825,"51":-0.2586776504435899,"52":-0.05583424759127226,"53":0.10451650882319098,"54":-0.08366871179706657,"55":0.06248714806350093,"56":0.01058609327725011,"57":-0.18638561872752968,"58":-0.0021848057501520327,"59":-0.001174252451576407,"60":-0.014046777872998262,"61":0.07822229584662349,"62":-0.18674923667250617,"63":-0.190954850385374,"64":-0.11146091115927054,"65":0.011622986987635347,"66":-0.03792394817102841,"67":-0.10022621556676443,"68":-0.06802415800353007,"69":-0.14973747465285833,"70":-0.1268910322021762,"71":0.09675995493897169,"72":-0.08585004743490805,"73":-0.18566991982414655,"74":-0.21982395871654606}},{"sx":1,"sy":1,"depth":75,"w":{"0":0.10037098635013009,"1":-0.06057376983141981,"2":0.012154678163921663,"3":0.08341498778872758,"4":0.14507454476240603,"5":0.06827587367330173,"6":-0.001618001625083262,"7":-0.04269544497395363,"8":0.09281677854739016,"9":-0.04822099459418317,"10":0.12404375457957663,"11":0.1544098625949777,"12":-0.12526761594204547,"13":-0.13243118872508342,"14":-0.243342686222649,"15":0.08117833391342565,"16":-0.0937019194701119,"17":-0.09720238792248463,"18":-0.16570031933827406,"19":-0.07555209616764144,"20":-0.12590775338385518,"21":-0.04785029901674266,"22":0.1704751245925515,"23":0.05916067611726795,"24":0.030278086936898846,"25":0.003121927899209565,"26":0.047878315150590524,"27":-0.1490542505770761,"28":0.07245241781423672,"29":-0.19705485331824774,"30":0.07828732175475829,"31":0.0392758307495044,"32":0.052780043517267124,"33":-0.03561985836719374,"34":0.013044542186947373,"35":0.20134272428827904,"36":0.08791005426361485,"37":-0.050294001827766895,"38":-0.05572319282009968,"39":0.03860635048531881,"40":-0.05433174297863671,"41":0.30105236185021117,"42":-0.025428373692463233,"43":-0.2205929366321805,"44":-0.07694223185357163,"45":0.08766962983670691,"46":-0.007003989020476231,"47":-0.012388199171279023,"48":-0.17854315508652951,"49":-0.08620667783829651,"50":-0.16153893930127075,"51":0.2554699331648814,"52":-0.08096958956732307,"53":0.0014583280298434546,"54":-0.2170220034105318,"55":-0.16150374011257274,"56":-0.06601663367697974,"57":0.023643961004141886,"58":-0.3244045831893581,"59":-0.1487410720456502,"60":-0.006423023311687364,"61":0.13538020345436452,"62":0.03678101768495871,"63":-0.07169289241721971,"64":0.05780620929782723,"65":0.09235374476280164,"66":0.31674979577500095,"67":0.1085194665612683,"68":-0.15836308831903606,"69":0.010922355833357501,"70":-0.10996379430595558,"71":0.08437834820208073,"72":0.0034900048796489853,"73":-0.19694189590863442,"74":-0.11494483884346018}},{"sx":1,"sy":1,"depth":75,"w":{"0":0.1298608480107499,"1":-0.16847534011759355,"2":0.09288006590183072,"3":0.14446127926282035,"4":0.15397561555277556,"5":-0.00270436762526347,"6":-0.04922394655529705,"7":0.20692074623079823,"8":0.0065359746096851894,"9":0.1679170111530107,"10":-0.10403286401945819,"11":-0.194344910999445,"12":0.03219105700110941,"13":-0.0037782129387828717,"14":0.085801980332404,"15":0.05027585707971568,"16":-0.11975382063270378,"17":-0.13597832837457133,"18":0.22910077960083147,"19":-0.10792227461159314,"20":0.1189972767798553,"21":0.26094961524129107,"22":0.10085249685755783,"23":-0.08301038435250273,"24":0.06491471629708578,"25":-0.0771750306901472,"26":0.003526985539503523,"27":-0.19042816631069834,"28":0.08360973073404107,"29":-0.14482062675441015,"30":0.02294354019011259,"31":0.14833858080737522,"32":0.0016343886821358908,"33":-0.008860166615206496,"34":-0.07936458979281621,"35":0.1080968406413834,"36":0.0870690511157821,"37":-0.05328359361800411,"38":0.07502959507799829,"39":0.00021169217043946702,"40":-0.0670484010663606,"41":0.1237770488298748,"42":0.17738928502455706,"43":-0.33295765157290835,"44":-0.1528978584165823,"45":0.13953931702036837,"46":-0.019535366640941982,"47":0.10202208680338296,"48":-0.20232768449154476,"49":-0.03682366015555988,"50":0.033957155343426484,"51":-0.0721874891928144,"52":0.2821648252200782,"53":0.052639678944850575,"54":0.01619775327868677,"55":-0.04030300345980548,"56":0.10138213665385627,"57":0.2575033170390322,"58":0.059834896431511284,"59":0.11088318326854736,"60":0.05060276074161395,"61":-0.04852884998496445,"62":0.02032522922441309,"63":-0.14357151238215318,"64":-0.004260422848385018,"65":-0.11129022471264596,"66":-0.07003834496843289,"67":0.10222312186690488,"68":-0.108053105485331,"69":0.13583887033394973,"70":-0.0067618195850229195,"71":-0.12367971977024941,"72":-0.09719847369289653,"73":-0.050651821958482286,"74":-0.21154255940962066}},{"sx":1,"sy":1,"depth":75,"w":{"0":-0.21072043666143975,"1":-0.03896912015833124,"2":0.0352085385231742,"3":0.048158967665360285,"4":-0.15042526100369563,"5":-0.22493789250791818,"6":-0.0672313313857993,"7":0.04149602034799523,"8":0.04281404361009006,"9":-0.08927609585039355,"10":-0.21954542888936335,"11":-0.054376333027906606,"12":-0.019500769725605386,"13":-0.08943322451363864,"14":0.03433823246866462,"15":0.0004644374944874576,"16":-0.17362068700996616,"17":-0.016457965080260036,"18":0.04929734373696678,"19":-0.032391335847286554,"20":-0.20640356647676672,"21":0.06975785625592254,"22":-0.06007682848022254,"23":0.049692398748110336,"24":0.11365702080183077,"25":-0.0539131813126386,"26":0.06265871723103762,"27":-0.005241569181656803,"28":-0.0554750844229881,"29":-0.1787174271082355,"30":0.04716451146323925,"31":-0.15797603577942682,"32":0.23618778974444216,"33":-0.1678288372215165,"34":-0.01044860673610584,"35":0.009371303690261477,"36":-0.00248327414135512,"37":-0.10552734561787167,"38":0.2399177058062933,"39":-0.039739163855273624,"40":-0.08462506699804478,"41":0.09118654805671955,"42":-0.0016935927755384308,"43":-0.1330558961993704,"44":-0.20918713945586093,"45":0.21194013268594097,"46":0.13170206466377304,"47":0.04780604452353775,"48":-0.019879274448057496,"49":0.04948226396093712,"50":-0.10125770050909899,"51":-0.08214190867735498,"52":0.3024579440906649,"53":0.025615091927292753,"54":-0.20279208553978006,"55":-0.18276602420270033,"56":-0.07582907330101826,"57":-0.09904999015040497,"58":0.02841565499490191,"59":-0.13563037524431842,"60":0.1948096846233001,"61":-0.17209463668211789,"62":0.10151889477287304,"63":0.15195520803522575,"64":-0.028558679701362923,"65":0.19083881499428432,"66":0.02052070355584914,"67":0.12465058263167941,"68":0.029969033603725242,"69":0.03855356027776364,"70":0.05947581644508889,"71":-0.14046352330175552,"72":0.020145230858865423,"73":0.06987456485292065,"74":0.2191637464527489}},{"sx":1,"sy":1,"depth":75,"w":{"0":0.06182495674458906,"1":0.01784674419898708,"2":-0.0749703076244893,"3":-0.052155474492733715,"4":-0.031209574454976595,"5":0.17276817684222204,"6":0.02764382006860507,"7":0.1404299352323493,"8":0.008908733049765999,"9":-0.13462467518811147,"10":0.08946719294234744,"11":-0.05609937239987702,"12":-0.1477073538744638,"13":0.12558846993278097,"14":0.19074651796744083,"15":-0.03766608151673663,"16":-0.27508208163273123,"17":-0.012195867259080813,"18":0.013543128470937893,"19":0.0003156747623388332,"20":-0.07167009005974982,"21":-0.2890603907082529,"22":-0.04838368462805803,"23":0.23385608323932186,"24":-0.0370838038600557,"25":0.007506636332725061,"26":0.11777227015337677,"27":-0.021437470727402957,"28":-0.10999462602234739,"29":-0.1405524627949234,"30":-0.10026405381081416,"31":-0.1684452639582721,"32":-0.10089429831621381,"33":0.02200994407849303,"34":-0.13194962993816167,"35":-0.19209323185979857,"36":-0.006381137119670151,"37":0.06450160038735903,"38":-0.20073111173621513,"39":-0.12078397882071325,"40":-0.08049350890425917,"41":-0.09397216980093304,"42":-0.015604534876977168,"43":-0.016340910283730914,"44":0.18881252811016108,"45":-0.0931289739358732,"46":0.11601246339054459,"47":0.09388574639352405,"48":-0.11399610957910554,"49":0.11653475191962995,"50":-0.25640016328173615,"51":-0.05002292878382948,"52":0.009195281210378567,"53":-0.09868481687680275,"54":0.018105796258503736,"55":0.23993269602079412,"56":-0.17902501852341335,"57":-0.16613740359603194,"58":-0.05704329673924206,"59":0.1321108864196855,"60":-0.20021908167171595,"61":-0.11702001162986121,"62":-0.18142104950974142,"63":-0.017434713082132035,"64":-0.20700399446116421,"65":-0.04127730302326782,"66":-0.15881830835770447,"67":-0.21215796773094298,"68":0.11183987451649145,"69":-0.04761950597639546,"70":0.11625955985775181,"71":-0.12392686838341803,"72":0.1288718980620865,"73":0.10575474544293971,"74":0.03733674767997652}},{"sx":1,"sy":1,"depth":75,"w":{"0":-0.0650335742572146,"1":0.08999041733587525,"2":0.06945778358229932,"3":0.04185826709575281,"4":-0.31752205635148556,"5":0.15966978003155013,"6":0.05864269682096523,"7":-0.10427187954555583,"8":0.011017808877974456,"9":0.022061730584659604,"10":-0.03584718634996509,"11":0.23486353937869228,"12":-0.16211211432731426,"13":-0.04637105532289853,"14":0.04573301022147021,"15":0.07261604853492579,"16":0.16667132835053375,"17":0.02864723447883389,"18":-0.13937102061877024,"19":-0.11193083163966573,"20":-0.10366811017413874,"21":0.1778020100551103,"22":0.1359780099638845,"23":0.18291542021260124,"24":-0.019292117283215914,"25":-0.04282815808968302,"26":-0.18473886241932103,"27":0.07283304472288542,"28":0.05136534733859348,"29":-0.08140219215882154,"30":0.07535460351555763,"31":-0.08741787585435415,"32":-0.07440566686887459,"33":0.03443506259454435,"34":-0.07122780692863026,"35":-0.13323205448361794,"36":0.10726737190659913,"37":-0.06475019980275375,"38":0.2762376797960498,"39":-0.06465528855907234,"40":-0.045932968557461686,"41":-0.014752630805964905,"42":0.01200649679709726,"43":0.14696392249864665,"44":-0.0676055223902423,"45":-0.22492910813754827,"46":0.134552810425736,"47":0.12095770419382115,"48":0.2226220888789468,"49":0.17374515054189396,"50":0.051220472063740544,"51":-0.10677173786133971,"52":0.17918966480990606,"53":0.1201547708004921,"54":0.12045909452345736,"55":-0.16583733211931082,"56":0.24342834038241853,"57":-0.03202267700544482,"58":0.20310553195970882,"59":0.1572181019927994,"60":0.02902488520063112,"61":0.1397908134386578,"62":0.08383870824838881,"63":0.12648891854157981,"64":-0.02667793789206749,"65":0.14886179147930365,"66":0.13314273360105344,"67":0.0708816340437188,"68":0.2192350055257017,"69":0.0012507498421367724,"70":0.0784278532050562,"71":0.3371703405358006,"72":-0.041523500318583914,"73":0.15629191316090502,"74":0.10412542103634755}},{"sx":1,"sy":1,"depth":75,"w":{"0":0.15018056345436376,"1":0.1986091181938544,"2":-0.05197060318896214,"3":0.06321000848273893,"4":0.00901654506697291,"5":0.1224637396377955,"6":-0.04282201778431547,"7":0.2802602451118108,"8":-0.01451442424902085,"9":0.14531797618081035,"10":-0.14809075699601748,"11":-0.07677658836515014,"12":0.09077462431501222,"13":0.0010313183384597687,"14":0.05175766569835373,"15":-0.06239137989271021,"16":-0.13678027644391433,"17":0.17883728185812317,"18":0.07645160810111533,"19":0.011873640119144635,"20":0.03501571978801256,"21":0.18430353087320417,"22":0.2640445527331425,"23":0.0934423173777848,"24":-0.08127386965363402,"25":0.14182481263283314,"26":0.05707067403812607,"27":0.1749080683012857,"28":0.16981683433618008,"29":-0.11123193070429556,"30":0.10042482480719835,"31":0.006802677884271701,"32":0.10535278266221287,"33":-0.1086382501501065,"34":0.061396153800995404,"35":-0.06128656998226537,"36":0.2927739800961606,"37":-0.03674203483704134,"38":0.19289511837945425,"39":0.10482806077651009,"40":-0.10022420857502295,"41":0.25064766833803115,"42":0.3056627407064287,"43":0.13171072522230207,"44":-0.05952278468915807,"45":0.17820007874723295,"46":0.311479050260098,"47":0.2964346700982362,"48":0.09988280303955534,"49":-0.18324233331030482,"50":-0.08312127186815418,"51":0.3358665786825881,"52":0.2195305369622075,"53":0.10577368923035176,"54":-0.10063577602092867,"55":-0.0713808716506508,"56":0.21781550239550834,"57":0.5372104063294112,"58":0.03130809413758838,"59":0.07856133264519387,"60":-0.13023976984459862,"61":0.10165003963569823,"62":-0.1232920516236796,"63":0.1183296479257923,"64":-0.06558558915907073,"65":-0.015783161652028095,"66":0.31221109929965307,"67":0.11522320630048981,"68":0.41972367509810227,"69":-0.004066617389833552,"70":-0.27056028522496905,"71":0.20893730223857418,"72":0.34713086641949353,"73":0.4391996936268595,"74":-0.10815874914819323}},{"sx":1,"sy":1,"depth":75,"w":{"0":0.11045897235004246,"1":-0.007274089413711892,"2":0.1211029287413467,"3":0.04943636659714872,"4":0.0616681693695648,"5":0.04449849850796529,"6":0.007592099386569561,"7":-0.16611298318628734,"8":0.029588349155783105,"9":0.011980503827982854,"10":-0.0586935011556982,"11":-0.22749005186425916,"12":-0.05907440814235687,"13":-0.051697208870061906,"14":0.05762105768510366,"15":0.24482458847517213,"16":-0.07442981853506564,"17":-0.01454621315439473,"18":-0.03919012126216943,"19":0.19638539492117799,"20":0.056586697264819914,"21":0.04269930533279926,"22":-0.004281858141814667,"23":0.15305045472850545,"24":0.0236518091369305,"25":0.058304892300234806,"26":-0.15437974335452562,"27":-0.0477981666711998,"28":0.1288841723736557,"29":0.0017693139067927678,"30":0.021882173342052485,"31":0.042125133591937376,"32":0.1270792443224915,"33":0.09616988381525123,"34":0.025991476566224764,"35":0.19118373652594808,"36":-0.025499333238951337,"37":0.09002177635660988,"38":0.023931783415008026,"39":-0.06987863269350045,"40":-0.020472644234257636,"41":0.07881734829584168,"42":0.061626299338465876,"43":0.10651049895340656,"44":-0.01713008741356275,"45":0.04692300995919838,"46":-0.07288341323417227,"47":-0.14716261137554698,"48":0.126754668434554,"49":0.15823693357202795,"50":-0.10686983262394839,"51":-0.1728469343781897,"52":0.08906553943855358,"53":0.09455054372363801,"54":-0.009839706903191232,"55":0.053631438484976264,"56":-0.03646684713521179,"57":-0.04767129770789211,"58":-0.1922232716309765,"59":0.16078445052367993,"60":-0.013265541700133141,"61":-0.25613932651761384,"62":-0.00782928904063477,"63":-0.09540417048175732,"64":0.05585327373760182,"65":0.2024143111605512,"66":-0.09977994785475602,"67":0.08029808768099568,"68":0.17365165115209497,"69":0.025043516241361755,"70":0.13653793623796923,"71":-0.07279365177697261,"72":-0.1180228632833651,"73":0.18297829778185098,"74":-0.026037869724977295}},{"sx":1,"sy":1,"depth":75,"w":{"0":0.10560438268542943,"1":-0.1070458577482815,"2":0.031229195277153877,"3":-0.06961268562743415,"4":-0.2451699032228844,"5":-0.0039937098386034426,"6":-0.10941064043621254,"7":0.1655903970170579,"8":-0.11715970195262383,"9":-0.021421965687471133,"10":-0.1215108893881223,"11":-0.012084443605128482,"12":0.03275426099643961,"13":0.09034100788728683,"14":-0.02160877036240693,"15":-0.19019003204115156,"16":-0.026694195635820473,"17":0.018160020313945223,"18":-0.05344499851857801,"19":-0.1146919466004034,"20":0.06629035595534331,"21":-0.10440321329646687,"22":0.1211543170381248,"23":0.014587930982967554,"24":0.07508697437133753,"25":0.059758540246237855,"26":0.06438611419777407,"27":-0.05094436296708802,"28":-0.15485064983692018,"29":-0.1832786080476297,"30":0.0916174568795958,"31":-0.08822215809488475,"32":0.13252191409726113,"33":-0.12342828415844,"34":-0.37522437976178363,"35":0.002278075605914555,"36":-0.11413554277485655,"37":-0.22110095210186637,"38":-0.1061597823856266,"39":0.04297584916791566,"40":-0.1455915765844258,"41":-0.12259404875018504,"42":-0.01560688163839092,"43":-0.0037284980184780947,"44":-0.18959192099607564,"45":-0.06279037529609673,"46":-0.05556870209615997,"47":0.21786889341608937,"48":-0.028646342750878975,"49":0.060543228295445305,"50":-0.051531550412152356,"51":0.032780243848922634,"52":0.14102114088932996,"53":0.05716512902192095,"54":-0.07346018651613563,"55":-0.13601036115003529,"56":0.049236587378820376,"57":0.12182443455521269,"58":-0.11629379176633796,"59":-0.01401404571662214,"60":-0.018785669271926018,"61":0.03137580880163365,"62":0.05543894998406964,"63":0.08578419194759979,"64":-0.014317418565152127,"65":-0.07304659450009701,"66":-0.0677070232368922,"67":-0.09404966914399236,"68":0.010266605258402024,"69":0.10898517952134773,"70":-0.0007030625134680399,"71":0.05497908721071348,"72":0.1312865762151389,"73":0.1708249331920918,"74":0.05929434966187082}},{"sx":1,"sy":1,"depth":75,"w":{"0":0.2636314738825259,"1":0.016070378485394273,"2":-0.048964652278179595,"3":0.021531504020039657,"4":-0.003278913598259146,"5":-0.014937835247559202,"6":0.049776119854699964,"7":0.032710809512444226,"8":-0.26232088747925986,"9":0.07392518689944635,"10":-0.13642011982603347,"11":-0.011307959712125087,"12":0.043153254420405844,"13":0.030664652393280287,"14":-0.1628583204594968,"15":-0.020851346917369628,"16":0.035323089423802446,"17":-0.14098141894555452,"18":-0.10097707301509505,"19":0.15278902208846495,"20":0.03954063639527093,"21":-0.02079518678265276,"22":0.1546925350077356,"23":0.06271004948515445,"24":-0.009750107830558142,"25":-0.21159392718515008,"26":0.027091537689848615,"27":-0.037000595524335114,"28":0.056281429033118203,"29":-0.013089996067669292,"30":-0.16051610340022607,"31":0.17924776064245668,"32":-0.23903903451131056,"33":-0.027165050368437242,"34":-0.16451530573551074,"35":0.06253069164205244,"36":0.18142555480728634,"37":0.16039993005709735,"38":0.15111849176152395,"39":-0.05563719993341506,"40":-0.013543392514711539,"41":0.061674020198073706,"42":0.16094217491461552,"43":-0.12198669025030705,"44":-0.14114223073755025,"45":-0.02615343072933735,"46":0.024228379837310472,"47":-0.06336948138582764,"48":-0.10431638632954361,"49":0.2803404054781987,"50":-0.08832488050948967,"51":-0.10477731275885005,"52":0.05010221645804363,"53":-0.10859204575247827,"54":-0.20228234294073608,"55":0.0769192549703119,"56":-0.0005564713067057247,"57":0.36827330273493347,"58":-0.3365300369559834,"59":0.05249703260282656,"60":0.030162459990457104,"61":0.03039764489328547,"62":-0.30949335112007875,"63":0.2237210636492309,"64":-0.09514388555998171,"65":-0.08225016017998767,"66":-0.02120982056980398,"67":0.05029305112178868,"68":0.08087201616562738,"69":-0.04571950571640854,"70":0.013350651479813897,"71":0.0029595765888311885,"72":-0.0748850280827983,"73":0.17260766273599254,"74":0.07590185861818069}},{"sx":1,"sy":1,"depth":75,"w":{"0":-0.014345852578007915,"1":0.11001910113198024,"2":-0.08446986330014511,"3":0.15948824516600502,"4":-0.03030186273668312,"5":0.015083459159242623,"6":-0.01986131550417876,"7":-0.13748914833136283,"8":-0.08036162027956802,"9":-0.10029365600981834,"10":-0.05637382458215378,"11":-0.2359330985730942,"12":-0.08799660563158736,"13":-0.06316849676031813,"14":-0.1559324277868469,"15":-0.10807664187519872,"16":-0.01827963253025229,"17":-0.05321493654895555,"18":-0.03052127976158383,"19":0.29127117443222156,"20":-0.32282421471547523,"21":-0.32772939215802216,"22":-0.05199426518448593,"23":0.003301409264855315,"24":-0.062022513032544135,"25":0.04418746683664491,"26":-0.23957402052099772,"27":-0.17030994633626337,"28":0.12556768837897173,"29":-0.22681425056228635,"30":-0.1573975535654958,"31":-0.21299195479312877,"32":-0.023308786721143993,"33":0.13469496099877848,"34":0.15680193610790016,"35":-0.10794639616499918,"36":-0.15937422293037384,"37":-0.15622607657626858,"38":-0.18100749571234873,"39":-0.0017404143057844063,"40":-0.032048466196015,"41":-0.1310502578439572,"42":0.042843962219339386,"43":0.1536716588067826,"44":0.1216553356947288,"45":-0.13789857419738666,"46":-0.025470378356172996,"47":-0.06217433171418518,"48":0.11662197821893815,"49":-0.039324627996363624,"50":0.0023585332103983835,"51":-0.043652978976987444,"52":0.1188703724861678,"53":0.04010096307923631,"54":0.028199301513774158,"55":0.07407252022779169,"56":-0.2543995789259102,"57":0.044482239668658156,"58":0.02990031784189712,"59":0.001506253900162774,"60":-0.23783299973526487,"61":-0.07943849108055787,"62":-0.1054539643441692,"63":0.06089309880223867,"64":-0.1438477496873114,"65":-0.20941317582815636,"66":0.043085014713087344,"67":-0.14887689066190057,"68":0.020141800793679776,"69":-0.22906693299317535,"70":-0.034040841525584224,"71":-0.26463063690553973,"72":0.04682513110203502,"73":0.2533432827436553,"74":-0.027691210137541455}},{"sx":1,"sy":1,"depth":75,"w":{"0":-0.054639071527804346,"1":-0.004530159653467403,"2":-0.036931773186319176,"3":-0.04918837752214986,"4":-0.009824298581958426,"5":-0.049212900966588514,"6":0.0932371139223147,"7":0.09397326307454827,"8":0.06558928288927096,"9":-0.011249684166138977,"10":-0.07395343816872815,"11":0.017261160896397194,"12":-0.08748459231461282,"13":-0.09552598518595781,"14":0.12433875430542807,"15":0.08475015667754918,"16":-0.20293428110821707,"17":-0.10113262331457264,"18":-0.08711532194147077,"19":-0.07600579563107218,"20":-0.03410163082869705,"21":-0.13311209290894718,"22":-0.09024127746812666,"23":0.01302273199232892,"24":-0.020661839394035354,"25":-0.07221806023216698,"26":0.06742143470984123,"27":-0.08448825726546802,"28":0.09995933914784592,"29":0.09817197914485457,"30":0.17768012866693994,"31":-0.03235383462916748,"32":-0.13670614686656782,"33":0.0009161838057049385,"34":-0.08191165306012775,"35":-0.23644275546237517,"36":0.14435402655076227,"37":-0.08393736143287343,"38":-0.13164045761460583,"39":0.18438214936162245,"40":-0.12108680048654301,"41":-0.05889576428180101,"42":-0.14094369236072965,"43":-0.03836981006356512,"44":-0.09675398161585083,"45":-0.05044301321364781,"46":0.021352255348847923,"47":0.07938594613562257,"48":0.1386005956198939,"49":-0.06250795797164298,"50":-0.06501851922432988,"51":0.07772173981970279,"52":0.13694304368302188,"53":-0.21851753586466702,"54":0.2393064519091498,"55":-0.03031415420521425,"56":-0.13953047435125565,"57":0.08597526447016102,"58":0.04429987284461363,"59":0.0741894156579221,"60":-0.09917551967929503,"61":-0.0826732223046728,"62":-0.06524421797149361,"63":0.06323193428429502,"64":0.000052987337883859685,"65":0.23331851095863732,"66":-0.1023470041452504,"67":-0.026793134811502695,"68":-0.21429928025639353,"69":0.050652784141188914,"70":-0.012284917960727022,"71":-0.18059727287839067,"72":0.17780953557425494,"73":-0.12069956110242408,"74":-0.1487517326953783}},{"sx":1,"sy":1,"depth":75,"w":{"0":-0.09751319236595904,"1":0.11588014313006036,"2":-0.008092212473264273,"3":0.17932637779019234,"4":0.019996083082844483,"5":0.021674911047252703,"6":-0.08239966825188991,"7":-0.05361384128303019,"8":-0.1479905415345549,"9":0.10787700139278744,"10":-0.16923776595372444,"11":-0.14468153499057718,"12":-0.13080401101541167,"13":0.04727666161125835,"14":0.18870947026869003,"15":0.15082938655177466,"16":-0.05552453467478226,"17":0.10848375539595617,"18":-0.05822711886897365,"19":0.06174158253731852,"20":0.06398472711035483,"21":0.18237837520877348,"22":-0.13956793504519224,"23":0.13959753076192657,"24":-0.04420489038338718,"25":0.06879074018092982,"26":0.2731432151751646,"27":0.013115710259863233,"28":-0.19484358875315555,"29":-0.01901098693940686,"30":0.05363165414794381,"31":-0.05819806874010995,"32":-0.11898246044723797,"33":-0.07460943824578102,"34":-0.039987256754037165,"35":-0.11991589974121905,"36":-0.06594184329668443,"37":0.05212632781424863,"38":0.2594384187336761,"39":-0.02666038641818091,"40":-0.0016237736107077097,"41":-0.05045689110179363,"42":0.027242044782169152,"43":0.1111594873629845,"44":0.18340245804200908,"45":-0.0755673479214373,"46":-0.0021814821294799834,"47":0.1889552075719622,"48":-0.0036891911081970595,"49":-0.0726850358361296,"50":-0.06553224668879214,"51":0.006886665869949565,"52":0.021232010078248882,"53":0.08868367530287811,"54":-0.022445489741158224,"55":-0.015416841560401922,"56":-0.015719247752795762,"57":-0.07217553552748639,"58":0.006542422099348969,"59":-0.005584238342504838,"60":-0.1134385013772926,"61":0.028556410693477453,"62":0.10847727149402259,"63":0.23746653687731453,"64":0.22788030981507895,"65":0.10383842491540617,"66":-0.05445309287487879,"67":-0.07448302015752449,"68":0.060077702527607295,"69":-0.1264509175165842,"70":-0.15365429559008706,"71":0.025026363300815105,"72":0.0016687789730736276,"73":0.027759092902343876,"74":-0.026281856579052142}},{"sx":1,"sy":1,"depth":75,"w":{"0":0.18527588546145607,"1":0.11505111313953,"2":0.2983827201608315,"3":0.09887681227116711,"4":-0.0668004336937171,"5":0.06399186118341155,"6":0.23423935311360397,"7":-0.0804614453524875,"8":-0.06002472303810221,"9":0.10302911553553247,"10":-0.19219587451588183,"11":-0.09457545610075832,"12":0.15973420784064146,"13":-0.1185359108610815,"14":0.08374732836880283,"15":-0.1596431801364139,"16":0.007023667850405614,"17":0.10317050946319128,"18":-0.0969562247335657,"19":0.09500500094980041,"20":-0.019198906761776532,"21":0.08856509429276894,"22":0.18631549379866505,"23":0.2236823171724823,"24":-0.04294193048054521,"25":0.11701042485047965,"26":0.03199441388674213,"27":0.11056833754878305,"28":-0.05288733151571632,"29":-0.018779836600154497,"30":0.007144364656204268,"31":0.05243646316572407,"32":0.07897441659765406,"33":0.025622707668032384,"34":0.1184003575548381,"35":0.1856050839841195,"36":-0.09727501780252697,"37":0.03750005998102419,"38":-0.23351840286679446,"39":0.1561641284762293,"40":-0.037989347512885144,"41":-0.05284577914181186,"42":0.3476900117400226,"43":-0.17891143388098787,"44":-0.03515009363882138,"45":-0.11662937046950067,"46":-0.0877376751374595,"47":0.18259803215870554,"48":0.10175370725241527,"49":-0.021923839093951385,"50":0.03402882766095154,"51":-0.05998177157934208,"52":0.3743816047709521,"53":-0.012341402125114052,"54":0.011386522089772281,"55":-0.14501431575570636,"56":-0.09151428010507558,"57":0.3192791129630709,"58":0.01505909898907078,"59":0.0900366906581823,"60":0.1262356030055171,"61":0.07432111824710058,"62":-0.1281526084483873,"63":-0.0044752000101508935,"64":-0.05084401728659367,"65":-0.02443326197778171,"66":0.02052838111739583,"67":0.12373316876800597,"68":-0.16801974519079424,"69":0.11907382155161218,"70":-0.07160221837878318,"71":-0.0068344242206531585,"72":0.10723760110147082,"73":-0.006304322906184906,"74":0.11778494284377991}},{"sx":1,"sy":1,"depth":75,"w":{"0":-0.13759331719942583,"1":-0.07895460961007156,"2":0.06636457206533342,"3":0.15443082510887463,"4":-0.16123376245800689,"5":-0.04692142433288764,"6":-0.11180040448558512,"7":-0.077715030591067,"8":0.08932090550162115,"9":-0.06077848493811751,"10":0.07432271191536428,"11":0.13488773272702914,"12":-0.12155232876111789,"13":0.03381213412576606,"14":0.07467052030715486,"15":-0.09161667139320803,"16":0.13827162700805168,"17":0.15580147920599174,"18":0.13340511064176067,"19":-0.18226920901399493,"20":0.17726101724879995,"21":0.0883613083398053,"22":0.11249269110381836,"23":0.0793048881536981,"24":-0.16398421781480507,"25":-0.0883209771272905,"26":0.028106590792743382,"27":0.05229152453554131,"28":0.015555317648102172,"29":0.15452588624298386,"30":-0.14545227591513915,"31":-0.1660962836184962,"32":-0.15165953552018427,"33":0.060831143996572266,"34":-0.09455003838010677,"35":0.1836956048341769,"36":0.13257503037724777,"37":0.007019903824021381,"38":0.09127925999833932,"39":-0.12529866579097096,"40":0.11183931085569461,"41":0.24394849371764202,"42":-0.10886323840509596,"43":0.01898361043550332,"44":-0.004516508269900265,"45":0.09527305487505922,"46":-0.22501843989212775,"47":0.16083165121256618,"48":0.09960511015499278,"49":0.10037401274046442,"50":0.09040491478566567,"51":0.033696351833790154,"52":-0.11425065110526324,"53":0.10760915434884007,"54":0.16781484954646886,"55":-0.06521877745298021,"56":-0.1542628891294278,"57":-0.02676469764011416,"58":-0.04580236968470179,"59":-0.029236474554200496,"60":-0.06667459417093438,"61":0.0776689685882539,"62":0.07888367629209773,"63":-0.15907148562866802,"64":0.046043162695712965,"65":0.06934360648846272,"66":-0.3230765369346271,"67":-0.1787346852743077,"68":-0.08797378654041714,"69":-0.06740246394453932,"70":-0.04275706877527096,"71":0.20692598013740243,"72":-0.1200893298221478,"73":-0.10773405358947781,"74":-0.07076203461293135}},{"sx":1,"sy":1,"depth":75,"w":{"0":-0.04014598936867269,"1":0.0571907993022211,"2":0.1510504611284206,"3":-0.05411617084565797,"4":-0.047589104656145034,"5":0.06657750257928731,"6":-0.16061867558725268,"7":0.09111824445111764,"8":-0.05576496324105001,"9":0.04778791551249553,"10":0.127271178176459,"11":-0.05940010009137256,"12":-0.19740294353161203,"13":0.07417126541495332,"14":-0.08925227618092665,"15":0.0621249734761827,"16":0.02829966193192378,"17":0.19764046267729618,"18":0.01720694859085927,"19":-0.030857990199010473,"20":-0.007332958283624704,"21":0.11564094038256599,"22":-0.013013462414795672,"23":-0.032423505792044054,"24":0.002181470212043864,"25":-0.07034604393346282,"26":0.016213238088284253,"27":0.08059377198746069,"28":-0.19688803883881817,"29":-0.04363351987427425,"30":-0.028331986689045616,"31":0.04723599624433361,"32":0.18860593139877332,"33":0.16382569254634852,"34":-0.015427625021098996,"35":-0.20272694019648618,"36":-0.002052139968296135,"37":0.1494798325172603,"38":-0.03350122334955938,"39":0.03709298343310061,"40":0.06132810471584135,"41":-0.03228279142362113,"42":0.17385110109149604,"43":0.19761498058628046,"44":-0.09769186178551442,"45":0.126464699820452,"46":-0.16679266677425014,"47":0.22142205227550846,"48":0.00003432045214827595,"49":-0.2610637374663524,"50":-0.15529534487120317,"51":-0.07359127862765943,"52":-0.00277754466360612,"53":0.04751898529459664,"54":0.05632410429763818,"55":-0.10861304601735801,"56":-0.1289748934986518,"57":0.2808596294267874,"58":-0.18092921928172412,"59":0.19518912096373844,"60":-0.09590150577629854,"61":0.09488112752371576,"62":-0.0570676997683425,"63":0.005803707904164603,"64":-0.05370426053468929,"65":-0.06500287536937498,"66":-0.08950439812892641,"67":0.27178565283217504,"68":-0.07827006192210179,"69":0.10339362854606007,"70":-0.01019808021003943,"71":-0.1026773638573329,"72":0.13416812443333015,"73":0.13109787087340485,"74":-0.1397577020500161}},{"sx":1,"sy":1,"depth":75,"w":{"0":0.13212703072787824,"1":0.05144041424200209,"2":0.1737159403205208,"3":0.06545832644135838,"4":-0.05155148389127308,"5":-0.03168601202700659,"6":-0.07614242817873015,"7":0.0630359941540801,"8":-0.11678767827138843,"9":0.09840131555495656,"10":0.005340900372573678,"11":0.004391314546411487,"12":0.05435122136020238,"13":-0.09611162562471427,"14":-0.05224584988502343,"15":-0.19768108814839075,"16":-0.16131019028702956,"17":0.23790765408099912,"18":-0.1388711160379283,"19":-0.15277927617854645,"20":-0.0316809374797112,"21":0.10016057349217238,"22":-0.0065143226043979235,"23":-0.24010994181822687,"24":0.17465246574062498,"25":-0.08784287814553313,"26":0.09158901813862667,"27":0.19219344654631934,"28":-0.13662147146026823,"29":-0.16488869715950663,"30":-0.03205993593386324,"31":-0.08636533922282304,"32":-0.007017162158445747,"33":0.014056307395213378,"34":-0.02634117834816359,"35":0.039185243663561985,"36":-0.09916102153223796,"37":0.0958712866725774,"38":-0.0030997029602502827,"39":-0.028519208640616422,"40":-0.2703269792141329,"41":-0.003855719323328252,"42":0.1117933349278798,"43":0.07413468661317787,"44":0.09410031888302482,"45":0.048558535718675376,"46":0.008107151445709001,"47":-0.052707526297106046,"48":-0.07362506616335747,"49":-0.20997801481371314,"50":-0.14353843333079935,"51":-0.06928723831466961,"52":0.2328635006761152,"53":-0.2835374050582506,"54":-0.021283974549857948,"55":-0.18220663741740672,"56":-0.06654228116173795,"57":0.3678902428193178,"58":-0.06557419373097333,"59":-0.08707342366826731,"60":-0.020016925417728405,"61":-0.07054307330707706,"62":0.025541585028510057,"63":-0.09398110227157391,"64":0.029154383906843363,"65":0.27286125960006796,"66":-0.19435930023482537,"67":-0.18803007801181634,"68":0.07384341052962654,"69":0.13104827737494668,"70":0.08521969004001048,"71":-0.14654923534645556,"72":-0.031411553679914564,"73":-0.10268674956431868,"74":-0.02384240327975729}},{"sx":1,"sy":1,"depth":75,"w":{"0":-0.03320524846145948,"1":-0.04210431585464695,"2":0.28081043262773064,"3":0.14399105171214494,"4":-0.04455673299599654,"5":0.029705879473064658,"6":-0.011416393993053777,"7":-0.0667404827724143,"8":-0.15592362799869888,"9":0.06818635785500686,"10":0.10010729884955426,"11":0.06913895767859096,"12":-0.0320428384344501,"13":0.016586448086597465,"14":-0.021750767688234703,"15":0.10809346052888584,"16":0.08084027510571895,"17":0.06398436799512425,"18":0.057191567754889136,"19":-0.1527350181812758,"20":0.16739338654375355,"21":-0.18992475768473965,"22":0.14269600491943057,"23":0.19875074138856658,"24":-0.08597963069086882,"25":-0.12812433829730455,"26":0.15993479251722853,"27":0.25569143671427974,"28":0.08110304200791582,"29":0.09446055381945458,"30":-0.07600491573425046,"31":0.12216404352902992,"32":-0.11399358790428968,"33":0.05992954871368227,"34":0.012439573656990967,"35":-0.09411629098547519,"36":-0.06088276738667603,"37":-0.006024929349982243,"38":0.07449953946671434,"39":0.12884900996268892,"40":0.08860977569861234,"41":-0.09532077680290915,"42":0.28992925291021204,"43":0.10619291256284695,"44":0.16352310226363032,"45":-0.18647505581975976,"46":-0.10179690881206951,"47":0.17934133232492985,"48":-0.012180068728184721,"49":0.06779049546801727,"50":0.10132400937056665,"51":0.036473948343018085,"52":0.24053796656873946,"53":0.21538410680091413,"54":-0.13144544888350126,"55":0.015782299566535575,"56":-0.15623959216263344,"57":0.2315757766802172,"58":0.14417366190219483,"59":-0.16844982178620374,"60":-0.03507967331154475,"61":-0.20166925535019903,"62":-0.02420753650616244,"63":0.2646599614971075,"64":0.06469626349458336,"65":-0.15311300464272526,"66":-0.04357835161893365,"67":0.03603731263370816,"68":0.16271609672489187,"69":0.17622831205403944,"70":-0.06139931014458759,"71":-0.24504789060278273,"72":-0.0009923179931578068,"73":0.15183785432949787,"74":-0.09349161666256303}},{"sx":1,"sy":1,"depth":75,"w":{"0":-0.0018784447042648888,"1":0.13917517221140543,"2":-0.04282740477623567,"3":0.11582096570761935,"4":-0.08721117960289734,"5":-0.1271961912773492,"6":-0.04138490237551245,"7":-0.009252586450887754,"8":-0.08486365234135816,"9":0.04546637190955356,"10":0.05073482106568845,"11":0.02024804043321754,"12":-0.12377035717370177,"13":-0.11403586053838173,"14":0.12146092187370594,"15":-0.005767913705480437,"16":0.169050554138738,"17":0.019496095778037712,"18":-0.1513464628404793,"19":-0.16931836021307622,"20":-0.0534453147053622,"21":-0.07012145608741137,"22":-0.15048064602097827,"23":-0.05502127112900556,"24":0.23160519321757556,"25":0.038204260870411844,"26":0.15867090709423487,"27":-0.136817441400277,"28":0.07356141314337226,"29":0.016326667497022194,"30":0.06580712202241022,"31":-0.0937727231212758,"32":0.08628428586989804,"33":0.23748442005675038,"34":-0.17927411854229247,"35":0.16463182368767182,"36":-0.11683463787743296,"37":-0.16089579964162767,"38":0.08689560680315071,"39":-0.13682304390107292,"40":0.04008571937992296,"41":-0.19238045694628073,"42":-0.022784378433613757,"43":0.0007946075992006136,"44":-0.047559667593560506,"45":0.03779927628956964,"46":-0.2544403577566083,"47":-0.0041895254731548525,"48":-0.05395131445846812,"49":0.25584534320464164,"50":-0.2383911423667494,"51":0.02378203941576003,"52":0.0942629543086529,"53":0.11298511685519118,"54":-0.007645334572082792,"55":-0.1494620208559623,"56":0.01822490069199412,"57":-0.14129468024702946,"58":0.11569422152325333,"59":0.06237444510972505,"60":-0.09863961190069877,"61":-0.021568990340431013,"62":-0.013955239281877382,"63":-0.11012989164337707,"64":-0.15158739365471544,"65":-0.013125751427669839,"66":0.1687402195459783,"67":-0.1321847680592641,"68":0.1488352815645958,"69":-0.10995573993339254,"70":-0.0648616628536499,"71":0.026825298855650333,"72":0.042680692767746685,"73":-0.06488681960176676,"74":0.10939708039688868}},{"sx":1,"sy":1,"depth":75,"w":{"0":-0.0842267980827779,"1":-0.07526023422385156,"2":0.1395207975705993,"3":-0.1013419878513516,"4":0.06900887954804112,"5":0.029381105738803207,"6":-0.012577434364902442,"7":0.054108287431047765,"8":-0.14127686316487661,"9":-0.14820358890125668,"10":-0.3192914295564913,"11":0.07170851718375551,"12":-0.06035566051249716,"13":0.02530553507432144,"14":-0.09448866969228657,"15":-0.19431894456483734,"16":-0.07816257807764303,"17":-0.04511571001063997,"18":-0.13712728072987135,"19":0.14760754037399285,"20":0.033345814694794355,"21":-0.08086472070634845,"22":-0.13411964076438376,"23":-0.19291526809228865,"24":-0.06366150092509826,"25":-0.02334443718665796,"26":-0.07412513417250581,"27":0.0605107677662588,"28":-0.02651435380613237,"29":0.043974309352013255,"30":0.05302540551933909,"31":0.08924311071850417,"32":-0.09463703048728216,"33":-0.08915765541731431,"34":0.1393489665925215,"35":0.02713134909408638,"36":0.15845990877222202,"37":0.03579611708955368,"38":0.02647586367230296,"39":-0.008090530166089425,"40":-0.12733205040572126,"41":0.043086918637422804,"42":-0.24508614782989424,"43":0.15008033035894647,"44":-0.026586396073101645,"45":0.021039865075378902,"46":0.10643903337826675,"47":0.2136168724800497,"48":0.02519941183923631,"49":-0.1638198900323662,"50":-0.07429629256412952,"51":0.08588265887069386,"52":-0.0317652198121418,"53":-0.004836085199004028,"54":-0.16947364484386182,"55":-0.21589699022738987,"56":0.04726985326638199,"57":0.03186904921252673,"58":-0.2425404764569535,"59":-0.08659624640139804,"60":-0.10528417819735901,"61":0.07402485600146118,"62":0.18561415527878994,"63":-0.005819027162922822,"64":-0.044194140015377484,"65":-0.04254912762178138,"66":0.17760875826452535,"67":0.31880875016457594,"68":-0.06373943410569406,"69":-0.01626772901093876,"70":0.001044007315243031,"71":0.2353034284435232,"72":0.10232717171374849,"73":0.096498513174642,"74":-0.07985551175490005}},{"sx":1,"sy":1,"depth":75,"w":{"0":-0.01614190463073644,"1":0.10482993243313088,"2":0.0650724264021468,"3":0.05108776561393693,"4":0.007762787696464327,"5":0.1478852265644457,"6":0.005569216313856137,"7":0.023766895437725765,"8":-0.18179081968783004,"9":-0.278470663797653,"10":0.0518670155712553,"11":-0.00036980023923775346,"12":0.1919409503340017,"13":0.32990710576789467,"14":0.15976742633121122,"15":-0.010840011831949213,"16":-0.12711967159350693,"17":-0.09844054450023688,"18":0.03373300131446697,"19":0.08251331190633408,"20":-0.19612471260067996,"21":0.28821937730425157,"22":-0.11874195362197032,"23":0.06234323766794934,"24":0.04623317137876898,"25":-0.0054599903612523116,"26":-0.06371287232468985,"27":0.16493320743678547,"28":-0.016594278283782665,"29":-0.07811000038483978,"30":0.05727137408165096,"31":0.18089067885025173,"32":0.0241552364922222,"33":0.07850617950705376,"34":-0.012306994435024872,"35":0.05236893571072233,"36":-0.01401934891851352,"37":0.06726223989815212,"38":-0.15640647018629503,"39":0.07748359358938767,"40":0.1509331337989151,"41":0.04587793285074724,"42":0.20286864201005786,"43":-0.024268189495575868,"44":0.08664178164517013,"45":0.05838892539070052,"46":0.2867305776093499,"47":0.10171991811008328,"48":0.0958885837798694,"49":0.08143844415629233,"50":-0.08861394202349462,"51":0.006927709637985841,"52":0.10915899375287802,"53":-0.006418666437111703,"54":-0.12020170730879627,"55":0.09010925247813713,"56":-0.12833718245617767,"57":0.20619933710601213,"58":0.1860246754340824,"59":0.18707722231894558,"60":-0.056042710068810585,"61":0.19303402225368477,"62":0.05484860324700272,"63":0.02488942204588368,"64":0.0288433764929067,"65":0.12585024971583514,"66":0.028409312659726085,"67":0.11720911668963276,"68":-0.12224411146077777,"69":0.11353447441452165,"70":0.0148358524917921,"71":0.14177601395602923,"72":0.1441312760774175,"73":-0.2656184989213591,"74":0.032920827810167266}},{"sx":1,"sy":1,"depth":75,"w":{"0":0.1992947852844473,"1":0.19731584098664384,"2":0.043742011239184087,"3":-0.11756782336869197,"4":-0.016777960948065895,"5":-0.13946405059601724,"6":-0.18536089480340714,"7":0.1546879013096098,"8":-0.1463284137881986,"9":-0.13482186848487318,"10":0.15881532958708428,"11":0.08736109521207727,"12":0.12764533084886787,"13":0.00753801346989898,"14":0.08590593696277185,"15":0.12172276308679866,"16":0.07739980361987561,"17":0.03969794772268444,"18":-0.17376614736572138,"19":-0.17565169200670427,"20":-0.137478132911587,"21":0.15317061775517937,"22":0.010166081978193886,"23":-0.27450227518710746,"24":0.1501665601448664,"25":0.037769873394537704,"26":0.0664787267211619,"27":-0.21920650351484466,"28":-0.15725158185217075,"29":-0.04097612925249517,"30":-0.06253847415152701,"31":-0.059159339229702936,"32":0.02792300447027586,"33":0.09024208026181324,"34":-0.02078592258825685,"35":-0.1219202966201888,"36":0.08672375048762543,"37":0.059913515893313334,"38":-0.07325487611598754,"39":-0.10265588989686471,"40":-0.015706683872221402,"41":0.23954531019565375,"42":0.030795898439400626,"43":-0.0010950880952880916,"44":-0.12674024458077243,"45":-0.1837231404942126,"46":-0.07251138996500887,"47":0.09435278287154573,"48":0.005504494247231982,"49":0.014497351047100503,"50":0.04454972880532722,"51":0.1517651265417837,"52":0.10272403081631445,"53":0.03812796870954321,"54":-0.005112090154583198,"55":-0.03224929194249443,"56":0.20905551067130881,"57":0.06022516861274493,"58":0.1193069811839456,"59":-0.09354277315686103,"60":-0.08219708165170762,"61":0.29454010696168637,"62":-0.246398570654988,"63":-0.06889993301499094,"64":-0.09879007248775576,"65":0.05673019853129932,"66":-0.04615752492771597,"67":0.13011992304905803,"68":0.02488206107598954,"69":0.0550612765204181,"70":-0.06465944259447777,"71":0.1106779440559118,"72":-0.054512959151038605,"73":0.14446467551638087,"74":-0.034519961374630106}},{"sx":1,"sy":1,"depth":75,"w":{"0":0.15445431107419977,"1":0.03826138044134056,"2":-0.008525577398958201,"3":-0.0019181400981068079,"4":0.08700588873013983,"5":0.08775819004955174,"6":0.0872247683751765,"7":0.10096382892736448,"8":-0.04903470855739538,"9":-0.11325563340202426,"10":-0.010680270008543612,"11":-0.05601907259766435,"12":-0.06831907162013681,"13":-0.07310250745182388,"14":0.0494091420315761,"15":0.12607355774668522,"16":-0.018022200537867655,"17":-0.19283143464493074,"18":0.2276474827939579,"19":-0.19734432009871378,"20":0.026310350726285864,"21":0.21485090656075564,"22":-0.057469077487503545,"23":-0.12445912090971831,"24":-0.02522313584153979,"25":0.028287318252307705,"26":0.05915497572356596,"27":-0.030166446883952116,"28":0.02328878494796192,"29":-0.16822521081008343,"30":-0.1261186367545983,"31":0.13234136547320247,"32":0.2802264186032325,"33":0.03867665432896666,"34":0.1138536357507229,"35":0.07325202265014531,"36":-0.04257372816602377,"37":0.10152057847947993,"38":0.04040603210928216,"39":-0.1077429859265601,"40":0.008805138116234571,"41":-0.057394789565326364,"42":-0.09581099405233985,"43":0.08641454231401313,"44":-0.02474465609357622,"45":0.08635163892286336,"46":-0.10500155143095698,"47":0.006210596689523743,"48":0.02311117624006859,"49":-0.04376649301036457,"50":0.011508423435719565,"51":-0.05482483991874721,"52":0.004274019296562955,"53":0.07016630709596011,"54":0.0457283073390179,"55":-0.019137985212623332,"56":-0.01703656924316658,"57":-0.09504155207200705,"58":0.1333035149419208,"59":-0.19495432692286033,"60":0.010266479449059254,"61":-0.24908912327715163,"62":0.15159151874044138,"63":-0.0465923918397808,"64":-0.2205083827689254,"65":0.043491172826906746,"66":-0.07023226448943952,"67":-0.0026903323545308722,"68":-0.1625263610218956,"69":0.07587825477253671,"70":0.0023055718711594854,"71":-0.2057491493145892,"72":0.06264465435073664,"73":0.07151546855208525,"74":-0.011606129235899392}},{"sx":1,"sy":1,"depth":75,"w":{"0":-0.025410607022646345,"1":-0.28384800175795727,"2":0.10891553960552099,"3":0.04016543270426869,"4":0.18935700856296608,"5":-0.020994869553853848,"6":-0.409844467337081,"7":0.009578657189426912,"8":0.10147650112851632,"9":0.05363793881714323,"10":0.2517350113236619,"11":-0.042736416629222514,"12":0.11453419499340821,"13":0.0020220985359685525,"14":-0.046288510613957175,"15":-0.18885405919455733,"16":0.20578853120667068,"17":-0.06672284277374554,"18":0.07607553860644777,"19":0.09544301654414404,"20":0.04745629762565159,"21":-0.1528233033360842,"22":-0.07662752142894357,"23":0.07840481631269532,"24":-0.1013852496171581,"25":0.10706262668877106,"26":-0.16175058090347322,"27":-0.04200858596609779,"28":-0.08685722425236903,"29":-0.12384849297084428,"30":-0.09828463111332528,"31":-0.12651516463882256,"32":-0.09982264275092309,"33":0.018190928567622965,"34":-0.040920327049836315,"35":-0.008753255891947781,"36":0.03932248488508559,"37":-0.0002297218851390265,"38":0.08209604653163868,"39":0.12348912246922082,"40":0.054414206514909746,"41":-0.15306624503793073,"42":0.23627924725039767,"43":0.10995396995775605,"44":-0.08904928882509226,"45":0.14276490487516663,"46":-0.23740169377547565,"47":0.18573681549126803,"48":0.030738296654440667,"49":-0.1688340514514994,"50":-0.060161311995385616,"51":-0.09467321132297457,"52":0.11370304452649552,"53":-0.0769819517206322,"54":0.14245632866068983,"55":-0.1976236265657375,"56":0.09328738276386439,"57":0.2524038114944495,"58":0.03151185135994916,"59":-0.037914433472844664,"60":0.16122932607512358,"61":0.056410823367929123,"62":-0.30478207750912273,"63":0.055246129920084784,"64":-0.11841326639120095,"65":-0.1297685675344502,"66":0.12826322246855296,"67":-0.12626344467814657,"68":0.010284913243808072,"69":-0.05909564763634642,"70":0.23596069367234548,"71":0.06675745193246825,"72":-0.12883016651659338,"73":-0.05673767074112682,"74":0.03482643936757706}},{"sx":1,"sy":1,"depth":75,"w":{"0":-0.024882597957031762,"1":-0.005834199032881605,"2":0.22233386523412974,"3":0.07769550429613774,"4":-0.02496185938007911,"5":-0.08134793856391735,"6":0.24742324030687077,"7":0.1306513692697176,"8":-0.07895760184218843,"9":0.008258165036867519,"10":-0.0073401857214287465,"11":0.014093847298742546,"12":0.09081764822663543,"13":0.12042557147389507,"14":0.08137747577926067,"15":-0.17061012392633518,"16":-0.016860589474893533,"17":0.07627871759246913,"18":0.0012594599256876018,"19":0.13335961518601724,"20":-0.14238225049461858,"21":-0.1526859485499245,"22":0.05740128314895506,"23":-0.029340133719307746,"24":0.00108314911844888,"25":0.2805161359762965,"26":-0.07587501461029222,"27":-0.03016501665621181,"28":0.10346658482651294,"29":0.06878496538359308,"30":0.16045160405816117,"31":-0.03068236597331227,"32":-0.2821110797671916,"33":-0.03559277123958229,"34":-0.0702215424878786,"35":0.21302208451222696,"36":0.2513827312059273,"37":-0.08845928522212868,"38":0.16798744840528637,"39":0.01256244778434484,"40":-0.021444957752770413,"41":0.0526829281653544,"42":0.08941742524590364,"43":-0.018194608370837733,"44":-0.2604561134395141,"45":-0.2003958025331643,"46":0.1731993171547606,"47":-0.05854570942370515,"48":-0.027913636091324585,"49":0.05132542825762107,"50":-0.04279872903778451,"51":0.041450702453298724,"52":0.00523036107158745,"53":-0.0969001003232717,"54":0.09146727648106606,"55":-0.05998014730210042,"56":-0.2609323330695615,"57":-0.03443076901796597,"58":0.07088470452105111,"59":0.0522780029729779,"60":0.09954365777415465,"61":0.13143264278224387,"62":-0.137125210240866,"63":0.16679867425670428,"64":0.018070508805250518,"65":0.09857524171736388,"66":-0.09560892130813073,"67":0.06462798651269794,"68":0.09070682514075126,"69":0.08271202491387955,"70":-0.1051170713043439,"71":-0.3644343986805545,"72":-0.26040750034593485,"73":-0.006094306418544271,"74":-0.01763697405284248}},{"sx":1,"sy":1,"depth":75,"w":{"0":-0.013674114847519327,"1":-0.07814066136052442,"2":0.14776229703009713,"3":0.07696919306461666,"4":0.13809300367620456,"5":-0.02385896863591136,"6":0.07630266504227211,"7":0.04652019463399663,"8":-0.015726525802432893,"9":-0.10978259468213852,"10":0.1659074984231918,"11":-0.19391676335526284,"12":-0.018084755758121775,"13":-0.2263759237978325,"14":0.0422085170984897,"15":0.06657491680141094,"16":-0.006248730203802213,"17":0.09484347879605946,"18":0.026241227543678414,"19":-0.06011612261158245,"20":0.11819536729090004,"21":0.01795942085418341,"22":-0.02165277572497675,"23":0.04213680225923997,"24":0.12675541031330712,"25":-0.09389837024848607,"26":0.01943872145792741,"27":0.03355777793750239,"28":0.04588489987537563,"29":-0.07474142156613572,"30":-0.027002405985006573,"31":0.11509269424582771,"32":0.07902209946232726,"33":-0.1001462376594925,"34":0.02716603818423391,"35":0.026108787400721232,"36":-0.11905563990895122,"37":-0.04067670327835303,"38":0.124063714842811,"39":-0.1153864944115824,"40":0.046325599128818236,"41":-0.1561788349788347,"42":0.19522478625049278,"43":0.1963881305588773,"44":0.14225629504949663,"45":-0.03808835103625935,"46":0.05361116172921608,"47":0.1369920810703622,"48":-0.12099555494297318,"49":0.04011465468218145,"50":-0.19922821409571753,"51":0.09834039518454461,"52":0.24117527137466535,"53":0.02303748004675428,"54":-0.10004571572648888,"55":-0.07808888016817529,"56":-0.06021788114799004,"57":0.38444757666233687,"58":0.1336830577503576,"59":-0.12320997135879605,"60":0.0398535161450474,"61":0.1532018887795238,"62":0.13116684392465114,"63":0.08598580956333993,"64":0.003927446122428235,"65":0.04648254844334552,"66":-0.03893955575897797,"67":0.01938748706127814,"68":0.18802325307136014,"69":0.09462389400358541,"70":0.0262425369944435,"71":0.03040268836566533,"72":-0.018390900126635298,"73":0.2025607063082749,"74":-0.07394328959464626}},{"sx":1,"sy":1,"depth":75,"w":{"0":0.11396450878627756,"1":-0.07841172641597355,"2":0.09935685554726603,"3":-0.03343865930329084,"4":-0.17196403546029004,"5":0.033078325577070945,"6":-0.08714015361779642,"7":-0.008258803931958042,"8":-0.0763838962041228,"9":0.024395585741869074,"10":-0.015252589710532923,"11":0.19021757431248493,"12":-0.1832060892792946,"13":-0.29104289260631705,"14":-0.153104316534787,"15":0.010614904188163327,"16":0.03213848087784212,"17":-0.15084814018645887,"18":0.14769178028665536,"19":0.049928361725283574,"20":0.09840801498235378,"21":0.18986736695278505,"22":0.03011322665205502,"23":-0.06286511638777849,"24":0.13473768957982565,"25":0.12812694143070558,"26":0.046557945524005384,"27":-0.1365793624674005,"28":-0.1684138876689228,"29":-0.04373973440342024,"30":0.014794758303783132,"31":0.22291700959330998,"32":-0.21120634120453163,"33":-0.1834032944068118,"34":-0.047315866827466274,"35":0.03747987909535383,"36":-0.21507919025433728,"37":-0.02005333450168257,"38":-0.140386411780396,"39":0.14959396596565908,"40":0.15464236883290583,"41":0.22273985599577129,"42":0.23520318425673525,"43":-0.032418854204586275,"44":0.12490809201171105,"45":-0.008971569319233494,"46":0.1278360079927209,"47":0.03979810925087769,"48":0.005548822791119769,"49":-0.0674177224731634,"50":-0.002165440487391221,"51":0.5268128235797603,"52":0.012530271293275282,"53":-0.23963337791098369,"54":-0.19690193878950654,"55":0.07272656729735377,"56":0.21979963239419414,"57":0.11355968958002659,"58":-0.2534397972478483,"59":-0.19568550271918664,"60":0.2331601593317373,"61":0.07824956942346736,"62":-0.14403498141786927,"63":-0.3458218937169567,"64":-0.06247492216358356,"65":0.03139215626340502,"66":0.3561863325884524,"67":-0.1238043321647687,"68":-0.061519904504165154,"69":0.010423872933733728,"70":-0.21399532067669824,"71":0.3078766978333648,"72":-0.09376875003988641,"73":-0.10739460985976874,"74":-0.07694786276863971}},{"sx":1,"sy":1,"depth":75,"w":{"0":-0.02834976666325543,"1":-0.04126535454537154,"2":0.09815379636332539,"3":-0.06281692226266872,"4":0.05805765686083934,"5":-0.002215128679639065,"6":0.023223695809292053,"7":0.10911495604790658,"8":-0.05807844671526054,"9":-0.025784267939802468,"10":0.06125873359425573,"11":0.1754035235539083,"12":0.06023958266125767,"13":0.18366507642908908,"14":-0.1235932998252033,"15":0.07679984288278942,"16":0.28941713056354823,"17":0.02221979218442713,"18":0.16158992527209598,"19":0.14315946684675188,"20":-0.01510452807241393,"21":0.14639116235574473,"22":0.0023673089036463793,"23":0.0832171949244393,"24":0.09342141610132082,"25":-0.10698420474719066,"26":0.1708374509496143,"27":0.09549912800464301,"28":0.1129915274234775,"29":-0.011396696067809065,"30":0.11425199901494411,"31":0.0028644276871073997,"32":-0.16819092280285258,"33":0.033777497934977335,"34":0.01877133888638102,"35":0.07934281029122571,"36":0.2203129213582019,"37":-0.025112187445257336,"38":0.09022020189064966,"39":0.09695197747140609,"40":0.13136382331692845,"41":0.13418108274085083,"42":-0.054448223136647204,"43":-0.17666132284262157,"44":0.1332466444690417,"45":0.11153340778018007,"46":0.3211320904628892,"47":-0.055096105366303855,"48":0.3820379587790605,"49":-0.007384957434180789,"50":-0.025407472286446603,"51":0.08091605888343106,"52":-0.061792455630224015,"53":0.19235015826966723,"54":-0.017974769986698363,"55":0.007968475811659024,"56":0.06389091050551539,"57":0.028083208510012666,"58":0.0051627003573969385,"59":-0.10716306969522656,"60":-0.2412424797378399,"61":0.2082669764460004,"62":0.07365143258970579,"63":0.028184446430330877,"64":0.1692202421509026,"65":-0.07496620472399455,"66":0.16230829161390933,"67":0.255309655816097,"68":0.19719571549433207,"69":0.032914678765928684,"70":-0.003913165798884353,"71":0.40350771519319834,"72":0.15272857682795524,"73":0.25806903851351737,"74":-0.008952768788329556}},{"sx":1,"sy":1,"depth":75,"w":{"0":-0.08746003269666724,"1":-0.02261830772116371,"2":0.060751973728121716,"3":0.15610684990426799,"4":-0.08438116453908268,"5":0.03994548429628326,"6":-0.17946462726280035,"7":-0.10651530107213501,"8":-0.10001581671123864,"9":-0.22712132701392201,"10":0.0872834337436337,"11":-0.14406082437623058,"12":-0.0023479337087470658,"13":-0.05130358697665854,"14":-0.004342507133256096,"15":0.05797198573313835,"16":-0.051023685065293686,"17":0.011086679895852923,"18":0.11525259672811242,"19":0.15841550707608246,"20":-0.03674882267719411,"21":0.20811713830911724,"22":0.08438436107654713,"23":-0.1051886990328458,"24":0.27170160038919966,"25":-0.01918988709014447,"26":0.045635929241802146,"27":-0.12824487880854055,"28":-0.13528994691541166,"29":-0.1555260814209692,"30":-0.3012897835722626,"31":0.027367042202343657,"32":-0.07277378164502069,"33":0.18242146977801726,"34":-0.09557447686361044,"35":0.13001428677195734,"36":0.1113316424156595,"37":-0.1572263051272936,"38":0.08186567481412824,"39":-0.041829168361401006,"40":0.0375358256993002,"41":0.047208798882683416,"42":-0.03531266664070056,"43":0.22303136531762144,"44":0.12859498266666722,"45":0.02617353550859821,"46":0.09447728990409485,"47":-0.035860565066620366,"48":0.02843407611082838,"49":0.05460888450374296,"50":-0.03037028416164802,"51":-0.1318954914140295,"52":0.1710422419184813,"53":0.06025088215631112,"54":-0.20686424679992982,"55":0.06847694213083297,"56":-0.2098161330787364,"57":-0.029903602984817406,"58":-0.01768383182528131,"59":-0.08146034286503315,"60":0.0033193676370513237,"61":-0.04181343932370825,"62":0.16478326486970082,"63":-0.2308107640247858,"64":-0.1807299652019348,"65":0.012162920443738012,"66":0.034597899714550656,"67":-0.1745070872918214,"68":0.1328916820836162,"69":-0.015367949369160241,"70":0.0035020291210875578,"71":-0.008888226854240967,"72":0.0326882084008313,"73":-0.23940748766487352,"74":0.07452359532586872}},{"sx":1,"sy":1,"depth":75,"w":{"0":-0.07684662987070034,"1":-0.04637992913859309,"2":0.03026594198670056,"3":0.09423806173214153,"4":0.18643386781209156,"5":-0.1857715851003776,"6":0.03825419002333152,"7":0.13433241520307837,"8":-0.05528097532077494,"9":-0.1403277758771499,"10":-0.1375500116461759,"11":0.038698079186654,"12":0.004286947450770479,"13":-0.1730527100078747,"14":0.059087838043098896,"15":-0.0016183735007411642,"16":-0.1008365650915843,"17":0.021246456003623636,"18":-0.1360238614849714,"19":0.11815875990943157,"20":-0.10866163212884897,"21":-0.16048373933379756,"22":0.29072270997286276,"23":0.039472287301315336,"24":-0.21562662350349354,"25":0.07298012502396985,"26":0.044077508739563474,"27":-0.05027715814054,"28":-0.06216322924581605,"29":-0.004895808080058636,"30":0.016842831087327884,"31":-0.18384928359847574,"32":0.018214270778217974,"33":0.17807720123654946,"34":0.10188725633675014,"35":-0.25061110434647665,"36":-0.07984569941356828,"37":0.0456058798223951,"38":0.18839841072671754,"39":0.12733729760828363,"40":-0.0867684616762716,"41":-0.0611537687223877,"42":0.07898316990437433,"43":-0.10861165299126678,"44":-0.11601251766102051,"45":-0.11841315127515432,"46":-0.06039205608507627,"47":0.09040286907491994,"48":-0.1156666308838311,"49":0.13691485737359804,"50":0.13582979013519608,"51":-0.15386814863575618,"52":0.3511754136792026,"53":0.008160021891606833,"54":0.22490134569734754,"55":-0.22003933482766638,"56":0.11763809240485343,"57":0.06968548802346568,"58":0.06243760829293359,"59":0.0035229221380852676,"60":-0.12548203746895367,"61":-0.05155688690510973,"62":-0.1318685471073475,"63":0.12344104209183407,"64":0.07331205976561714,"65":-0.1004492455627789,"66":-0.01202198502540836,"67":-0.23479229675909716,"68":-0.06810185494078798,"69":-0.09763354362283201,"70":-0.12018272452493023,"71":-0.06012925120480627,"72":-0.11983667160673162,"73":0.15969576355882872,"74":-0.0032424603228415707}},{"sx":1,"sy":1,"depth":75,"w":{"0":-0.15154645330934688,"1":0.03292920545559353,"2":0.028345794194968906,"3":-0.07241031454628487,"4":0.00305282059300983,"5":-0.19051309304029168,"6":0.07127088106306201,"7":-0.049455524535805644,"8":-0.022875213892286386,"9":-0.09988894999887192,"10":0.00030624126840398075,"11":-0.00999760312001953,"12":0.11812209429686021,"13":0.10069213608213827,"14":0.07655942437876956,"15":0.11403201392639416,"16":-0.03307758524973279,"17":-0.03778663040634091,"18":0.1647352197945316,"19":-0.05146132532741414,"20":-0.028289241578753156,"21":0.1388082011034239,"22":-0.05045830383339587,"23":-0.08946663017514718,"24":0.16779807167085548,"25":0.009975111032327467,"26":0.21178243914037473,"27":-0.014705088535264631,"28":0.13239189992952724,"29":0.10137469929348836,"30":-0.18114552873715578,"31":0.07040958611301504,"32":0.05424793326028148,"33":-0.09998517497291083,"34":0.12090892854116529,"35":0.09223604669680217,"36":0.004335924570386556,"37":-0.1399981966608017,"38":-0.08154968629488933,"39":0.07985525070681418,"40":-0.09241419444437415,"41":-0.3796267530175402,"42":0.07203539548374234,"43":-0.012966557946576411,"44":-0.14043475380391493,"45":-0.10501566866112508,"46":0.19619172908203145,"47":-0.012969807752991912,"48":0.1704923550733869,"49":-0.11719423397222826,"50":-0.20476727880361564,"51":-0.0868460943744316,"52":-0.126422570870319,"53":-0.009662359348244933,"54":-0.053645771174106675,"55":-0.042259341813383436,"56":0.09277058277538354,"57":-0.09826191593877771,"58":0.10563230215486412,"59":-0.20711661571001788,"60":0.03810042906164586,"61":-0.22023676910890583,"62":-0.08602527356319575,"63":-0.1295195757222034,"64":-0.004866979774290834,"65":0.0904381308904605,"66":0.28485078339757114,"67":-0.061977882576376285,"68":-0.021686551440778076,"69":-0.1568307157640512,"70":-0.19213713062308177,"71":0.020457169309250654,"72":0.00553099951974246,"73":-0.16989458875780533,"74":0.07354136664608941}},{"sx":1,"sy":1,"depth":75,"w":{"0":0.1447635444039665,"1":0.06956378225173533,"2":0.016235573425924892,"3":0.12043436152662611,"4":0.1551097245687525,"5":0.03796834115435506,"6":0.2180123948674707,"7":0.26030147026482847,"8":0.2715060923288728,"9":0.15490979387363624,"10":0.16175378644085678,"11":-0.013528996896144207,"12":-0.1206054990512443,"13":0.07453583532105112,"14":0.0025651769903294384,"15":0.0625357300563558,"16":0.023598455515236018,"17":-0.04916222318714783,"18":0.06237074386915436,"19":-0.02863924192559938,"20":-0.00022056649955715964,"21":0.2028319860946666,"22":0.11889532398582638,"23":0.1660028392124657,"24":0.042405611086223864,"25":0.0942903463335196,"26":0.07766287182279429,"27":0.10205465797015231,"28":0.010165185338749284,"29":-0.06085941568542004,"30":-0.06555228069505167,"31":-0.015883347095050314,"32":-0.10677631909997812,"33":0.042476232857286925,"34":-0.05912435929739875,"35":-0.2712403643728943,"36":0.025140877852071124,"37":-0.01513396165025001,"38":0.02371884769912822,"39":-0.1545545244285888,"40":0.057099596976072836,"41":0.18228881762612634,"42":0.149605894308441,"43":-0.009826481213130176,"44":0.052306449346436676,"45":-0.07858809417818709,"46":0.06050996558131906,"47":0.17483209774784278,"48":-0.21652427466385354,"49":0.16776878610802304,"50":0.015076617322896339,"51":0.1689718206649384,"52":0.07134779036431077,"53":-0.1377915587330529,"54":0.11820044281464377,"55":-0.10575233026073039,"56":0.312382498292103,"57":0.3263373200615599,"58":0.08619877094046027,"59":0.09548665118197786,"60":0.029940738357594497,"61":0.10207146814726947,"62":-0.017824095664119393,"63":-0.05844343062927755,"64":0.0880724026124047,"65":-0.1657732168864747,"66":0.0015522200435495385,"67":-0.3188711907302184,"68":-0.18489149672556632,"69":0.03328681335283282,"70":-0.15685646727780458,"71":0.22302694745555868,"72":0.10684919621355043,"73":0.09451337632032025,"74":-0.17269726499911198}},{"sx":1,"sy":1,"depth":75,"w":{"0":0.1557890747118841,"1":0.11972224407432182,"2":-0.07031668884665397,"3":0.06270897457848508,"4":-0.1247405805859274,"5":0.1991530839411927,"6":0.16965379094010588,"7":0.0034339176986812863,"8":-0.09619918435677213,"9":0.05204391954057139,"10":-0.011756138576246081,"11":-0.11608242053553933,"12":0.09535961906090042,"13":-0.02774513149136831,"14":0.009115017611200316,"15":0.3136415375062118,"16":0.32244578630763443,"17":-0.08792850031924421,"18":0.16480996006045656,"19":0.03949625911060012,"20":-0.060575087820636093,"21":0.1023318573690162,"22":0.19593711885015444,"23":0.13886925438133468,"24":0.055538132729492866,"25":-0.027189612778391326,"26":0.04265536615588945,"27":0.1103307342141448,"28":-0.19382456800907308,"29":0.07471048387062176,"30":0.07137133990278063,"31":0.28300544562300006,"32":0.19501469149664938,"33":-0.045931914162788905,"34":-0.013485250767111354,"35":-0.015696876848237708,"36":0.11334582155945415,"37":0.12632461513337323,"38":0.12291925362396232,"39":0.03510493287593432,"40":-0.061783482394427616,"41":0.1413646256590781,"42":0.21540556898116572,"43":-0.06226237636281776,"44":0.0194674221284504,"45":0.11886044089583475,"46":0.3536623050679524,"47":0.17377301925535796,"48":-0.1746365230361686,"49":-0.00001190545083729113,"50":0.06202024376160261,"51":0.34731561309358006,"52":0.07434133132801939,"53":-0.011538345079742392,"54":-0.1614405476433226,"55":-0.014337690857645535,"56":0.23896706776545584,"57":0.06438422717228459,"58":-0.14304887303891015,"59":0.08030369394907806,"60":0.19623011359447157,"61":0.26561263640124283,"62":0.1627198255278597,"63":0.044089833049980695,"64":-0.008306817389760126,"65":-0.16844006528112182,"66":0.3034806192748419,"67":0.15846937314127965,"68":-0.0981742501898304,"69":0.04979122568476141,"70":0.01683659025510753,"71":0.566972107086647,"72":0.2512726426307965,"73":-0.05301828175915504,"74":0.11249342799313786}},{"sx":1,"sy":1,"depth":75,"w":{"0":0.22439803492478944,"1":-0.0896037730020113,"2":0.06404716649816489,"3":-0.0003076047766062231,"4":-0.10210711063626697,"5":0.07118329068147593,"6":-0.10594190338003805,"7":0.22209745502144332,"8":-0.13529293184381339,"9":-0.03579673806106685,"10":0.14106370875630136,"11":0.07945878672621853,"12":0.028483251154199103,"13":-0.014409698045209309,"14":0.054776873444436706,"15":-0.08375222304718932,"16":-0.16937475182838094,"17":0.03194253005936525,"18":0.03540515949394086,"19":-0.005072654480663646,"20":-0.05592336827824891,"21":0.046476746072585694,"22":-0.1209740255601903,"23":0.2059138724459988,"24":0.0400119309346788,"25":0.059170095578940374,"26":-0.2028182438359834,"27":0.02684422863560602,"28":-0.18975308230967236,"29":-0.12380135815787414,"30":-0.020418361461300338,"31":0.02928315714224093,"32":-0.052114755606763215,"33":-0.22861785888378183,"34":0.07328724015086358,"35":-0.010762772174631258,"36":0.025895671861469897,"37":-0.0864878176779178,"38":-0.05066565229430009,"39":0.013386954644124406,"40":-0.10629241446965589,"41":0.0845928280018316,"42":0.11401316965485855,"43":0.19814837512956496,"44":-0.16507030402399328,"45":-0.012644626662249506,"46":-0.07125545216404378,"47":0.05662505794410042,"48":-0.16569442400291307,"49":0.14543117748816392,"50":-0.1899734194158208,"51":0.051678170551625414,"52":-0.048667622452048115,"53":-0.20009529748636481,"54":0.07306342987590267,"55":-0.1498583986931966,"56":-0.027055717387615787,"57":0.15122445893083852,"58":0.008862807146435435,"59":-0.0023231125409325783,"60":-0.07570653676266272,"61":0.03974563880872054,"62":0.11010201088562124,"63":0.07832024060729854,"64":-0.01674980443845331,"65":0.054962026576403304,"66":0.06416841462143011,"67":-0.07447294485765847,"68":0.06309957028831435,"69":0.020989471092206242,"70":0.06327372975461139,"71":-0.06707991012073627,"72":-0.06687767560539834,"73":-0.05757912427157508,"74":-0.16413018406379917}},{"sx":1,"sy":1,"depth":75,"w":{"0":-0.05700084068201197,"1":-0.00427618201761593,"2":0.05133762321478346,"3":-0.02910472250272376,"4":0.09100821797490535,"5":0.029756487134589737,"6":0.08981381360315802,"7":-0.3193029158834648,"8":0.0017535895531270618,"9":0.1443837770865738,"10":0.07259436120493416,"11":-0.10740400264556663,"12":0.039180166051057085,"13":-0.016657708973611653,"14":-0.02292654944645334,"15":0.10396350892010944,"16":0.10395792425238896,"17":0.15371791813661032,"18":-0.09693011339362988,"19":-0.1845322370919585,"20":0.008295383423443015,"21":0.04049687251340407,"22":0.285608910989308,"23":-0.07522759435810421,"24":-0.0176465571949161,"25":-0.017678603775536622,"26":0.07418788644994297,"27":0.1741907077452534,"28":-0.024760369791893663,"29":0.029254795307648573,"30":-0.004475080031805533,"31":-0.010814215512117522,"32":0.13625699384824952,"33":-0.30268783582953623,"34":0.030066912346840575,"35":-0.16163659110303413,"36":-0.029723763264274738,"37":0.21175902226110457,"38":0.015532160612854144,"39":0.023750957247047004,"40":-0.08707443185695467,"41":-0.17327975171273063,"42":0.2277939659115085,"43":0.010066813469498458,"44":0.04315079458268203,"45":0.1690985702118444,"46":-0.04005216506413164,"47":0.12892453218466457,"48":-0.024597031423805288,"49":-0.00039326182246266796,"50":-0.041786865440338716,"51":0.21009420491037006,"52":0.25787976989036343,"53":0.10938284417956608,"54":-0.08700395752596872,"55":-0.10698169993748258,"56":0.14704571343377176,"57":-0.08307595396445312,"58":-0.11356273782537632,"59":-0.13799204732526726,"60":0.051253215994134106,"61":0.03063940459134977,"62":-0.10702925509665176,"63":0.04670872859197132,"64":0.01796819633964016,"65":0.2657756723433533,"66":0.029515020087026694,"67":-0.10908664686708501,"68":0.10714983788479346,"69":0.03316413817230173,"70":-0.16148436305489358,"71":-0.015997445212946326,"72":0.07454809825348323,"73":0.01559290720847586,"74":0.07886381651781797}},{"sx":1,"sy":1,"depth":75,"w":{"0":-0.12221073026538608,"1":-0.09646912505043216,"2":-0.15533163722056698,"3":0.09421697737917087,"4":-0.03367426538710287,"5":0.10863170372198894,"6":0.0720797980186845,"7":0.20686068469545282,"8":-0.19834619777425305,"9":-0.21540017887300456,"10":0.09793323994823476,"11":0.16735408928024123,"12":0.18969088124975947,"13":-0.10273854801532507,"14":0.01711944169856158,"15":-0.011068879670416592,"16":-0.030187166559569486,"17":0.15629205742813476,"18":-0.13755848157572723,"19":0.041317779650075964,"20":0.008656552133244072,"21":0.022452397576793213,"22":0.1043466237914248,"23":0.15731924699661623,"24":-0.03579551214195507,"25":-0.16069352556278638,"26":-0.027102788969138203,"27":-0.15393403718521978,"28":0.0980013695560983,"29":0.1813775841494873,"30":0.10317525712572256,"31":-0.1200891935763622,"32":0.17121896360402472,"33":0.07846097067576008,"34":-0.2988392758919461,"35":-0.09160573323194796,"36":-0.007435248155318074,"37":0.023393400149980564,"38":0.07698569228314639,"39":0.04966104197723308,"40":-0.10409689293818834,"41":-0.0973545898514612,"42":-0.039224288593308246,"43":0.005607745482512007,"44":0.006098557760980368,"45":-0.07136705935350952,"46":-0.2330831305886748,"47":-0.10468646360213456,"48":0.2875605662829792,"49":0.06345910582341042,"50":0.15234118941108615,"51":-0.04734536487320159,"52":-0.10233480349201858,"53":0.02336713504051246,"54":-0.01882468154453778,"55":-0.10749640314615584,"56":-0.03240842057643669,"57":0.08546976855913233,"58":0.07401922183823531,"59":0.027702633571237877,"60":-0.04966111207178027,"61":-0.08456928669476252,"62":-0.04720924804265195,"63":0.10284219527019993,"64":-0.11292716721471241,"65":-0.24508094850053397,"66":-0.021285858985525624,"67":0.11919553998809532,"68":0.19676726434152003,"69":-0.11987148910488309,"70":0.14660885018549685,"71":0.044830852003419255,"72":0.014455050964617409,"73":0.22812776134455706,"74":0.07974523566944229}},{"sx":1,"sy":1,"depth":75,"w":{"0":0.15065139675682632,"1":0.015538168672637019,"2":-0.14720741225383702,"3":0.022647048634938067,"4":0.16123459198635917,"5":0.15517586188090632,"6":0.087105205274917,"7":-0.1944395395783754,"8":0.0063489876545500725,"9":0.022084935909127204,"10":-0.11428284938893854,"11":0.11124381211169307,"12":0.02333415093152813,"13":-0.02003944284376462,"14":0.16601006248688532,"15":-0.16788992285652932,"16":-0.13222198555731887,"17":0.06579375357562198,"18":0.0830150774732289,"19":-0.06046696042187777,"20":-0.030364074624610733,"21":0.12072713427881923,"22":0.004875529768406941,"23":0.03985888526373841,"24":0.06761873096571132,"25":-0.17330395516920608,"26":-0.1261774487994539,"27":0.09064893153163954,"28":-0.04748955001971619,"29":0.09994831572195735,"30":-0.02732607984255647,"31":0.04539879124242863,"32":0.24003561844413276,"33":-0.020404162983847163,"34":-0.17789160120216552,"35":0.1311334967070841,"36":0.15849866205790464,"37":0.00018199950879344533,"38":0.031608121094829106,"39":-0.17172097184338467,"40":0.04770760061093679,"41":0.20814048503846744,"42":0.28658841022377524,"43":-0.09219028343946042,"44":-0.07972297120941758,"45":-0.09819793767896232,"46":0.27222842906288364,"47":0.01754226308736197,"48":-0.10666228994136362,"49":0.10128583425375588,"50":0.16211946698551583,"51":0.007300625874621436,"52":-0.17085276496264196,"53":-0.020246382911337586,"54":0.008600899640822285,"55":-0.058138849794787395,"56":0.09131398343067158,"57":0.10483705729828446,"58":-0.03780390543960685,"59":0.038688673205867066,"60":-0.03948532656969442,"61":0.14842955364311408,"62":-0.12230065491057596,"63":-0.08137994451455792,"64":-0.0005841722478747359,"65":0.10913467870708571,"66":0.20126341613634496,"67":-0.07541463175190295,"68":-0.0312822152920934,"69":-0.00930036722970493,"70":-0.14693382698378057,"71":0.17039559019098052,"72":0.23827435761973212,"73":-0.2072382652289658,"74":0.07433441597168058}},{"sx":1,"sy":1,"depth":75,"w":{"0":-0.16220320856197912,"1":0.028956249017138645,"2":-0.11699363559109216,"3":0.0741696108798631,"4":0.13619340444012662,"5":0.003644451311529447,"6":-0.09702377900767487,"7":-0.020652996262630972,"8":0.0032087039474528456,"9":0.025136039106140026,"10":-0.12023920913683157,"11":-0.031244904763151785,"12":-0.12734064530692052,"13":0.20535997691904356,"14":0.03722094700144578,"15":0.10818472161625922,"16":-0.16095596327512438,"17":0.008172030886553482,"18":0.1192467110109988,"19":-0.0029798491168530595,"20":0.01223206472765643,"21":-0.011582760322265224,"22":0.19726062061135458,"23":0.29423432355323037,"24":0.18378371247179975,"25":-0.13635935726736437,"26":-0.008022274908172092,"27":0.20249459378308607,"28":-0.17125377400845776,"29":-0.025829094657960957,"30":-0.024769741681805277,"31":-0.1746495924926597,"32":0.049789179382982184,"33":0.14779788674449493,"34":0.07387942275000502,"35":-0.04077117908900505,"36":-0.034165506076985694,"37":-0.13083611454715144,"38":0.21186548677300202,"39":0.02708224699763705,"40":-0.12666144646009658,"41":-0.19530570407157383,"42":0.0890696020576316,"43":0.1565564503486006,"44":0.06753069793077025,"45":0.0063056450143971965,"46":0.14785826652004194,"47":0.07905271559946407,"48":0.2943029471254344,"49":0.14086234711643975,"50":0.1301668015808035,"51":-0.017435067406563434,"52":0.008673501484158616,"53":0.29295637314594697,"54":0.10861445614044161,"55":-0.18883196049964393,"56":-0.014124948297743247,"57":-0.08812399346472718,"58":0.2560006471246443,"59":0.09419120883651422,"60":-0.010206828292419923,"61":-0.18867386726332844,"62":0.05959300752831626,"63":0.2101650891172949,"64":-0.07942322369986302,"65":0.0072773241517451025,"66":-0.004770709358393287,"67":-0.35338592145473324,"68":0.2192650190136879,"69":0.08053703621612864,"70":0.019549774636035654,"71":-0.3112982561038969,"72":-0.04198068843044517,"73":0.29895328945656163,"74":0.18417253236133221}},{"sx":1,"sy":1,"depth":75,"w":{"0":0.07992095874497808,"1":0.12734894381323428,"2":0.1624120504579903,"3":0.027620022085112536,"4":0.12585632441973238,"5":0.007620751631768269,"6":-0.08138914263849537,"7":0.07018087840951333,"8":-0.10138815374705504,"9":0.07981550731192351,"10":-0.10573598002350423,"11":-0.3524125236313367,"12":0.0761947749227118,"13":0.11097887082068092,"14":-0.045122573774946495,"15":0.23763943194295786,"16":0.19092815763696502,"17":-0.08665552022658764,"18":-0.09428800476036392,"19":0.10260993001855755,"20":-0.039691565768863485,"21":0.06236977951187762,"22":-0.026014859586397567,"23":-0.019290247768264712,"24":0.030851579881535324,"25":-0.09289568309601141,"26":0.08681284894283085,"27":-0.06354278879545203,"28":-0.0934339347088461,"29":0.1647468865510467,"30":0.1942079516445066,"31":0.18701143438444695,"32":0.2220547236886408,"33":0.20239316524159387,"34":-0.050966489410402806,"35":-0.034668825269396866,"36":0.01741502961226141,"37":-0.08175225532457495,"38":-0.04975744794960106,"39":0.022928863801847388,"40":-0.05631062531737994,"41":0.03919850479197862,"42":-0.03289691485199918,"43":-0.0034660439570911496,"44":0.12256716122627778,"45":0.034334784175452326,"46":0.007454915684397142,"47":0.04632659151964594,"48":0.0911757073630648,"49":-0.1344190789044708,"50":-0.14792810594837483,"51":0.023508878330084967,"52":0.052561823628980556,"53":0.24866346907733375,"54":0.011261657263497907,"55":0.03595002185875925,"56":0.07600428317661943,"57":0.1406090462489698,"58":0.2247596866807193,"59":-0.028061763861488134,"60":0.01553867907725785,"61":0.22489157030761295,"62":0.25071454174770264,"63":0.03561895490793934,"64":0.11826047741625852,"65":-0.016495255294464738,"66":0.027630955880385416,"67":-0.007421651022404083,"68":0.23096661612877886,"69":-0.0647966607852411,"70":-0.2163545486547522,"71":-0.2162053202709881,"72":0.22713306611866949,"73":0.2642275450700711,"74":0.03755168218510605}},{"sx":1,"sy":1,"depth":75,"w":{"0":-0.20654844736238967,"1":-0.1845898839311082,"2":0.15292563810535761,"3":-0.08014840586850919,"4":0.030346027427434193,"5":-0.03120519658901083,"6":-0.08064283604767532,"7":0.03422114699003245,"8":0.02519753050795977,"9":-0.07194919215735147,"10":-0.12707308957397392,"11":0.08499504578714998,"12":-0.19040182113836981,"13":-0.06936223435630107,"14":0.15361537149141985,"15":0.07471902866889177,"16":-0.1594990279785788,"17":-0.006086573706492273,"18":0.09833021454411499,"19":0.016580801871733688,"20":-0.06819856821290878,"21":0.000624195692266559,"22":0.09872438294124347,"23":0.1465268013397711,"24":-0.08875773622716274,"25":-0.03995841429093225,"26":-0.10299835624002283,"27":0.02788787933075892,"28":-0.13511570535157968,"29":-0.1868402216411837,"30":-0.033167255783755185,"31":0.12528973687558972,"32":-0.0518938475854178,"33":-0.10580998202373,"34":0.08101725682726181,"35":-0.039632479455454506,"36":0.12936338408338194,"37":0.04437530298810138,"38":-0.2489034044857721,"39":-0.2900607907328013,"40":-0.08867357881366109,"41":-0.10253005496037963,"42":0.06752676324558501,"43":0.07371222494838636,"44":0.025388466065003813,"45":0.11645464037779303,"46":-0.03485266599196861,"47":-0.01944482535000835,"48":-0.00887401669380101,"49":-0.030807971217012894,"50":0.031123857044794784,"51":0.07196108933746333,"52":0.09085150090634608,"53":0.11959299614295037,"54":0.0383664695790366,